function Y = neural_net_4D(X)
%neural_net_4D neural network simulation function.
%
% Generated by Neural Network Toolbox function genFunction, 21-Nov-2017 03:15:07.
% 
% ===== NEURAL NETWORK CONSTANTS =====

% Input 1
x1_step1.xoffset = [4.87755090317066e-07;6.3488112844734e-07;2.55019092720854e-06;4.59249252182659e-07;-0.996458593911;-1.9202379279;-1.90479580499;-1.89204127333;-0.992902375592;-1.87527674119;-1.89235474747;-0.992067815238;-1.89703517645;-0.997708994977];
x1_step1.gain = [2.00000322400047;2.00000724292802;2.00000796480065;2.00000351861652;1.00419666693298;0.525577818013637;0.530029648792584;0.530025579360717;1.00545415430017;0.528446998438928;0.524403325189079;1.00615679822081;0.528644447564603;1.0021555496729];
x1_step1.ymin = -1;

% Layer 1
b1 = [0.97922292280604029;1.2394841222455049;-0.95381192473685439;-1.1017178300410138;-0.87050298240656898;0.90393633335987711;0.76491204345448816;0.74734564032225781;-1.4447318366826274;-1.2195270343043458;1.239124701375018;0.98456955136547308;-0.21348786154853078;-0.13774004306298016;-0.47385625133796316;0.73139481564417508;-0.93787259314793558;0.9113038094589937;0.59596571943830545;1.0897262589156897;-1.0516372664654414;0.10797840313352793;0.28134836081711517;-0.6441098700352561;-0.91499005272273026;0.22732467115569258;0.20664425841188319;0.18840661600242456;0.54041057773012025;-0.12547762248773739;0.77321099121176196;-1.0922836503542095;-0.45640459251724053;0.4061962415659115;-1.1722596032663399;0.43006824429285861;1.5836595014119959;-1.0820713241303339;-2.1322929890207143;0.41640877153876482;-1.1057707259178524;-0.34040837701475135;0.9876790922753369;-2.2714713092513859;-0.75754356613839346;2.5940991674243183;-1.0846995404660518;-0.75433578645456434;1.5052245445373942;-2.6561004572846216];
IW1_1 = [-0.030451779009101891 0.26056469456386627 0.070043074709928113 -0.068966847524246561 0.00021879414456680362 0.008466518798732281 0.046421451338956414 -0.0022938821392296067 0.11463919314408635 -0.0033355466799042935 -0.048166321933629727 0.0065682486235826747 -0.004294881137396173 -0.005940822764338544;-0.082293684332209779 -0.3930075326582127 0.0048443716637841302 0.034363101087768737 0.00089484039246691481 -0.38684835516569471 0.012139268971366475 0.00048114978544745848 -0.016124591401428412 -0.039887978792253559 0.0010454926615579019 0.0084245843310631358 0.025924080941562001 -0.0014538209373683019;0.33743318924978477 -0.056823369012836494 0.015588112911570966 0.036084506862814038 0.034054672106099172 0.078506499681573805 0.1192013366874896 0.17309847816529136 -0.0054000177180441476 -0.0010535200035236504 0.024125685341941275 0.0058270102076237035 0.017241659088665866 -0.0016211592576761246;-0.0012562663174949518 -0.017638809322407759 0.049531219112103689 0.019861372751833351 -0.076731707194302182 -0.47039459288375457 0.5662783462209493 0.73888178571936602 -0.05580873201154686 0.74313489656482357 0.96436235784505808 -0.076916906204455737 -1.1319981224884819 -0.18621531087800633;0.064021694677847546 0.0030806447689453618 0.03058990122104302 -0.00124645697305109 -0.25230554531134824 0.28268458058835383 -1.7276359150382625 0.78086359271515682 0.030533232142804227 0.3815433533087404 -0.2657258467205017 -0.15096310672809224 0.88486894210342582 -0.064084911244357112;-0.29815235060717277 -0.050278334654972189 0.0017567737737635431 -0.014610636058995978 0.046411082250709931 0.12995001993451447 0.00068262857686049992 0.01487237674240746 -0.0041200353341949037 -0.00074324593597864725 0.017611001203531422 -0.0017734525127979072 0.023122250983471999 0.0051907242887221823;-0.030559575627695831 0.38779615957661118 0.090334164384922686 -0.018792456476829561 0.0061805446303154366 0.083282947866308826 0.01120370958572979 -0.01794407081224619 -0.014839308235556497 -0.14563004975302296 0.0067310557765168887 0.010483408969891684 0.043738255289969004 -0.0030427463018016213;0.028891208188327827 -0.36960140517521367 -0.011038890572807587 0.0285586413633655 0.0052347769517390279 -0.11592079343295228 0.03566744444168387 -0.041502900680368847 -0.051758125371213694 -0.034403596904288847 0.55320378711134033 -0.0054251713341076854 -0.032857434073072372 -0.048129801787574901;0.058635123420469039 -0.0090742022670930941 -0.49802328290820802 0.15303765735811514 0.00070359473990230792 -0.016946041068622495 -0.026790459022985776 0.061072961735083739 -0.00086856887386443362 -0.016332545204406267 -0.0035271299000516625 0.022180616081505844 -0.33751650665243343 0.040905403795583793;0.49136271103115903 0.04251753489549643 -0.03771038697484963 0.019943764342727852 0.0017790845829148126 -0.016537043788602372 -0.40070900090821743 0.42247646232456776 0.018229195802058319 -0.033408279498807883 0.023508467294123335 -0.0023112563562267168 -0.0061467298286977095 -0.0071283246413163534;-0.0014156478910313059 -0.025498686061377479 -0.0061528917975543999 0.011888608388640585 0.08066084233018353 -0.97259650884861537 0.97243504201759057 1.0084822075682067 0.11903344454628566 -1.2495539086176592 -1.0862197113191141 0.12510314242556422 1.0572477009010357 0.078974697276701603;-0.010241047725516747 0.056260955540482278 0.039654525603180016 -0.36863144925153923 -0.015865131151862846 -0.096336261062469883 0.029632143625196724 0.12273852488294974 -0.002846358047555619 -0.016695879595464955 -0.18181142802816655 -0.005958864905299982 0.01284551065207537 0.073543137811076686;0.15916827679297185 -0.037076589032392332 0.0025744898468993554 -0.036108407415842578 0.29084081835205355 -0.091680787457392415 -0.020281246270794615 -0.094030392204600896 0.0050588668800695055 -0.036716609743166172 0.0021997001408293956 -0.010259850853871976 -0.015415512607425944 0.0071454103017322811;0.011503420504776655 3.4529877147327173e-06 0.013249244338432321 -0.1701780626205302 -0.01626278804126156 -0.065253653337110529 0.057859396183251928 0.017759969274000097 0.019743674250899547 -0.008547061350898482 -0.10423047142654557 0.0030441797824798888 -0.12302217212408023 0.23269795483402803;0.00098040649197452478 0.010442600194607214 -0.27299305520934958 -0.011619488300075035 0.0048996635092545043 0.0017644747617863573 0.0098328914366377865 -0.04446587445090236 -0.013580022963618751 0.02235845631562465 0.015459660488270036 0.024929509819705646 0.073826218506025124 -0.037405812468821846;0.042371989224180687 0.029761984899345607 0.03869216874008375 -0.008237406525970074 -0.014052358617282282 -0.02846396185362279 -0.065199276864974093 -0.021466264882444134 -0.99113193518920228 0.041774282045471997 -0.063022160301501359 -0.034116636667755051 -0.059008106546165791 -0.087383733828037699;-0.02386818836926247 -0.029582868105229979 -0.026351342401583707 0.017238961151327226 0.012574636172371459 0.81812274222126569 -0.49724347077646586 0.38910768187424727 -0.18455574489232612 1.7948293276927523 -1.0094588515147906 -0.088076442707246086 1.0617785609542452 -0.081644702740307218;-0.030009786857975639 0.01766728068449968 -0.0049974900372430154 -0.012746541528169435 0.09898638729484717 0.78600748319116776 -0.51454171090407419 1.1955067472887593 0.081382972657332756 -0.44386409341682737 0.85788605138689733 0.029299049216997792 -0.72006595867426793 0.14556907505839894;-0.045319393581064453 -0.006375872746316397 -0.075108580605246653 -0.060803473178942295 -0.027154354796958942 -0.091416612650265017 -0.10867089486237767 -0.12128715054035821 0.027549376951270056 0.18254793695305968 0.34682207688599159 0.027190845723262701 0.51413055369502547 0.18833857256024925;-0.002551962351904402 -0.029963750497568609 -0.013700236083567447 0.026176509807336157 0.072722300362006248 -0.86569215345709527 -0.75917379598776757 0.9268175514236402 0.11952003207680657 0.7986593474641478 -0.97658854120743088 0.091456628694503619 -0.66822116691184286 0.10662227026046518;0.036268414668951761 0.023306635074261863 -0.038028793353878314 -0.033679820639846328 -0.028917317451164121 -0.68900524273775055 0.58319148853423741 0.60888331194555712 -0.019189411476432376 0.58452657973241251 0.45292953923630408 -0.038376554134260374 -0.25433611257620581 0.028291331663811432;0.089871229069870967 -0.0094166766646037355 -0.094051782841067036 0.085391954931281364 0.12446388427653934 -0.011774683402897741 0.09848001696402231 -0.0044098904101685342 -0.00067733516958403154 -0.12377171224567743 -0.13263343045606515 0.046022408412057042 0.15236356441847046 0.1451520418353518;0.043252109170786972 -0.047121872017303286 -0.33705039838211609 -0.013694917428296838 0.0097935439413329821 0.069283755831499746 -0.19805246780499081 -0.04135290943823846 -0.020760805970196361 -0.10974329138367533 -0.060928924898460878 -0.011028024721901205 0.017364673374443512 -0.00096058330990390071;-0.10842632572887863 -0.0042431518313209094 -0.40857783555039423 0.013101820576227417 0.010284122334835629 -0.00056878348253137196 0.31284805231029345 -0.057294979359333344 -0.0062990166379384279 0.034143244566728743 -0.055438274718601709 0.013592625191283464 0.016439116868485436 -0.011220930488561289;0.017816007505447651 -0.040461251376886741 -0.0063469287388521738 -0.0032518166382858329 -0.078004457478394018 -1.0068469265313684 -0.64810560043931553 0.67486892081915328 -0.053133235406863891 -0.71826288710632413 0.8900477584659181 -0.044687614676291003 0.47497137896493169 -0.074826419168978267;-0.011133716239582297 -0.18549023075670282 -0.0086064674315784444 -0.098177657906571139 -0.007582098869616141 0.0033894915929735311 0.031159462253065602 0.013228540778342292 0.060524688185933602 -0.043569822360040901 -0.14112214863265943 -0.002629676675047403 0.0046419473592148952 -0.028273408686972895;0.049846048330011619 0.096560618498300485 0.066289958712300964 -0.15417130546060934 -0.0085331335483694749 -0.051306375683213362 0.040847027508994271 -0.067347901530831242 0.0019826170700198934 -0.05902149034867931 0.067768686026101602 0.0081974310738790676 0.080315897058210933 0.016083138026929789;0.015817210070759161 0.010993065551213118 0.031870924187839378 0.016590989760055849 0.066884889457134694 -0.06601616969760464 -0.05225908764156361 -0.73887674927314129 -0.00095373285259059979 0.048358329488032127 0.64124198819661937 0.0069991861029960805 0.18261206166999736 0.46462814829442078;0.14423948603732967 -0.069024102790804245 -0.028161223775582795 -0.0048492750626057679 0.33469858688307474 -1.557245898137553 -0.40192838372399792 -0.60373671804259676 0.14321308070665417 0.12812294092027329 0.33253072721237403 -0.021552149240835226 0.064078985611061609 -0.022088444801956993;-0.058971250486542837 0.013627514600939479 0.45857526755253269 0.0044595200259722363 0.018440531133949615 -0.0099604900136645736 -0.1464163700387841 -0.011645588535241591 -0.021767273674543206 0.30298458217431584 0.014915436667114975 0.63729789964229777 -0.054572767956089487 0.015611521618961623;-0.45522693077531723 0.0080710540842683001 -0.0097002288315025803 0.031258543873701125 0.017825258009764474 -0.12238297941787477 0.038104392714390124 0.31858325138508797 -0.00028798753211750167 0.0057843087670151044 0.012620841222184846 -0.0079088650440734508 0.02571061719100896 -0.0079214508980750258;-0.013159603466145536 -0.031144443155088793 -0.00076138342953965365 0.55554291008948387 0.0031833476901389425 -0.0029162365746140352 0.022403736747387094 0.092130640983819762 0.01235594492049172 0.0078581473120679698 -0.11594438108065899 0.00052755329943311778 0.06630656789359371 0.022833538638231909;0.0020206986332876329 0.13070676547453008 -0.11670406356267682 0.0019352738129152509 0.0056181341569250254 -0.07730131747818593 0.01055675046999245 -0.0032726087315630105 -0.026936062933613312 -0.49516257432120631 -0.012712885987741378 -0.0075206513539733608 -0.054964957669512482 0.0058356464606784675;0.069570511163369347 -0.024279082554432344 -0.3870473527913828 -0.023843337357683545 -0.023489967338278059 -0.022567470223782887 0.056004926100255426 0.069820537691591203 0.0091408568728561894 -0.019101482604624645 0.02621357939719934 0.081709439669977069 -0.084665502205391999 -0.0070655614721386803;-0.0064212987729662784 -0.028218149898686998 -0.0045155753953832183 -0.0068603294753952259 -0.11877802391588338 -0.80089020388753174 -1.0705399325206253 -1.0096413189277809 -0.070956277626588501 -0.90085963234525468 -0.67939183225690203 -0.1047723216754843 -1.0928180277266344 -0.098812794486840605;-0.01982203476824464 -0.15285764708736141 0.17673018855269579 0.002808842368136106 0.0048171038731169569 -0.038085824386988383 0.0422235181739423 -0.050728461344258534 -0.042260920001148075 -0.056558637886563748 -0.023615857382798807 0.005261721351588599 0.015064301956858298 -0.013051025730897824;-0.00075395959149906838 -0.044900869475371426 -0.145731949589127 -0.25411874817179442 0.0039549788286266808 -0.0026336045056953635 0.049494756780638249 -0.019014463189104838 -0.032287162447759594 -0.073879996449804697 -0.11521754171323004 -0.01216972113527537 -0.24333772306035298 -0.058735871502157345;0.025713985368682461 -0.67475766876160626 0.10340969270516724 0.022883845595204438 -0.0064989615211389976 -0.053099461643288597 -0.016355551116195289 0.014206871360367647 0.028623631979327699 -0.36796555924247293 0.021918695470266609 0.04589934234159862 0.020400908975520014 -0.0028482015643249612;-2.0664329945783999 0.019209807620213987 0.039898561514586171 0.033005668737522996 -0.67298088334080808 0.23060857409993465 0.24203202655978021 -0.05373764345601785 -0.018948469395496111 0.0023276903687894607 -0.025784364048141811 -0.038110917834297965 0.045259162432653904 -0.013182177232789388;0.042128149979646978 0.038783336831312118 0.0001186544253951775 0.1990422459686112 -0.013587579619925056 -0.14503357674309564 -0.017185049053644402 -0.22020892736859785 0.00032749828264831612 -0.010890140558294499 -0.12445239132455929 -0.0023101694089473473 0.0070817261941327108 -0.02699912933291328;0.01219983824797116 0.0040528769380535372 -0.11237501802466797 0.011208002053242886 -0.030899058432327986 -0.085160417091713958 0.34338196930069781 -0.037101492186168282 0.078669251448726774 1.2638646557650501 -0.079382371252397832 0.15606034137577487 0.011677526124213463 -0.021672350088101294;-0.012418322718391092 -0.0032931060654476786 -0.010188251055454544 -0.0097940432947539319 -0.056221855552500026 0.04650602569229273 -0.026972860417114559 0.25025435695906112 -0.027908606583483344 -0.0284560534669634 -0.19441006617069148 -0.043036062603007526 0.10317361866019834 -0.95774480069250556;0.037208333201220502 0.34538042197820196 -0.034027419420896272 -0.055642883129318171 -0.02071002757227897 -0.12903628491647715 0.026774114363687474 0.10691221351254802 -0.019874892546781743 -0.026644170531746697 0.49602621684703174 -0.017116462004134799 -0.0052369073812054481 -0.02656217327116096;0.0064311734085675644 1.3963227440669932 -0.026297289379931445 0.026275244736766071 0.012436360354090004 -0.24663821624476878 -0.016767774263505817 -0.092576539444027758 -0.14945670175293935 -0.056550045986771359 0.013273622256730906 -0.02002484690169095 -0.035435558403604482 0.015110700294541165;-0.38799197472867641 0.042191306498096277 0.039792643146378155 -0.00078924738097031961 0.07285453280719778 -0.26996387379063569 -0.04553264916630681 -0.31657154994351838 0.018307552637169024 -0.0039561438468668393 -0.014001912725973911 0.011910737026895357 0.025746075792096278 0.032279434459970086;0.041594274143580287 0.022756703128771035 -1.9567740126402402 -0.01187681031374016 -0.013750700178885663 0.048499580690533839 0.0087349292528386985 0.053102895260835212 0.0076426260155439095 0.074315797862780489 0.038822022038078496 -0.08040821824193517 -0.044358158010465873 -0.053005028895940054;0.038279702663463665 0.016687800320412151 -0.065735887755070971 -0.071550374047068765 -0.0079730240570395784 0.026228034277728511 -0.0044290432063447361 0.088741685242353832 0.016368172439363501 0.046976166929109948 0.024998288402621652 0.012189081129265412 0.39065567471002288 0.023027701476186824;-0.15304895603637825 -0.003586109339173897 0.046081551620058579 -0.076141503844858474 0.035421552089594417 0.013679481456435431 -0.47840346784129789 0.28833078856020034 0.023147873334922461 0.040055505891730049 -0.043678513463244195 0.057396347827079669 -0.34463573003951548 0.0052130005942120266;0.082817884066506142 -0.017120019925170506 -0.079392730346134213 -0.017598809038748962 0.0055955093349536666 -0.059793085789541095 0.14622228720198205 -0.0073600550096770611 0.024628884810803317 -0.10027139659132389 0.015677447447253298 -0.17093689778191687 -0.092910620391434842 -0.0035957377837381246;-0.17151738932590938 0.066904488479572338 -0.14114367421758744 0.39027667193869164 -0.021709531534821386 0.038612289142509103 0.15562705181385997 -0.31180739348193409 0.017342981248527456 0.034695699890076558 0.058321722507655195 0.00032064253496484217 -0.085775276606160217 0.049734779992729232];

% Layer 2
b2 = [1.2437951638154614;1.0824651399172014;-1.5140423487423595;1.2333963242362758;-1.2302657756790496;2.4371768602537922;0.98647959557573917;1.4058852303251808;-1.1991859160224574;-0.94878034599711802;1.9078003076165702;-0.80982033314925594;0.66701045308653906;0.53488488307136439;0.47476318273113022;0.47446530242758855;-0.88768018802230209;-0.37388021245787667;0.68198109400659568;0.30435869011261008;-0.10355710777414205;0.30000259305291754;-0.4684064752674803;0.15837153666366288;0.7354567409286642;-0.74230863945804437;0.17223864926421054;0.56789357808762297;-0.66293642701300626;0.62529326123902773;-0.64314388719758309;-1.7745564093160011;-0.13329770697190885;-0.85878846264947017;-0.61266102354775387;-0.91145203430584842;-0.35421000788391044;0.94899064021240676;-0.58757817226766718;0.48971012960391247;-1.9720927121770708;1.1203202106917987;-1.0426100805826937;1.2372101808289429;-1.1914774654157727;1.3973277862064197;1.2567614578329651;-1.5007237704668739;-1.5947010750599611;-1.5859061171115938];
LW2_1 = [-0.10775926551925087 -0.0059584539090427619 -0.64369625853000934 0.015529475742744804 -0.028759758873470351 -0.57065218929510686 -0.41802840466209745 0.086385183353326858 -0.11500453829574536 0.13126606870374447 0.01172386760111054 -0.11642223570063893 0.13483310750482261 0.028277370863295969 -0.06098108039440079 -0.016619077311188626 -0.00023353314265658567 -0.041490315566546018 0.021353915921464347 -0.063613938234683379 0.067022676370132039 -0.052384203916426182 0.4850198873585998 0.015917128605422992 0.05478384805538028 0.26709571999621573 -0.41152836609578602 -0.034689064510088387 -0.067163804257058604 -0.016222278879890747 0.21816334852459471 0.20787149973074054 0.2667758084813257 0.14310803872397582 -0.10411657285380642 0.24254593126176408 0.088596113256946538 -0.064357872135385727 -0.011254010908964605 -0.20464434538631784 -0.12956831779605338 -0.062638249930532047 -0.061608676433284042 0.17995187434117774 -0.0081064242260939345 0.02963101865049839 -0.1015671356420132 -0.25192660511662568 0.17153446117987606 -0.089248619505385374;-0.17488585400856854 -0.46596638417097902 0.15327208613688867 0.02430368747577271 -0.015468040103472937 -0.13031121964837791 0.054644344537946303 0.085185967593361098 0.24544898382808206 0.12952078430427286 -0.020395442395386373 0.37222361808318422 0.23625690483328021 -0.41729077731890141 0.15711592278518621 0.032160486777601763 0.0075874732144521548 -0.098792561705717541 0.04415918732572692 -0.00098803779812641607 0.099384655165056138 -0.026211708106625441 -0.48557742062317683 -0.074503989326001954 -0.023710025257130278 0.61336122837283436 0.27384097214440517 -0.074901321163342888 0.04045339812309106 0.023660268901203398 0.43699388156606755 -0.072692668715081454 0.12039704870680343 0.13181329272621442 -0.009218428077550269 -0.27949411314521977 -0.7640628494431343 -0.11362779682214827 0.032661956740841658 0.2603497863699592 -0.05649762274638942 -0.16844814130568905 0.0034342740071263474 -0.15639495001938755 -0.10518354102916019 -0.049748348724584675 -0.36377238959197405 -0.00030784662107612084 0.4046320125479908 0.31277218875816187;-0.1803710881874705 -0.25671404686787874 -0.21688160594952588 -0.012113834046051894 0.014751229217049361 -0.47966054083404042 0.10214077394030117 -0.21435335059844293 -0.32302889061643314 -0.066517284322864731 0.097597054852805509 0.11352831509682255 -0.18374317334658885 -0.16977795015281055 -0.0076838784453685033 -0.048398096194238786 -0.053413612728895339 -0.10204616694928907 0.26485675977159151 0.12931112549829762 0.22896119606263787 0.045813290163680097 -0.16206181157490734 0.062614592343486791 0.095371039354297402 -0.52288750281647933 -0.22412649705669646 -0.04721249210031353 0.090488057055335386 -0.021197623266407138 0.062200299068942227 -0.47289679219723163 0.1277833259312485 0.013813721370445432 0.036965201421872068 0.15344638471557009 0.68528732238701884 -0.028512728326660883 0.013224960430604085 0.1984350837045594 0.092961532170106831 -0.0070977581606414637 -0.11924867507809617 0.21098504757973552 0.21900960458363861 0.13232360744328087 0.068440666853446713 0.12928236014050454 0.24757246312349693 -0.76445725162529599;-0.46722161142352692 -0.35108687221794704 0.079121048972576352 0.23915519996339915 0.08886704784139958 0.36531072508391632 -1.0274457629757112 -0.44465633135117866 0.26474771715305484 -0.12337724435457358 -0.32865281609314262 0.23309077280850651 0.063591273424916772 -1.0146722084662962 1.0925721582832157 -0.013630083384399043 0.21607847072468941 -0.17537919009549108 0.31127945704931065 0.39598074666550875 0.36561974028428507 -0.48206715596940208 -0.66568738422498142 0.19904923692918786 -0.42974569485919628 0.16258502259572255 0.39315800991229888 -0.25050985427264022 0.087444612785532977 0.032102162582784678 0.13206110056876347 -0.78342108284424827 -0.40497992903540375 -0.50652005020205859 -0.4528823716993014 -1.0513651234375343 0.19888392651512179 0.3914051102448462 -0.049259330288967028 0.71015237532695408 -0.36330380531263667 -0.40602687165047896 0.333553578110731 0.77796549756120636 -0.5020433400997274 -0.4391321743617852 -0.42777712276212798 0.12052547373934892 -0.4849017262567657 0.23677717606275436;-0.23113597231921454 -0.50984771642751037 0.39659174202856373 -0.044335316648585858 0.093039058956682283 -0.46623766754292001 -0.1385787826300392 0.030084647878076638 0.23029834474808758 -0.20422782577450965 0.080067395895799393 0.60081055712718978 0.033444389570773024 -0.042551626326120903 0.072568048957086587 -0.00049730783998086926 -0.061122434715066502 -0.13579329262646353 0.13803164832177572 0.089359884475366469 0.15701237932428422 0.052739563534412809 0.024223228958999921 -0.31889589761788772 0.11195577588065846 0.22557525706892217 0.42050139194037939 -0.26193884444071924 0.12537127995412148 0.018967574745060285 0.57973296456376644 0.37965072409857098 -0.065898774248935227 0.11583063864025817 0.059103842115134829 0.20961425598444478 0.15112566943713099 0.16034485797561687 0.040020403531736158 0.39894618989310782 -0.0064424406594179758 -0.16585449363049659 -0.20768227461939076 -0.021106738298243218 -0.28935654277649409 0.12250199121397076 -0.59180950778726493 -0.30522564205408259 -0.111259088520814 0.082222932852910602;0.10166106360024708 0.17357076664206436 -0.44962663174743028 0.63872986710375779 -0.11031647274286481 -0.28010730022905084 -0.35130834216755058 -0.062826901315301192 0.44859421224085383 0.50541170168480509 -0.86189200765127139 0.36574342961393519 0.60413594495620171 1.122889696851916 -0.54521496061921715 -0.28385507252869907 0.59241393506332951 -0.96007005670617629 -0.83969373236351441 -0.42531724187034187 0.41264223368111835 0.5582831512232046 -0.90703275511423564 0.77542955149187998 -1.3706921950734756 0.83258433078752103 -0.34949802504153332 0.39569867251527713 -0.52853991450910109 0.21194625236829151 -0.12839066094800938 0.81689151889824441 0.16224884295524089 0.36209173756077911 0.92507423840526359 -0.24464164275311659 0.15415290342108331 0.094372777106831951 0.040941957088958328 0.19984678081036161 -0.59573768446609199 0.12026825185386909 0.85748511005541095 0.25540938143191289 0.36923797606215653 0.54170608009786536 -0.3607127395673459 0.18092545723364803 0.23937679648450649 -1.303554034924399;-0.84427357827838567 -0.2966038754482187 0.75476319513146717 -0.26816248705611095 0.60436637747326538 0.87933403557303602 0.34317327493722694 -0.27029098299802756 0.55321091636984199 -0.99491548906387517 -0.24670235306873883 -0.009958289837201496 0.32504633989297788 -0.21905802301891236 0.20386943419766368 0.047865809819284143 -0.079954494509067248 0.51881403148043848 0.16162088228264659 1.0914565927285829 -1.2151492491861389 -0.67863587469508502 0.27077051858144596 0.03667407350871961 0.84897952607997418 -0.66160451595743497 -0.74257317754140439 0.23034498152549604 0.33074966788235788 0.19043563519971488 0.11489535757158607 -0.16760135555605646 0.67431359030170923 -0.63270400541828009 0.95427174784192603 -0.10978208184816873 -0.54475577766746974 -0.3833910744771315 -0.047539489186174871 -1.3831409069053748 0.7624787130124564 0.040802423386158734 -0.8118630508868262 -0.23946866164332659 -0.82616513323018825 -0.64076036627918764 0.17640361011868638 -1.001713583673234 -0.056118988374807804 -0.33415069379237217;-0.011184432617815491 -0.04260317348457255 0.231780974456478 -0.19376997752880371 -0.12801579284537057 -0.1207673917625182 0.14328470472612578 -0.36930399936002117 -1.002722508008367 0.060795154997745099 0.040266804639481693 -0.48876279559232533 0.096996487199745435 0.4243965010027802 -1.1570260648105395 -0.018126891790615857 0.041940663134587171 -0.012929293018884689 -0.31033321900819866 -0.036490001754816273 0.18294215494976546 -0.43805779605323819 -1.055218224221373 -0.94578352001249033 0.11380147778137292 -0.14402683117531304 -0.15034584025890935 0.13659655678728849 -0.12853923916961493 0.37566142342616071 -0.24185015886444611 0.24783590433540306 -0.55879421754209591 -0.0058217259940513376 0.022801708099353658 0.96437581812014317 -0.31491248748694672 0.047352690581292801 0.025478056317346572 -0.18825688785422998 -0.53515967166047196 0.17181968612868398 0.035364241778447963 0.47781530245618919 0.19229877836288917 -0.1662092372936563 -0.74915763585266881 -0.1078574259101622 0.27185230297799351 -0.28252379010776579;-0.60453165423241551 -0.15973230867368712 -0.016453960396676594 0.057358426710649696 -0.028363702725340691 0.035772344999105178 0.33852895592298982 -0.067347067522555495 -0.2805771942546848 -0.17280374497345447 0.0030844322387215662 -0.019592566231256544 0.3056220047304945 0.40250741715864641 0.57473276055506595 -0.0056576767312223964 -0.016227837776849822 0.019187814610966882 -0.27556140435236304 -0.005952096334863371 -0.026920211781644235 -0.55333588343928319 -0.64520775251430396 -0.1341676682564362 -0.035748530383971688 0.55572872300062803 0.56804358097659446 0.089991338197169771 -0.020216475220450451 0.026300539729537806 -0.1300122375290402 -0.24187997001345601 0.16338688800599135 0.024303121128291583 -0.011388236729514088 0.77411138768456889 -0.29914375883452665 0.1238699799542521 -0.019608506844658674 0.0025757388159053768 0.10855505394400781 -0.0026324830476528423 -0.048913208135755337 0.13540953195798738 -0.17894604220236554 -0.1586587153820905 -0.46171796356133726 0.1100374260093632 -0.48124197031042876 -0.2434264126558707;0.17542207920506364 -0.22025374556185967 -0.12750552660352579 -0.0081433286183789314 0.012800991617978451 -0.71952352227539329 0.35773301206019364 0.19305708441942646 0.59067121612502704 0.085318021405001346 0.01808231484350345 0.39720841982384308 0.10165589362766064 0.52103249492569448 -0.016099418056814765 0.0085890363306571123 -0.010042223258439899 -0.0046123040072871624 0.080868897866249345 0.00033287082841981195 -0.0050157940063830534 -0.071605269989490392 0.31178109617957561 -0.01942119524403298 -0.028856701142881282 -0.064537330016445391 0.59534160572751216 -0.0056546619591700351 0.003289978539664833 7.2541816724531344e-05 0.62841130790181576 -0.021363556263675362 -0.045424721863494597 -0.049953862688394225 0.0049704522452592151 0.3169864707919659 0.50798938168087959 -0.081940377467839262 0.0079989335841943576 -0.48412977599277479 0.024580187620308152 0.073328653464179341 -0.32181985415914638 0.010345308079597076 0.13240365026894932 -0.082157619736265661 0.016328715752274046 -0.14609480442550316 -0.19374190544465217 0.11185778350370841;0.19307911869816358 0.14744373578506637 0.058799664040904372 0.45433615605852029 0.34887182508890369 0.2817024474914171 -0.061227441149722207 -0.21059486243335429 -0.10210385917680942 -0.82884419173225399 0.68000845911640406 0.037624698949130786 0.67708969980250333 0.35326129687861907 -0.30680000186813372 -0.10644485877466416 0.38491177058473303 -0.52206370469080787 -0.54092010824372239 0.32848640400321716 1.2531928385058488 0.19234344946484808 -0.10501019220181233 -0.22845380239139243 0.82127298278104111 -0.76148369000973426 -0.10464836567545702 -0.99366148845764235 0.12088641453750203 0.03293098132117004 -0.29528564978714039 0.54748824955552988 -0.15573337939670895 0.21821611397959989 0.381079606744128 -0.48364266256907046 0.18369627341052644 0.077344137621990036 0.12676457948765596 -0.89812352065025758 -0.12215672118501404 -0.48593845720676909 -0.29532380693645605 -0.042720869820106484 0.51752426501532445 0.51769678349750659 -0.40975436246258756 -0.55056356192807276 0.1345827663142283 -0.73118596067070618;-0.12054130665510024 0.15843859605003946 0.1203841328765303 0.21291663912822575 0.15823327198075432 0.20442478275485385 -0.099957550742668239 -0.33632833589575073 -0.12095660674701389 0.35878401731260701 -0.05659560026868006 -0.068743395906649865 0.28229085324648695 0.40428140329843049 0.017198911834186429 -0.036067112925251242 0.18853886297621114 -0.0088518729551594622 0.46430391541058641 -0.26221223425061219 -0.24396461245994835 0.15165496948292345 -0.18094768433858241 0.16978498739941611 -0.063296081852464395 0.22584552587522247 0.50807795672925948 -0.13698546530507613 -0.00081131388040402727 0.081019707668888274 0.14964802186983439 0.13294725450318826 -0.053862903927494939 -0.097954426970903619 0.05026989965181701 0.090676044675979298 -0.23026596865851848 -0.0399215266203026 0.010076627317796547 0.059240504606211698 0.02318662943047552 0.096880154727949738 0.009056963125163138 -0.58080507393099168 -0.030616096916223738 -0.2144984811168974 0.2441249296299336 0.014783878806759717 0.054309831444803128 0.077539918500696178;-0.62284245271394212 -0.56595395951335425 -0.28257279670620428 0.24468014509684144 -0.19378509761945692 0.0066955450306279305 -0.32705343332605963 -0.14291091766498856 0.012372392805891164 0.089018176292168211 -0.12378114432885021 0.22476134529023836 0.17730022402465054 -0.40181422895874974 -0.066210462961247829 -0.28152566875600682 -0.0099058687828424696 0.39730643823187489 0.15929006521878894 -0.55859065340803049 0.0020318559042152304 -0.11455641698067309 -0.1449544795114332 -0.31208836392888489 0.4848712295244077 -0.1453844716678461 -0.026449107904329361 0.34500841864063769 0.03124663784892226 0.061956075942826344 0.14624426002187307 -0.112894954605439 -0.018826983668421286 0.3690670465132197 -0.22933285555070515 0.18668756183765797 -0.18237435434100829 0.17105061126321863 -0.0087445480821121292 -0.12334692963230998 0.063014098442684227 0.055264966907353094 -0.064244446121219101 0.46012075864154456 -0.14885017886477503 0.39680136679421535 0.44471259915543337 0.33007755143743939 0.071697752563527561 -0.29244987864962818;-0.23362163793325866 -0.15441313003959381 -0.18972450332001917 -0.015793527713662672 -0.0013796364379179762 0.30604807424324831 0.066882884097448553 0.003479269568044219 0.048046751912964675 0.089781775892524576 0.029432520403511655 0.23387304378520984 0.096888578380476625 0.35772587502042519 0.03622227804548591 -0.010648638497371164 -0.010406288768717823 0.11826790514492015 -0.065506090062238828 -0.023746218757479565 0.017183881987035569 0.23069210134965357 -0.015395010947404263 -0.20388244745360146 0.096234969059827216 -0.085943415823486038 0.38604215315112617 0.061373131865943904 -0.062913938599515121 -0.019829541132012473 0.041147693181880378 0.14259000443513251 0.076306010651192316 0.073114307394650996 0.061194511609426683 -0.020183702331424209 -0.53756147716573444 -0.24807477376294784 -0.021357193819673007 0.38374336695140077 -0.011372329763946908 0.17890965967638006 0.069025671582703826 -0.20258902703080703 -0.11375252394414014 -0.00085642923623220071 -0.13725628451036431 -0.034697489135625301 -0.27144548343979402 0.21194021342726035;-0.19190429405747661 -0.13165566736224979 -0.2688675032714356 0.46539186030903873 -0.12719279859193292 -0.23636752870855479 -0.14942486370720609 0.073166001054581903 0.68771952752207299 -0.40010091410767101 -0.32440702714804692 -0.1954410484776116 -0.095312743159271615 -0.3958995508046011 0.37419835068847307 -0.11231903824303049 -0.29180786435112488 0.63896460800768196 -0.66717083250031428 0.54484510362565497 0.28929777637445808 -0.21910216597786669 1.1733711691623692 0.036791883154101999 -0.2388571499568545 0.52243799576796202 -0.60685251781975347 -0.11322071640695462 0.087252113976962961 0.25492243691734096 -0.1148214934813679 -0.65648757586957907 0.83384209537781095 0.0051514596033961843 0.75587485847075375 -0.68588765300054899 0.017635977230284622 -0.42785005530094566 0.0017666443559156912 -0.35631180129237044 0.39527217281723187 -0.31787592878788995 -0.2782934975730329 -0.19052016988903236 0.15285512242289268 0.51873940210630642 -0.27914868072955923 -0.92853860922735099 -0.38865062078385643 -0.087735363157761592;0.034250543268077978 -0.13350204642090477 -0.41001488019253235 -0.015743496267763581 -0.049992485638001578 0.053311694019194868 0.21609083780302402 -0.21976047208477142 -0.2817708104920898 0.094330545674891547 -0.059805982948959946 0.32688273025229864 0.16693538551005022 -0.18483155060063552 -1.0831783457636366 -0.069157376794228731 0.056843257932252728 -0.077280005367413418 -0.12054412939204308 0.0041056482023429418 0.078524507675638691 -0.32711098404500988 -0.44955898529803917 -0.63396625908550308 -0.022377288409470768 -0.23290655372200031 0.0017373017951803373 0.070826007113974215 0.05154616729147566 0.089326730746256425 0.34172276201040702 0.18255380897000015 0.063275574233027973 -0.48833142684474279 -0.040467211789357999 0.97946059457012036 -0.0062335749418649441 -0.10039637346986596 0.0014633616971824052 -0.24297109131762235 0.011603453271070586 0.0006733300661986133 -0.29904930701923621 -0.1537432701250514 -0.37734839057356379 0.18316283094786212 0.39531501352542703 -0.43156254032763297 0.51785593648529582 0.4276727219484342;0.38039976653659791 -0.099949252178762341 -0.37148363794247002 -0.043150063596135269 0.026347588717511052 -0.78892869790670339 0.22378376286422502 -0.02862593938122223 -0.041603884247218746 -0.075048525260346444 0.031819550667876208 0.098829682514274542 0.049386211284807295 -0.23281633571291302 0.36998461987124609 -0.010086983532949706 -0.016119354565113462 -0.012601068533871591 -0.10093434651100765 0.029778311755454565 -0.013319915173281998 0.043107776718595649 -0.096631745018552873 0.12422343649922768 -0.04143470090128884 -0.20668046059438147 -0.55010965523078303 -0.08812780856698206 0.0012260734872311242 0.015850805719357566 0.17869841628264463 0.13773227898212695 0.061549535344095921 -0.037960116976606881 0.039310734271629497 0.57104558296783814 0.026832674467669518 -0.095951308596200463 0.015397972771360671 -0.016298264260842073 -0.035985006333044127 -0.092034610543129086 0.031678278849943384 -0.09150996059648861 0.017685305304953509 0.0056101814295575238 0.035888159100992183 0.004495790161231754 0.15032386644351309 0.098260609376976296;-0.46721104092199561 0.15007836778987454 0.65279125928684445 -0.32909284452654169 0.13717949540418742 -0.28017607070585676 0.59476983265507044 0.32210157346587753 0.23670403861608072 -0.014726518668606494 0.26525013144429765 0.45733843662858403 -0.11100648883863969 0.44885284341182757 0.018427540960802184 -0.043156218810627672 -0.034033015979942467 -0.10612603568742898 -0.1270714091018352 0.28925590899734888 -0.2242150824996727 0.42154520809889956 -0.30397585397734661 0.15795515834686844 -0.26661588352992205 0.29883081183469562 -0.91166459279189671 0.0607427480604548 -0.077548794506362845 -0.070771990682356081 0.12366992872010611 -0.77123504810032462 -0.06749894087821573 -0.11304328487161643 0.14695163817011189 0.033202949146402198 -0.61764458128361088 -0.12351842063617442 0.030253139548735413 0.23886172364193442 0.062393490395182626 0.1358026100611314 0.18113719183954094 -0.31975930171661843 0.18959894169696709 -0.04166167058418644 -0.40730304416479196 0.072877629030237701 -0.21446020767836177 0.065945120783020325;-0.27052967166710468 -0.033187563808585306 0.49010627070874391 0.047786495484762596 0.082470921893559299 -0.26574663625068423 1.6987716294655355 -0.14263482653450149 0.055470934917722814 -0.03548650696099246 0.061756275631032809 -0.96798592161233399 -0.43525405928728372 0.77644893122590186 0.095149009505102314 -0.2219322213636683 -0.081709018934787825 -0.04524841300622677 0.011131729128948354 0.023819253446356665 -0.29139304671770683 0.56122041347665053 -0.28343373784102249 0.55093136994053205 -0.046921069486970654 0.05187981466250198 0.44207186098817042 -0.28560388534142322 0.1431349927587747 0.083886916504742504 -0.48655412349344662 0.24542904024812282 -0.018451997873940997 -0.5754588755353236 0.11732306520800517 -1.0029814590485706 0.21661504677062585 -1.603043486527497 0.053331734624434045 0.24952589678925849 -0.33862504204977273 0.1799655089833721 1.3381298789964651 -1.0268980454239653 0.53142468937629328 -0.16876344328024295 -0.26292655128681358 0.42304300597462419 -0.19528941518834478 -0.34583108014612818;0.27947942366732886 0.11920891660422649 -0.1629700550141677 0.32636136296566598 -0.10062915246617361 0.12681680347924526 0.28238905759336996 -0.094950621869936927 -0.136958054316167 -0.32004866496827833 0.58430988452350296 -0.48225423607577794 -0.57773563630583913 0.90201579778848939 -0.40534127088364907 0.19999421166742834 -0.25234525481737829 -0.41371242675220116 0.32547037736973072 0.52907893041568055 -0.19879280238062996 0.1499135234251969 0.28772119720204697 -0.14630609993794966 0.85016975678232298 -0.25349504742911283 -0.35626022757649173 0.24413727905864005 0.57718245371000976 -0.032643741425751341 -0.015723388231069071 0.61862058692091182 -0.06035500144944575 -0.064266627652321759 0.77763979471473232 -0.068820310433390194 0.02322046257373685 -0.27640464940751991 -0.06629165839298809 -0.93452061743930126 0.67658695421079573 0.3745496958448164 -0.48003463217802123 -0.15929180340238799 -0.17626210621497596 -0.11435143734153318 0.12357659257740659 -0.062759541078363484 0.26833363614800321 -0.70740649515334109;-0.35514515717312717 -0.080146386613161952 0.33764951009208288 0.040916617090514834 -0.023647500366495985 -0.38741677937854502 0.5435927276975886 0.27289784029511949 -0.0086352592784442947 0.049456396209953526 0.044449707842062168 0.15708220852804328 -0.12508540612964736 -0.18337694002149982 0.72337794523342669 -0.00040331025100970357 -0.069329505666413965 -0.037075157147729847 -0.14098052029311983 -0.062310896355915128 0.16175331665748172 0.48800540258492875 -1.0197914466611318 -1.0726351488122434 -0.065520202922889459 0.71651399355978707 0.14861282143716631 -0.064316920027383609 -0.066130000799530186 0.019853733251966189 0.21676883109524647 -0.21768477587808666 0.21019611201800636 -0.79117333489000807 -0.040231862213373083 -0.3362432440293382 0.11563719692217091 0.14701777507766792 0.0089918828977501621 0.44166762996116071 0.16597288821930456 -0.083754090380006585 0.043801637358147252 -0.024290041163228696 -0.054258941356525689 -0.59323711994305817 -0.20986258487594481 0.068409607301226694 -0.56318747825257742 0.24865333482264376;0.036986340544810301 -0.65864080819678061 0.21707095258261425 0.017110433753714363 -0.0044777818986246956 -0.10321400284540799 -0.34474683319936089 -0.026571764134335044 -0.028690298412278631 0.26716611703695703 -0.0071042547897396009 0.13488983441793723 0.29695896274500899 0.046596843015549359 0.60552927932464162 0.0033173181852597334 0.015680667212715313 -0.013749221154747436 -0.079574202912525344 -0.029697127086122741 -0.0053999183030668313 0.097595101824985458 -0.45928268942405026 -0.44010451752647567 0.02292966644195088 0.071322838860462132 0.27985838891456494 0.0048767262207300398 -0.022777489522743 -0.011641358941127073 -0.4176711568198061 0.2351813659796731 -0.018150132485556903 0.24842421400810144 -0.003492885102708755 -0.25470535266070027 0.44587901640347721 -0.039684474045831142 -0.00016878413233609583 0.50651364095023188 -0.035285899344928533 0.0057120847641103541 0.21743899004348827 -0.0038530448991085276 -0.34038519385774629 0.029948034158419821 -0.13222224474812982 -0.062980203905050644 0.20251611883592485 -1.2352704204015847;0.095401315577554116 -0.038930990085063455 -0.031079408609673218 0.80384795132212816 0.59116109534733297 -0.77243154517446211 0.17688425482837919 -0.099624930151917576 0.59884003074326442 -1.1108148096742594 0.80366810345671658 0.86127298280251918 -0.0040826649766686658 1.1545152033232342 0.217864678768529 0.034841684074531205 0.08432034936381598 1.4365671796452626 -0.24197737271888103 1.0110574298657176 0.35118258759104459 0.55713900311042441 0.39945479232668007 -0.17520375825014955 0.73621786543402679 -0.50874661532847354 -0.28354339259849337 0.023689966636772017 -0.40300787800623628 -0.047800982121057899 -0.40250053385797091 -0.008688560810991855 0.25919164573672665 -0.10423695289296631 -1.3874445102141486 0.71028665330428131 -0.026864331624562785 -0.00014780279391953465 -0.091723207941895785 0.79227889102752835 0.078595630360918808 0.57761942707779645 -0.65256331457110606 -0.42033408305898518 0.53623671675866957 -0.36984370014170348 0.33560534664589181 -0.36493507847962603 -0.94735202889100922 0.46127026619213751;-0.097060944967173685 0.1717555220175313 0.10086468581676905 -0.86128740424760331 0.24027461828862109 0.41659329090930186 0.019041510042137721 0.31663748077739301 0.9559915902389774 0.50147564248141097 0.50443914101358811 -0.13795855666651718 -0.21345350902341112 0.15176566534579991 0.92638049118414245 0.02557375511801285 0.23339114913631817 -0.77752351547219067 0.68858431771727358 -0.4197822787547541 -0.26392846605672038 0.77269674254132792 -0.23316601460991127 0.036623399727449442 0.4268193496945184 -0.18126328989748416 0.70404566330795981 0.16402759560038518 -0.15352515047873888 -0.3370883738308586 0.071760587374803605 0.14215905513198437 -0.089096988162248494 0.19693811793925325 -0.86901271141941028 0.076821372651655298 0.56349366067689355 -0.21226776745993653 0.03590763001144999 -0.0033562313733304034 0.54232838552240659 0.3073777392154442 -0.010310384997272102 0.036036730241504923 0.060871021153159587 0.41048924254416519 0.34949508025338033 0.75449840779995458 0.40607142978734795 0.07941734720107009;-0.54263882427966259 -0.054116889601179767 -0.48538802308294815 0.36022586267559975 -0.10498697455181465 0.78734475513302893 -0.099379050239177202 0.045330478637500393 0.35090989761571084 0.30170206637877955 0.25637098367418837 0.348474023105939 -0.083969404684181764 -0.096630809545379934 -0.062961484022625316 -0.078957126223824614 -0.1399640463261253 -0.21787885961556552 -0.3381240390279559 -0.60962174898786581 0.13847301414842639 1.0846984178121071 -0.68742673018814415 0.0072496666734563307 -0.20498512754006765 0.47607317344836897 1.0377746576032285 -0.038357807715444128 -0.080270508450410977 -0.090156328836080851 0.38434523550941807 -0.082367957581812118 0.055553188419093992 0.12348825953516816 -0.25013966801787085 0.10078400483774966 0.025501303318885286 -0.013710756890633823 -0.011675280715333088 0.59654590881666725 0.27614985834866063 0.0091565366364646638 0.13411245277953202 0.32428679406287053 -0.56279676660194844 -1.1319936485712954 -0.38841224176963851 0.13757296120686338 -0.25633956935897817 -0.1541990572511974;-0.69175461077213085 -0.33234491636101016 -0.20754948343001575 -0.33620358709577225 -0.61278808281934838 -0.84762752464573166 -0.80411410064411959 -0.36569569949035602 0.12727445430513651 0.084454795720289896 0.42800304126393623 -0.77184178811582893 0.12855637919272112 0.13278955039234469 0.14195241257362917 -0.23337197344349836 -0.2723147207789029 -0.025622180922814146 0.51387209252195543 0.24750841241639485 0.024352565312091859 -0.53105108655289446 1.1867569681780836 -0.8374456635714902 -0.16043177508854348 -0.5372292445223309 -0.148375062263777 -0.26535436064615342 -0.083434530102773311 2.4187423783159194 -0.26671950052024596 0.028498359396393055 -0.27582794967090529 1.9502632954106662 -0.55262008756854908 -0.38791851586912912 -0.22003025673008458 -0.32460583113560976 -0.022051503553613749 -0.71115588836711086 -1.1429976382285307 0.0039686930142861666 -0.43042444222913151 0.42566844973462509 0.96039034033461679 1.6121825426602194 0.63574720487849701 -0.58467520048378863 -0.81169569483798931 0.85253901067500659;-0.28251592668651376 0.27271374280487753 -0.26262431763890376 0.082857268616678692 0.024528148294750508 0.49014065738851481 -0.8041539939621335 0.1498555326326709 0.47811522531415324 0.16711490294686429 -0.0013714387424531855 0.11925570547413632 -0.05484511994172929 -0.021343824242279628 0.26014123658449329 0.0037720057266152694 -0.057840261065601833 -0.015114607959568069 -0.1820209652407557 -0.029249821872213734 -0.08828565971435863 0.22011792362977772 -0.26321619211239733 0.227434067631233 -0.056419895205212317 -0.077023886104084754 0.18644285222789297 0.022362813943114984 0.021473492391014221 -0.0082603509093401133 -0.0072656347145751508 -0.47162241475498351 0.6617498584395537 -0.17838238740287579 0.052942699720574235 -1.4200951050126673 -0.516817881518294 -0.30111175968013526 0.00036300539802398157 0.20721689335319154 -0.0034337013495869127 0.050161089082429541 -0.14152964702029544 -0.11560749221156111 -0.13980839610087312 -0.096700935736784038 0.57753911312673789 -0.12413477204581357 0.48296696453540433 -0.022137711385293163;0.080176459699992778 0.036277396498650277 0.425922016787188 -0.036304735805621137 -0.017963403597947146 -0.28965178274890729 -0.15281572174922897 0.30487211775011175 -0.30713187556963573 0.10606291829266681 0.021575811489369014 -0.0011626715078535187 -0.51217795611764794 -0.83303734387877004 -1.1009931013021967 -0.032101614663986873 -0.0023437049873133945 0.0041520481465795568 0.10211374605129754 0.011338132383957285 0.036592518158308669 0.80508753443501857 0.069592668471370883 -0.0234499525861015 0.016475627290639561 -0.94228002762946739 -1.3217881600629995 0.13767563264453475 -0.054647317625366114 -0.052010528029049471 0.25656944867248582 0.60362715019493574 0.11980924171673141 0.027243845009202773 -0.026803249752611176 -0.49614475060651864 -0.45396457332284534 0.16144950622522061 -0.028557416304154468 0.73064140635228647 0.14537492198777319 -0.043234910209108933 0.00016868040647582529 -0.067730395462714033 -0.050641830072065262 -0.021839216369463777 -1.3400481056627274 0.02329106091758797 -0.026870630005455406 -0.41176070927580688;0.062060246817090985 0.62396163801079108 -0.52759647418902011 -0.3880533455305763 -0.13085748546333031 0.17425897647331803 0.34140581893677024 -0.54299258062911882 0.22093436590301738 0.55483200692181345 1.4255834684961126 -0.48516793031095196 -0.16624450055145881 0.71095632013410826 -0.14841463209058955 0.026274367908038436 -0.17058067448884368 0.39925868045820045 0.64856041050002255 -1.1730134649161679 -0.64092192226254807 -0.1974303958693924 0.070555152059691401 -0.39412934680368378 1.0515355946481535 -0.51238193211655714 0.01659641964477037 0.62621490437047167 -0.0012521554836556102 -0.31038510956259968 -0.18394413507365778 0.54695141659317525 -0.35735371930853471 0.58998864808924734 -0.92782526037517155 0.93810781541083976 -0.6722297413191225 -0.031926333431504215 -0.14096544627115096 -0.28592796165979717 0.48931279174128223 0.70264038084457314 -0.67044706498029638 0.07164102028164232 -0.077055733744719024 -0.26719257443810884 0.31429327991905287 0.73431019780106599 0.36620974563717035 0.024305677382889967;0.32782582131053634 0.56122303519314087 -0.21455956122915198 0.17906544527125287 -0.028063069794864733 -0.87383424977431534 0.19592527040210556 0.10099805169927453 0.080101311877113029 0.17633765300202958 0.0059117558062056182 0.37083598278718977 -0.16079898533546916 -0.098866093004967445 0.37830414340447549 0.023172609182964751 0.026515106403310885 -0.11769552380772826 0.042706722092465205 -0.024559566099857592 0.11425729663251208 0.17128439970845605 -0.0092558256154322352 0.31010093303967207 0.086441323549970181 -0.79653034709632409 -0.36171245291727289 -0.11817602825110166 0.10249351750165314 -0.049588784754986001 0.023821849020698341 -0.39548357843989318 0.2386124427431138 -0.4724782594842673 0.067594231023946155 0.35226606356030638 0.22591197861736562 0.17736958656075619 -0.0061324775785307987 -0.14140527373592787 -0.034537925220087216 -0.059020914402208469 -0.28502710752564175 -0.50400758281315283 0.093162137005165555 0.2103036020899855 0.61991992888428893 0.077991954320303869 -0.57066372435105606 0.017244738300070124;-0.13042256864191956 0.55807074249292943 -0.42727102941166012 -0.17643366996537999 0.37440633501878584 0.087991012286126866 -0.040806579713210819 0.56836010784013091 0.32642621259284882 -0.0095486986300136849 -0.33456298560130726 0.078253244020939236 0.3051362169517563 0.41394952191573015 0.43949725890266494 -0.08396196560836619 0.60447706169178628 0.07576056211024576 -0.29503959191336632 0.40889278971161058 0.15063895443040537 0.076339205347324954 0.034249989341067474 0.20815275797540861 -0.77710716810172631 0.18025823153337778 0.11273907054316902 -0.12322411941624084 -0.4162897997205745 0.088396525077560559 0.12592938495494724 -0.34209425088833034 0.14455551460358812 -0.55276574306428039 -0.52230640397966177 -0.59712607101442805 -0.1543729208130056 0.39162361517926814 -0.13743611453652849 0.95656040472607229 -0.53507398606054002 0.067393771269539091 1.0164266365317283 -0.40160362231934926 -0.18554360196134587 -0.6416227329166645 0.15925849075042667 0.0012794030599613587 -0.23290032196989016 0.25149634017014699;-0.86584935006019148 -0.53563571842741298 0.064568594724868034 -0.79874351125801324 -1.153127111050992 -0.5553704572471474 0.50374202094304377 0.69200494320993278 0.15020162942464135 0.57855974621960859 1.0658252529627217 -0.12252057492220378 -0.020974935426952432 0.84550500266174033 -0.16122038476452907 0.21440728821081523 -0.94908750509150708 0.54771838015078944 -1.8255065379907192 0.6260111137523714 -0.74128534781969169 -0.79621361801365564 -0.67290586495770599 0.56320335335069105 -0.65043276495203739 0.79168999942703921 -0.69266775282504323 -0.89836818957163067 -1.0764254726065476 -0.82492737148124817 -0.082573076347493377 -0.1732315293754389 0.86727089607090768 -0.450676456426161 -0.72543258036371294 1.0502821730706562 -0.31662221858297712 -0.24302973275156498 -0.27327466331972139 0.32084426261211646 -0.33665429609269393 -0.38956729265501805 0.40594452230793165 0.048779163126177992 0.2930091807447146 0.45242805910876627 0.93012192090754986 0.10938623876997101 -0.7433615701268671 1.3027013363401321;0.47935173063670489 0.17235624472709318 -0.64979591391570679 0.015590989031624066 -0.019324988639277906 -0.28949545738277782 -0.42349876742055931 -0.28652929404262117 -0.35973425436440604 0.017863702369210095 -0.023630738101545028 0.47986359860911754 -0.043388373773034387 0.2610970311628722 0.94384111764077649 -0.0067238390116150524 0.002390062551460351 0.047288387865747621 -0.065962908951747168 -0.015526888983547571 0.016672541370686533 0.12375706179017443 0.14749484322004694 -0.14040856314227934 0.036643339703706396 0.046692072868893965 -0.58178523304135232 0.20284742256395957 -0.037888086264518596 -0.044361428622776651 -0.31612053684605523 -0.38202730558436238 0.036139615407255077 -0.13333512452573559 -0.039672162122400045 0.90527991279674125 0.20594211485877512 0.16964310276187033 -0.014012605914209518 -0.33387934165183292 0.10462674103113877 0.22042862363907398 0.43292496356907223 0.057317506984913572 -0.25421858876555214 -0.11170252810269049 -0.066370148189049488 0.083094812018159533 -0.17230890633422596 0.11273129755515281;-1.2225152035493485 0.43859400485142563 0.12651382493586819 -0.082737266203575688 0.049177531179432223 0.06534379893715421 1.0641808772051755 0.69362325419585125 -0.1605867757155883 0.1422642586868047 0.2454726784027704 -0.065473394966139187 -0.10876792252152875 0.48113972027496033 0.17598714664004744 -1.4806319333156106 -0.26242683561273705 0.15882661435329312 -0.13480484002493262 0.25025866691063592 -0.63000861120696305 -0.18817281685057533 -0.21201364623054786 0.23356848357334001 -0.48763508602514188 1.2317486730711646 -0.23568918055295623 -0.036985997712219436 0.3823948562177053 -0.0080684970821020049 -0.12880058960571214 0.67194664201984222 -1.2864613177664137 -0.15310765804665707 0.033774987926304054 -0.8542813726048667 -0.089057914467735491 -0.63464558576848529 0.033452806067368002 0.0051489372587602651 -0.37214998224784135 0.1513948841517325 0.79876206388672899 1.1298175148544503 -0.25555133383092826 -0.2568774716754797 0.49047868784755566 -0.026493494271512142 -0.65724370934999243 0.49913953187187737;0.5394739164806126 0.17581067481639312 -0.00070433084276665006 0.13308637368936993 -0.40423527734617226 0.31291856187765055 0.22155247527230276 -0.2415292593320921 -0.070638820335089669 0.12308936086445052 -0.12479157057096808 -0.31146308197533806 -0.30793611325782094 -0.10977626383690131 0.5810172394513573 0.045477945365154947 -0.2169924382695885 -0.44738854218049223 0.18793446565694646 -0.20566604439456818 0.10998551541037307 -0.48824624876676187 0.55088029700437102 -0.17908722486086584 0.075360806259067561 0.31907590220899135 0.18434344489456816 0.01996999058446387 0.32119155081333584 -0.051211644380579582 -0.11911316817914247 0.84700611709332496 -0.7511768097534659 -0.078383266325545292 0.21120739631564395 0.63720922764244459 -0.015153575056076675 0.13059155567566816 0.013547433236753807 -0.42541913111499435 -0.074908322309661407 -0.13673750314093561 0.23835852051729456 -0.23636332259583484 -0.25805342295956818 0.13200165091298452 0.01649462728065313 0.055433867712370778 -0.33972227029019247 -0.55463801963761294;-0.37244878020690686 -0.41736407114376872 -0.070742376434898058 1.2402212295383817 -0.86800880036226147 -0.35966828064345818 -0.035365805424862562 0.10517062714753374 0.51256463356641624 0.92393121243492193 1.0516236096220348 -0.12668528109884078 -1.0788226443982289 -0.37040438358520406 -0.17139978072018436 0.40630727057242516 -0.087142538680993073 -1.3130914930364102 0.2516941674921811 1.2523441274003584 0.81538275591639031 -0.43248803069720554 -0.70788807040577417 0.67167015764487981 -0.48948818119964388 0.084797721849829366 0.13717879547242781 0.43173919139915162 0.56462910240816921 -0.24760204518549614 0.40666655041944211 -0.27372940003011209 -0.97811661698045593 -0.064609062521958915 -0.69551630116895014 0.012551890380350697 0.1056471850612717 -0.55802681029945356 -0.13941650350434853 -0.10489261966997186 -0.40970326069304608 -0.063129208423657379 -0.30650435373873275 -0.022947161280676549 -0.52624100112331207 0.086762155634852581 0.56675037412269469 0.48642043698740767 0.070854730783743977 0.092783487854918106;0.089991768906080724 -0.62598428204897916 0.7369093173325717 0.012038715795188932 -0.051841371622742147 -1.3888239794227111 -0.32247487113819334 0.24102587104452339 0.09728870818877336 0.90857631635017289 0.0096570458365954574 0.32725562083403881 0.23860663310400429 -0.051366354389123056 0.31760673735905798 0.034868098148813267 0.031493280791755951 0.053901401068425718 0.048880282495856721 0.031137834209703341 -0.073397054825055652 0.63689857659981408 -0.34651656792294022 -0.45570585704410393 -0.057174252103148887 0.35437965690556972 0.94763808167232244 0.14241503371300637 -0.028465936543947346 -0.11706442353151325 -0.74547871685973421 0.13044177712465055 -0.32287671536116774 0.39361670825375744 0.025481760489025812 0.21415510239543148 0.16027170670277038 -0.090558923139031355 0.46170981624719698 0.61638330518214823 0.052990468596213473 0.10288394723114733 0.0501996835497567 -0.20205894379820771 -0.43648145745549116 -0.0055444031789551491 -0.50602114260804454 0.12977498158536035 0.40354417288288247 0.20007535312314961;0.16044056425834399 -0.22987097221782077 -0.67128288359082755 0.18767799922153039 0.035040556357775129 0.16160058819589124 -0.16475753357296802 0.16969600032015691 -0.64719084341997357 0.14277049422781321 -0.030739239595350507 -0.14005072451639622 0.10700968820632946 -0.01264932342693818 0.81140319124297011 0.097014953975152224 0.042752145908923143 -0.054787150097497871 -0.26057719671999247 -0.033394616674195125 0.22642739296704784 -0.33197256417044024 -0.26250484489392661 0.32735779527060344 0.11473569418375304 0.53729105733983618 -0.090292142359949451 -0.19617781511091237 -0.048941404227195479 0.067539300830991314 -0.21081564860927882 -0.61213487100031094 -0.0045125478981323328 -0.12013909412119114 -0.00015761405197705467 0.26789191888514924 -0.09681710690921215 -0.27571853302739152 0.069525708807584519 0.71682023276997775 -0.086640187909175964 0.090558973163823067 0.47405339808826558 0.021016971917767302 -0.21886576876224678 0.10990825541068468 -0.10142168386012447 0.0010847995602250467 0.45061887746979612 -0.1430814998223556;0.1335898102981041 0.55304355707823283 0.55063763329695459 0.028057485310286345 0.046634604375926342 0.010236123714037221 0.19766862495427495 0.31388512505275823 -0.069917327475171584 0.052344140015486269 -0.047249612670035697 -0.16106820319819359 -0.72630117494531121 0.051761672986505858 0.028401203167196139 -0.048636436043486136 0.21770727638216389 -0.26105123394856899 -0.25962294742849984 -0.38663150007957192 0.57087591602596921 0.53676959872213892 -0.29389071915185755 0.41260672703692663 -0.11686967465104198 0.41966388699599699 0.062711910795601428 -0.10371522921863306 -0.11021561210286739 0.0081031067273037802 -0.14310478946027322 -0.40213929644268259 -0.016480373579488426 -0.36931485059376074 -0.087674304711107834 -0.41635537127841082 0.70349708152636969 0.21136793301021287 0.067220613919863142 0.19284916093766896 -0.39151558941513909 -0.065075214582329607 0.40813205907680467 0.12419411309304439 0.27392868091051703 -0.10886541235353568 -0.53253772025896695 0.34422846936878165 -0.042943834487590662 -0.4788329812267188;-0.20973354504083927 -0.50645660482505461 -0.27554320977908192 0.27512758172809831 -0.32709730580700097 0.086913267398417968 0.14697262697145894 -0.25853290721886391 0.22657430323143257 -1.3267948500649847 0.057504686037699065 0.63645142912721175 3.0707415897812265 -0.0099427574162826368 -0.017808132101621927 -0.031498741183047733 0.060089556969780564 0.28269490449292844 -0.2710044971775093 0.087744670538036529 -0.64457106726306412 1.0914431051562812 0.35026470463574227 -0.28137238883106025 -0.29221093504612639 -0.7606999859370539 -1.1101583930823142 0.46194109279901147 0.51191826235932369 0.036256145525307364 1.717945708459325 0.13293063374879202 0.02607967580367717 -0.59177219796371894 -0.1655965088655697 -0.27073164104809039 -0.72071166345508797 -0.10582363154726501 1.0177739023421029 -1.2239805839325115 0.12232350473971162 0.48033630559057483 -0.30256768872976691 -0.1709390167178477 -0.55423787502806776 -0.027852130567229964 0.91137000395533851 0.27902872707276771 -0.66748099174661879 0.5289619840432167;0.19898443580048333 -0.19890415956124211 -0.1984933516704632 -0.55591853738212604 0.13308988119768672 -0.59768470867550572 0.67788720248795575 0.792324326042672 0.023565616373254734 0.017224654818403459 0.68631761134273039 -0.073993296465578881 0.37307376692125255 -1.3739501377859955 0.19752200480300289 0.15624922716399386 0.16476559493288159 -0.35251056005011616 -0.22740283615276921 0.48562560899571694 -0.21402180413541125 -0.21702366687118038 -0.25073629605384296 0.28625784010959504 -0.49422251162347441 1.1086448135791638 0.080071556305710181 -1.0842779304014709 -0.17380067199604934 -0.036068968189631907 -0.18299930390904082 -0.71396365247979476 0.22905451153719097 -0.088037889241364312 0.41587532042492892 0.28758148776725173 -0.10033293611310723 -0.31266483104015058 -0.019692509739445967 0.34666886053644819 -0.042749642919279275 -0.90517934486182905 0.58372546301548012 -0.66585749805703243 0.46816874435309608 -0.024062272239684022 0.10715032427918475 -0.030203489300668275 -0.45111269014098793 0.67147833897653164;0.13376145729842667 -0.14390757095237464 -0.060636327520972436 0.10933000975694071 -0.19180530412133368 -0.21755213008785268 -0.19710689397806647 -0.066383650062870683 -0.17080072515352612 -0.087792169724965827 -0.28183942709396703 0.21777587321106637 -0.37904653763999624 -0.0746655218844514 0.025931950859245063 0.26639228975532114 0.15258015606671896 0.090962891116595765 -0.045809822539153895 0.41526119520955945 -0.21176089820880253 0.032219424203089896 -0.046353484010610277 -0.12192625570164248 0.15841746207447041 -0.30734890790226344 0.20170920324204122 0.25835070075238997 0.13891303427892368 0.14752214408385822 0.037689545909670441 -0.29508610297862214 -0.20283763338069877 0.060994349358759144 -0.31667612106851623 -0.27932930237040698 -0.14519991828132453 -0.12676817860665585 -0.27610031159584469 -0.047900636519307566 -0.15739300048062518 -0.28725247320703617 0.20840076229864082 -0.26545677178971011 0.058965618438852466 0.41641741629302642 0.25666007920939371 -0.43960919887904815 0.25437930213398868 -0.0066819968652857475;-0.46307510426057263 -0.1827243196500031 0.10779465730780331 -0.0097325593295145736 -0.034913730588004004 0.25506301434841616 -0.4640935830809616 -0.42074951729677035 -0.058528763398377204 -0.44903314796899046 0.17382358651797991 0.13575952404554295 0.28283209261283021 0.051539591567446447 -0.11159874159486177 -0.18995970736188997 -0.017444053451354056 -0.027727929907305562 0.12686118012430544 0.0086383787422515592 -0.29943129663631446 -0.33757392193539032 -0.036473889553246014 -0.35307574580477658 0.1308172883371759 -0.53709625176173936 0.16145689765588864 -0.14935959311957586 0.020791362388180773 0.028480613673315596 -0.35016244729718787 -0.14958595577236905 0.11416540817295401 0.1816467080513173 -0.17818989105791011 -0.16672360464321115 -0.37003427253314647 0.061551931275620496 -0.0022596181503716163 -0.0092635011507390379 0.12390747253343298 0.0023305970876214047 -0.13389040100793653 0.36095719583398894 0.11188752169929395 0.20024631460054787 -0.026733307155166738 -0.19059666165758171 -0.33053113963687997 -0.23795936670766005;0.37856125341625024 -0.098147481703770301 -0.30192637301042335 -0.2292060063306974 0.30940549582130733 0.38422126573956328 -0.22239863358990281 0.2652993187758218 -0.50995433543109525 -0.67764794599723877 0.14796472052976506 0.27586426456375163 0.10563604627536376 0.17549025534750864 0.18700291586690054 0.27784251262453902 -0.36513878438655456 -0.13919200046607424 -0.062020078126580724 0.22495919841046158 -0.23489548794868884 0.046019136781773461 0.15740360345236354 -0.19350917257728126 -0.35747698492496471 0.13998690925157461 0.41399573479284679 0.33400444170470878 -0.016720156373171768 -0.078137471307959561 -0.19880336965834911 -0.2141494440613099 0.21483001468676197 0.19767706773123284 -0.095341329992171681 0.26250184143450811 0.34228049756411494 0.14079192013731073 0.24088312709635204 0.052890221455122129 -0.22313829530189314 -0.17466387386258467 0.074525844780542569 0.17447307929835368 -0.13059353735168211 0.2800258582850888 0.027103139818853764 -0.18158739405850169 0.078723917985476843 0.24659712135637551;0.0067594740060313895 0.051480474398876215 -0.11463906073206459 -0.0068480913520694081 -0.0093869164085840159 -0.04312476232049979 -0.55460375418685215 0.062607073353369569 -0.21010441767005159 0.13410622704514777 0.032827099155038085 -0.23689688308327278 -0.012633264498705363 -0.10022861630684828 -0.56212284436269211 -0.00070265149056549252 -0.021703213770815029 0.018888382415463301 -0.12739461718156667 0.00739119224634191 0.032147718953093797 -0.04987521702875166 -0.2508511391830095 0.043623838233486874 -0.026588714188594483 0.18738492958491298 0.13005229201955018 -0.037092895612662297 -0.026693711925582626 -0.00059479775782052627 -0.065647219595007994 -0.23669599101513114 0.37429674550606312 -0.54297312678857268 -0.013158989067022333 -0.0061155592492023883 0.10911328461364297 -0.1793427720236965 -0.001779173204241587 -0.014474548869193202 0.030848732707979006 -0.048858812588449083 0.069472286076629197 0.029631892066826027 0.052168289275344372 -0.33219697390213554 0.21634776677629911 -0.11699311231544862 0.51984558832887828 -0.39991250280382495;-0.076969638795682763 -0.15404469282508931 0.12905534915419728 -0.10457584565127054 -0.00074448802582292677 -0.12550014037282123 0.023482639965883876 -0.18704465425041969 -0.1185918814153564 0.01275020345475918 0.16258452760778469 -0.060339226748121887 -0.0024156097804985659 -0.13193692914970367 -0.083294562001811928 0.0058452960697152672 0.011646294734369714 -0.20832331015029698 0.1482855679817581 0.053018861072860059 0.12515840061673184 0.26651758498529543 -0.015785617292861452 -0.39864861598783163 0.13987684419957405 0.06343643288647545 0.04316187785278329 -0.16907083994682148 -0.026790831892105623 -0.092996903932322891 0.24175283219575125 0.64936415804318082 -0.47829681711131544 0.24038427687171934 -0.05115136301588185 0.11947323053500554 -0.040806690672227822 0.22422354656971533 -0.0027965176226948832 -0.28440533379398641 0.0033195565806270083 -0.0066857893105279525 0.12603998462851168 -0.0041358337506217768 -0.033919602630994833 -0.19903492427160924 0.086887753274908025 -0.30147336995857066 -0.22375168096092907 -0.36047970389021194;-0.42736590147989573 0.44998615214183102 -0.33368525640277186 1.1340763129587896 -0.15307966989721133 0.14628126982193015 -0.2865444163826909 -1.0630602080839182 -0.1440316719915459 -0.11652983328306578 -0.89770471746468705 0.04133436362261074 -0.18665422051995825 -0.7489643495013768 0.0043571242838761678 -0.12920553679833235 -0.51765802849948128 0.88767136090611642 0.72675632277147717 -0.91885110446494112 0.20895961272939989 0.3348258935918223 0.53672529256084156 -0.10168437111865421 0.66129487659807684 -0.11435583562054404 0.75772155452878198 0.30772518530454479 0.27759399959164754 0.037738543697815839 -0.090831256101209387 -0.11840506648076057 -0.85274607218650533 -0.32784307266073537 -0.77031633142567135 -0.1028888030102119 0.73340758644607174 -0.22126903861806591 0.025716532531740836 0.20174781797242961 -0.014711717762269432 0.054171364711595366 -1.1098243994710442 0.28019851784281852 -0.24017309761228756 0.25693140628474409 0.02050517897712565 -0.15938130888230029 -0.40956861826812263 0.31076313288808072;-0.18908938123813496 -0.037366486182629152 0.34756741684457726 0.084180710085929158 0.077546752423434367 -0.4424440855387522 -0.49668200848626309 0.16322802573525649 0.025100114538373852 -0.023476971141442468 0.014483844545118883 -0.24709809460258525 0.008906539658026659 -0.11782312088870404 -0.32728760340143792 -0.13921083023195774 -0.053185679184766875 0.36149771503106265 -0.1219134025384974 0.049635271526184355 0.062589071730078175 0.15795118783401885 -0.29993762399324347 0.42839662386566041 -0.0018534839613853777 0.39606896584628448 -0.63002139580948269 0.087280433012343658 -0.18770040350462011 -0.059953759726591893 0.13271284707812298 0.17235624526135923 -0.33301635161413046 -0.26247732290033271 -0.030607257033556937 0.20510450888199197 0.23517507256796227 0.14895805328017622 -0.21540009200899071 0.0030490941949992277 -0.19838467187159545 -0.41569750353019669 -0.08701550749165933 0.31052788192108577 -0.019130082441205995 -0.18991703842743513 0.24960258694128443 0.37213383457097043 -0.30066172191847884 -0.18572354951503617;-0.2425158752492908 -0.10220075342107114 0.30959442444127255 0.13338516085459903 -0.34186248536364511 0.020323495593372501 -0.014364308014740019 -0.045284184536442444 -0.043945027482417617 -0.30702836382830523 0.24430272571888975 0.1849183300367313 -0.15924877360200673 0.34822544496997054 0.14929303885515444 -0.0039958899066093517 0.033881241742467136 0.099252072229127894 -0.35577457340720375 -0.13689973969767072 -0.036600552899279062 0.2547652078083783 -0.30888039692179037 0.16341952597660692 -0.10773295006193009 0.28648839007571075 0.21189266818628813 -0.02961402504685029 -0.1321402067020935 0.013937891749914574 0.37960927347590384 0.23160691846780704 0.41660905086539834 -0.17288917222665404 -0.30917241734312823 -0.17630747255741794 0.11269085698807393 0.33806780070247278 -0.073734688183146491 -0.072562058787656633 -0.20266075205677175 0.00983209704365786 0.021513337458348509 0.11316026697338535 -0.28046041950061723 0.29379974969954681 -0.15012921258959919 0.2998614364783555 -0.34412382604193797 0.26123802474693658;-0.31807792801940432 0.017154653411659219 0.25034222746289131 0.11822109257195446 0.099816762178336488 -0.24435657614927514 -0.023786637823380256 -0.40849654293177917 0.30144084343844413 0.26698401674009525 -0.37563687567788534 -0.18338582924034941 -0.24010371817784643 0.013486367106839208 -0.29516915018411927 -0.16967282070906423 -0.22201100085693365 0.34380499182161323 0.047313429002120488 -0.42045947481792351 0.2424783458951735 0.083371819777068493 0.11012191979686349 -0.14825708793695924 0.34308770408167083 0.38170327115557023 -0.078920537326509485 -0.024281996349556044 -0.10293102010413525 0.054343815018826791 -0.21031788222121997 0.04958895822446114 0.31840815624563351 -0.1160518167882332 -0.096692540238188893 -0.14745398717336627 -0.030581625052251021 -0.24543755981460647 0.11012969482487549 0.28905380980792744 0.31992491695512132 -0.073331827071056344 0.069969311512118298 -0.048836968649063915 0.25103256778418187 -0.060859412898247339 -0.14673046194360109 -0.042948015833565292 -0.047336982700523174 0.41442752303625902];

% Layer 3
b3 = [1.5937575610927435;1.2297759215769082;-1.5231995255928581;1.8061738123942523;-1.5363529256238662;1.3112823690304549;1.2550894697758377;-1.2915618138969758;-0.68969918709072897;-0.99074543910160273;-0.64272018298482259;0.28331799927272794;0.56452268752984325;0.73626228051168563;0.56202653622424037;0.31017703781801736;0.64715128830710411;0.39281946981251548;0.56033228237325194;-0.42327204118141493;-0.14189156871270239;-0.12046608753831765;-0.19476878068602496;-0.15950189880785393;-0.19524125630411077;0.040625579387396235;0.26265706715559234;0.48003766545797694;0.17709347786634361;0.4126338249146394;0.85290117903191764;0.26305390705764398;-0.42477562942972463;-0.49866879346166598;-0.22434985857640843;-0.49707126004046703;0.81920883489555085;-0.7778801378007868;-0.94682806640736228;-0.90424804628628752;1.000381055216065;0.90056115043733365;1.0255857660133905;-1.2157814520749275;-1.3241842335610134;-1.8121775833802229;1.7271980942892682;-1.3996929273038632;1.5432708597893769;-1.4874233434764292];
LW3_2 = [-0.20480935226989777 0.12613724279868574 0.38367995007687217 -0.16438110425881033 0.39029898868167096 -0.060097188538040011 0.23371288258548015 -0.040700623704943296 0.34496680505246519 -0.43691151568092901 0.030164811864943561 0.068932191637528603 0.074379552433087331 -0.098808808016775898 0.054260623182135689 0.41352844156377405 -0.7293784446516397 0.23026476773273447 -0.052194247367535716 -0.42776854722318053 0.52778495575873607 -0.49692374357341801 0.29487135237426815 -0.010903004626146691 0.046644571421074317 -0.17169988800117364 0.46536056344065835 -0.21047118492734834 -0.036826598991556631 -0.024656827116727034 -0.20709798067919008 -0.12957952688373428 -0.34909822478907854 0.072729000674624719 0.37266753276257791 0.24495435355177009 0.061879866205035008 0.16224274776317399 -0.12190651962935793 0.33703330966750195 -0.055345083134738883 -0.2427055086435943 0.033103510457512371 0.15761985343244855 -0.36323954371127615 0.042356305868327122 -0.2690360545308319 -0.47981649136815707 -0.1176452066465289 -0.42042838957533907;0.11938419459180655 0.2669702483020569 0.31002084169365668 0.064082419079615954 -0.17060587248014819 -0.067085331427038236 -0.077976300881499011 -0.099123571129601462 -0.05428016493816501 -0.098160355463159515 0.074818363255554562 -0.40903077417610323 0.30852740006935686 -0.54876912670204903 -0.085120477507358697 0.1115319628535308 0.36003539724125505 0.59646900852995621 0.27246728123496372 0.096538762933139316 -0.0085003641275459927 0.15342135691418374 -0.16219625062335608 0.2013075776592626 -0.060052007641657967 0.11102667106685379 0.30979270811631393 0.43198935319036524 -0.22599147279113382 -0.08653890531036737 0.21785366266120648 -0.12000700579529881 0.5822511995982449 -0.21113207844732881 0.27566303660627345 0.1067164388416245 0.17387964488607224 -0.43757150225757374 0.062977985130771727 -0.055999979415102361 0.40709520731397858 -0.048973418334926598 -0.15237235862542237 -0.022746617188279535 0.61787764698426872 -0.26638704002551766 0.33287030547510765 0.11440032322061106 0.49586234885039682 0.55689545298829812;0.22336541793093445 -0.015412266377665374 -0.057216292585432676 -0.15868955138538524 0.039532907063224723 -0.024532136459686035 0.034118805110708118 -0.094592194213468941 0.32172911799019044 -0.36255325090539053 0.046117161461212565 0.16446178560608099 0.12501728889763261 0.46432627725159076 -0.023206623665773446 0.2053053914378917 0.51462003294311798 -0.58097763835626315 0.015433077834299052 0.2886892029438291 -0.3490628388076224 0.48454318181218925 0.057011492264567962 0.0063799474585693391 0.22191546705892717 -0.26848015076844006 -0.12161294174068084 0.34968108882524573 0.024007808925978539 -0.33074672185915643 0.08499290505409432 -0.057879943369467501 0.60743242223519178 0.040440178621188587 -0.135769542840564 -0.032671378349470342 -0.35022867322260176 -0.14604895497264642 0.15186152456050805 0.055240564577728961 -0.086893149804634959 -0.00061530373211341903 -0.2359158371886734 -0.36635220202229474 -0.11746502621829005 -0.090364958436406725 -0.061829252714328979 0.040163923324810842 0.52636775534663915 0.43306923745030845;0.56718965468879812 0.0081262174315925358 -0.056875703004333089 1.0028164118072105 -0.033644485315628962 0.16935039506051158 0.86587454344556736 -1.0397299008063534 -0.78837573243485437 -0.3198500127577863 -0.35610791728122548 -0.082601294892920507 -0.27380605385347007 0.72467855269607906 0.36653624370299376 0.011812231115358389 -0.29800140306154493 -0.31810177738553197 -0.93497603317345934 -0.27454991706326598 0.25295614814704814 0.032399073897722293 0.041344608599349575 -0.29142277337011957 0.63144135975341875 0.49779265441126641 0.15083952318305929 0.18718496402824836 0.86373950330636462 0.37983202559080981 -1.1413655416899842 1.1021734160964471 0.47052368759929286 0.64056315657010732 -0.23059525445029222 -0.46702916180808673 -0.45495437611678952 0.074698107760540963 0.35162058494755472 -0.13820479068404873 -0.13667168898492077 0.48757048097780309 -0.77298704225902726 0.5588772487209408 0.54316254427143884 0.38212923307837776 -0.46780031410455974 -0.1693604327456672 -0.23919063623244313 -0.62398574249748917;-0.19525074385128002 -0.34470874938420287 0.11810533810467043 -0.12144911432220144 0.19422939178750262 -0.57629650729027559 -0.89832067651869341 -0.085099942630672318 -0.022445742969867871 0.3560649261431425 0.22745489833504681 0.50857630648391994 0.89831279188108015 -0.065670796709976831 -0.11459874798566648 -0.43403287537942109 -0.079830743745207322 0.77785206774488902 0.030711735322041547 0.71734110301933307 -0.11067088277974448 -0.048467035397269341 -0.82739112245646085 0.19768054619039205 0.29202558848780108 -0.54181330872143063 -0.52340971962092897 0.28700099109123534 -0.79748869568983705 -1.2199769972914312 0.44377851646039745 -0.42704871271324713 -0.3268104099308009 -0.62080857462040817 -0.31026701211243096 0.17403240888088792 -0.10162036928354841 -0.020900525541715776 -0.47137465874687634 -0.62822744770871064 0.89228970529704399 -0.41408115452361488 -0.013778409718689804 -0.47521629532597121 -0.32879357811643806 -0.17667120580170315 0.97267077256284162 0.10137995629213579 0.054793672711901997 0.3901963519665293;0.13074732631656244 0.22997417381324953 -0.24619684085518351 0.45971210624708264 -0.12586428681602072 0.0024620620552170225 0.010580637013490221 -0.016072715340162729 0.28144108593909861 -0.66309566441149492 -0.039891923532977831 -0.1853400409900792 -0.21384815204832738 0.21743604676661915 -0.010279367848055714 -0.12323532367471282 -0.42441143021448657 -0.32143769611807599 -0.051121696692689546 -0.18398667548884962 0.11761673474871739 -0.64512575311159348 -0.050789539812933666 -0.0010589454725378842 -0.016924971436329539 0.013370433364818995 -0.21937490413490823 -0.27692607268969927 0.081331764600299825 0.42481593785739047 -0.33688576399511605 0.13306745043090587 -0.0062250704113667324 0.7709821883245408 -0.24692486325588198 0.030950685551282987 -0.043096140552696421 0.11497600932827193 -0.051661779888579291 -0.061507105862130589 -0.30351906260632588 0.08013817706318295 0.35919832526616274 -0.028662380593327579 -0.20792050651740657 0.071904015094252052 -0.43073855439340958 0.15926203998096725 0.06700285775023522 -0.081553037233065395;-0.016987734406307152 -0.0033127168123730068 -0.24411731965685721 0.029484223115508971 0.070028662749268306 0.058031424952135591 -0.17249551537999311 -0.38106320431476165 -0.2904850438458641 -0.038817492632395173 0.043705464276328015 -0.35577001854658225 0.25621858640135126 0.0071668193579646619 -0.053992509549810802 -0.19248875259412204 0.52440345486460971 0.37227276826813332 -0.31741742353932673 -0.028967593822867083 -0.24513566926129737 -0.50925376985189497 0.064755042023176654 -0.065181240873544072 0.0099091500989880767 0.070841509433759997 -0.42919119612210249 0.043821157347558086 -0.14165662560512587 0.23165026038738551 0.15706824656097307 0.48739115359636775 0.99926463342316763 -0.56373174263861381 0.15819868194958936 -0.17641910092540355 -0.10640837076997245 0.2533191886726418 -0.11551593791610634 -0.27637688069925359 0.47283762336567098 0.016745639407500838 0.11752548139065006 -0.16040011550387509 0.058301655119961424 0.032436213885557307 0.12992805835780141 0.19652712101384623 -0.1825223544140834 -0.089365713870952518;0.40719220745991269 -0.035110583039429676 0.46255391000935103 0.11217552841557395 -0.070402364845579241 -0.027389257477640455 -0.0170458413864089 0.26148758179115572 -0.28487160870632972 -0.10133800935152795 -0.10634182206908044 0.32206403671825323 -0.0027972994234538385 0.095577281120208774 -0.025185088660700961 -0.080800611613507836 0.19944072074198133 0.31893311708008582 -0.18852981027771498 -0.18188811791136084 -0.07176371345563351 -0.058871074062974212 0.17564632196345778 0.043888176183609455 -0.31942869202120527 0.11381787031845343 -0.47329664864946752 0.68653349909083272 -0.046347547575269696 -0.034572067498611456 -0.378904632123366 -0.2563880995809783 0.87951793274764944 0.13572172986426559 -0.0575308655048309 -0.060671249956727236 -0.22289558821081165 -0.022956275172264555 -0.091450473019505277 0.068051646410524871 -0.063454952415761975 0.0041635677921610676 0.043801669412463641 0.026903946322139008 0.34613276108382734 -0.061019686428065267 -0.1559240381153231 0.43729553492398798 0.15574567646103543 -0.049819820100748938;0.028878044150272401 0.21618257967472931 0.82203300356507769 0.37242251942165544 0.31543127043554375 -0.15108520728208999 0.30426407678547862 0.150128746457626 -0.2497189783277122 -0.25824273126096542 -0.062528758413670865 0.19032475256038819 0.06324131880283447 -0.16532931425995565 0.02810545460682623 0.042234607446408862 -0.1584236709331216 0.17364899335792092 -0.44177579487635671 -0.55688413034527162 -0.11876688721978541 -0.21013214858127427 0.14254783107692601 0.023631651504198121 -0.027515763361297404 0.056619248238370265 0.16813195704632208 0.55139875955635664 -0.017151712071343646 0.019426572167733844 -0.62757728829948423 -0.17866848347004405 0.59743173987988585 0.43646326369877086 0.12443907296898718 0.1284513792550378 0.64074848387721806 0.077773219401373786 0.14623731493777811 0.33781952149994549 0.14697822243865735 0.1787945475505322 -0.49135371830316155 0.3327774911043393 0.48363309502586738 -0.077659304309418808 -0.23059551777871834 -0.68060047762976494 -0.048353128476937506 -0.13453182440281924;0.14520857724610725 0.60647191162983149 0.96153863715544308 -0.16590539550151906 0.11697838613346585 -0.02894445936765323 0.22827448642534218 0.18520876080251214 0.34786818234193556 -0.02274511758729976 -0.2141571951741065 -0.35179840327220496 0.044251323374021136 -0.22558648304536516 -0.017026164957861176 0.054275956607859194 -0.60484735401320755 0.76765156635739329 0.63569564788391286 -0.68020252443623852 0.40706952102844368 -0.78172539199579605 0.43587722021785247 0.062464212429993546 -0.35742387570003203 0.017017080137759769 0.042416329071565881 0.33229446522976286 -0.12915648074402017 -0.28750029970168356 -0.17872009489217031 -0.11166452273660157 -0.26609986120769069 -0.53539255823471055 0.62511534856960871 0.015174203911287557 1.1202701237928427 0.1341517147113426 0.38857780430285754 0.29118550537208748 0.47246497060084891 0.13137492306196347 0.23489255084485122 -0.093109655690889317 -0.3894314185603433 0.049210623630018491 0.41040206054695844 -0.039380797330146863 0.29225046290168322 0.2768074989844217;0.16580746026963361 0.13762221998714633 -0.48523317176143915 0.53570486429178643 -0.12831957320364021 0.059121299338482119 0.16922511147149405 -0.82805063788199762 0.22553952682699074 -0.13753024711353729 -0.19811703342647885 0.19087013701758074 -0.15653538436992329 0.57569371175014117 -0.34810676836625704 -0.087838881394970578 0.2864574842168145 0.3394223985156547 -0.0046586564142289495 0.015843376485634376 0.19119192688972839 -0.3123178203666323 0.14521304067358484 0.34916669555381014 -0.089532841159741958 0.43836050862800385 -0.07056656428783746 -0.18169941400395417 0.3413231156213512 -0.0021071054593238591 -0.4668900406600876 -0.20775416153543261 -0.15824811524362142 0.0015247614361823792 0.091979692413749065 -0.10144454241144546 -0.20313551715799125 0.25201218967929118 -0.11595069087791181 -0.094083087748285998 -0.092661435963364389 0.20800711050821219 -0.35638366204764227 0.13856734174774465 0.018814202725878821 -0.033620104880005573 -0.22581722343574745 -0.46677463622555954 0.035587949187216382 -0.18945093850823908;-0.56573366967548444 -0.53020703792636115 0.23657125558609612 -0.97745990328868093 -0.17209663582837706 -0.50250627736809539 -0.9628188181998466 0.16138768111501933 -0.15500156014963504 0.16145954158697606 0.39014965961067927 0.8195458835724615 0.46918219017703833 -0.56314347612084736 -0.10334458388776978 -0.46038674639967636 -0.03793783735267444 0.23762907585109685 0.54984008055936962 0.68789821851688615 -0.47169299954951738 -0.22330830362005419 -0.022895847030430898 -0.039634086861306421 0.65859102533255609 -0.65173483601551307 0.22611684705545515 -0.14651422410295528 -0.80633974799075203 -0.63498365262515877 0.86821662146774303 -0.50409096701876066 -0.43374821792187374 -0.6986649617412436 0.65458339570668533 0.69730258557683222 -0.25571236985570966 -0.62543132122413447 -0.61357637275156451 -0.74419824365147147 -0.10194819435986502 -0.34421349530031831 0.50685734119053494 -0.43533111284794451 -0.17581739812740224 -0.31554069867514423 0.125928044428678 0.73598763393130995 0.2666747507377647 0.77178559001301661;-0.30422445921167651 -0.29846558462896683 -0.0095897607721039564 0.058637762119543607 -0.37530200710163231 -0.34358946360389747 0.28945220734437738 -0.29385501198029007 -0.0029610192900828987 -0.017288109287844401 0.20908551924860044 -0.033165878295241452 -0.059394368081113903 0.056954672607804999 0.02938159008889802 0.12239655185426405 -0.42916899012642346 0.2694810640675237 0.69462114203120584 -0.20351976467940688 0.19640516389572341 0.25191590298562339 0.0080239411973126364 0.053401635066663733 0.14800184427034391 0.033700436925523401 -0.19309329585971843 0.69161538448390958 -0.042571017193461104 0.64414380151598682 -0.082613467340179367 -0.14380915620190032 0.23646397197361718 -0.42194920719111878 0.26697417260275164 0.018959602608238157 0.25653874604965549 -0.16398376603174739 0.4810044370653131 0.058776198933158982 0.10114816877836087 -0.17917914775930671 -0.18613002275265125 0.11662540269607996 0.010972530674672921 -0.66448729539948437 0.48249985197363354 0.50768569043762857 0.5919768871288682 -0.12832265968592471;-0.64482788239436517 0.20296292273433203 -0.13242087831033916 -0.18735287331983524 -0.25010371106654455 0.029846266858800409 -0.24651468082983519 -0.33663456854939089 0.16416767284200082 -0.31079507274687251 0.034343830904826705 -0.29717054727351605 0.13918666104085728 0.039705548066468657 0.069262234140245849 0.052958118574434658 -0.18678869231634945 0.099152687265038619 0.19505076005979999 0.040843035301494808 0.24576303295822582 -0.10110980159343612 0.14609844350882581 0.0022678996833540481 0.18880989770351947 0.083725000206658851 0.54297730648718967 -0.17642797308143102 -0.16712560000741455 -0.12010572581769122 0.40609288175955038 -0.0034404107523537172 -0.23027559773304962 -0.3489713572931839 0.30479527911117466 0.018583959102072996 -0.28365529069777046 -0.28949599266098436 -0.14877101052028691 -0.18304321837010795 0.050668795971739775 -0.1691963073214823 -0.022169136983424251 -0.080664310812123136 -0.11779992016947421 -0.22076010075540492 0.13819803459642166 -0.16426950492476675 -0.32620380697910961 -0.14894075549672034;-0.19962018344013124 0.04400314549920796 -0.8735935856176219 -0.26555378590612982 0.28721365571025054 -0.1197495524440472 -0.037288363150207178 0.24940017077028975 0.35387088461736516 -0.29926466894241344 0.12992095440832557 0.27243750568056524 -0.0089883817595293059 -0.41835811781405791 -0.018802036176818689 0.36637506357315169 0.097557005636892805 0.13370211563211004 -0.1143688950572615 0.047163949563917069 0.25182505557772245 -0.041341233421543951 0.087220886258392444 0.034550177139288672 -0.049593139592746131 -0.046990400385521838 -0.30246941998542054 -0.30215011016794568 -0.22935403147381794 0.52176171319644638 0.24939306563856067 -0.010316510410451301 0.10672144601226587 0.18036053638181493 0.50889833982814148 -0.037342843990264739 0.020179058158709452 -0.50721454054719584 -0.058903205714368162 -0.052328374753420989 0.039038470595649945 0.27141614212093662 0.30561736393590028 -0.47512875117633968 -0.62530851368320362 -0.078013083882135306 0.20644727814554625 0.074508094914466305 0.33146240797599896 0.16421421455584331;-0.25567343247278657 0.026292383038256349 0.57839004505253344 0.032317558648518062 0.14939342937365629 -0.08886881767459831 -0.022972719392456459 0.028187310042523679 0.2091753973671136 -0.46752064797112358 0.091601332076633846 -0.054914538116554487 0.026883402735235422 0.67862327740529949 0.047734368784685947 0.07447680571773406 -1.0269700535869484 0.4652837139712791 -0.057935996150897721 -0.13378686776661136 0.089421001642058087 -0.66480477131225435 -0.24552067747056655 -0.036483025444223133 0.04450031006112351 0.042632253738624504 0.27653087330596465 1.294116457292291 -0.099478969868184788 0.16511482188811241 0.050271833547528913 -0.032701583608066444 0.88137594567037492 -0.059806315858229583 -0.27104595317339475 5.2710909021803423e-05 0.22601332655284168 -0.4147441327144743 0.15998142734934015 0.098912718006410952 0.038511971523115147 -0.48429443203224121 0.57797018521672716 -0.18670367732622595 -0.13381057510824712 0.16439104180314754 0.24588323471063789 0.020188926882251317 0.37429860674146676 0.037212431932271202;-0.080439962596874831 -0.037595508596310098 -0.093529674443505309 0.27184194213764062 0.42084854082974421 0.41369179092100911 0.49337473910332141 -0.071468340596627586 -0.15154204833773044 -0.17990227172027096 -0.24087958052315905 -0.24709213266909039 -0.048440217428067693 0.30807549659815409 0.058275161141156648 0.16786171048858445 -0.24205269455710501 -0.0055779656614952551 -0.18937910838121297 -0.31057324056225682 0.10528824678703341 0.50460525189034688 -0.29086711147596034 -0.014448476976250508 -0.2284799009170434 0.20678483468825848 0.088229894002662554 -0.26098056653563367 0.58003595436430377 0.38246439699029156 0.098212194763335925 0.12587196838238643 -0.032946559716168736 0.20200187630155189 -0.45570986149536569 -0.63114015219970832 -1.0753332796701225 0.13271383949875817 -0.32828389229877214 0.36358498311059467 -0.0053437424963957616 0.020991649813939736 0.078151698533299035 0.01387656436038504 0.19567517566399009 0.30514559600992269 0.081639403992961865 0.1548133396528584 0.10384949935120256 -0.391455147088906;-0.34693440429237515 0.092688364415427493 -0.3188966235510225 -0.24051348468271774 -0.11133276668623888 0.21119058555962553 0.13607187776906424 -0.3104016332264089 -0.51243238555229564 0.16798996171089112 0.0012179761194781953 0.21357718550611254 -0.56083100330028601 0.45473183842703468 0.44130196905566693 -0.3445458456285832 0.29681535235490264 -0.23422658844036212 0.15163063422736137 0.037271748068735552 0.060407762895348972 -0.25749836540291132 0.28418804224518529 -0.39252079572024662 -0.11735664135636617 0.42702154204117482 -0.055741660233234722 -0.718054860882826 0.065576209483769507 -0.13500607752953742 0.12445807780590988 0.33187089492251609 -0.33397441703142089 -0.14406420245121412 0.50782273197491046 0.079449366488284517 0.21360400097308146 -0.089883178239414524 -0.040727228299087238 -0.025004893782408767 -0.68316140568605976 0.15370896856483371 -0.13010226713988846 0.059540622205955955 0.4861157510261257 0.3741665490140697 -0.36009619502667245 0.097300423134565592 -0.18968279062772828 -0.22198223454793117;-0.040482718516619456 0.18590994230650679 0.10929776912124385 0.16686234722084642 0.32106012168138448 -0.16707798332853821 0.3901243286372621 -0.43023801407055989 0.05814333538009208 -0.090272608393628731 0.39981202702441665 0.087958640498001034 -0.50203698626748561 0.69751577670652409 -0.10586136988453887 -0.10979546187591487 -0.024200138042330746 -0.053168146754833813 -1.1613822661992121 -0.71521270285847793 0.17301872503522367 0.89959243597110172 -0.4514608129895743 0.05912023607406304 1.0814681996925379 -0.13708318942504621 0.03835704968186944 -0.079944682934232361 0.075320506375365831 0.38102540771181498 -0.42525711500485036 0.21777090266415564 0.13606571070159496 0.70793672919466344 0.4948389266815546 0.42820784605546014 0.0054841227634255356 0.0408413957897555 -0.3609673079468908 0.069863399368157067 -0.33490610741634735 0.053389423989360071 -0.07236989716312088 0.45464988485267227 -0.62458068857786597 -0.009289654422604628 -0.38188391741407374 0.16219369358904476 -0.25574703844831193 -0.12250411561564058;0.22533774273586826 -0.044100378511316193 0.40108502833163745 0.28590883402178241 0.022309630848203216 -0.16510097660191142 -0.089157123230424185 0.26880828511738564 0.60433425226538195 0.10069310225678269 0.073679459633930383 0.11828985549911795 0.40233484109320733 -0.39684735884872563 -0.25114349761174076 -0.12570987115006116 -0.027367968173200811 0.13608221521880606 -0.13604325092752695 -0.12337436156969467 -0.2409517407831544 0.39137867234771445 0.097344149241198732 0.30141948448613282 -0.11770101644871271 -0.11297654018871697 -0.0018120625380560749 0.23591085206469467 -0.15092048009502951 -0.31529210816949343 -0.1667265779426487 -0.29377289000509971 -0.17558194820364381 0.017256385077001609 0.073393170637777547 -0.0441290675343224 0.055384677918232664 0.26292380764325224 0.038635290491297485 0.0093459412073523193 0.53310404206464368 -0.34217789550254835 -0.10769438661744871 -0.37939197034030764 -0.068590354181159802 -0.25403105208667637 0.18718938618121922 0.22372228939257391 -0.19728549372785739 0.024256026666665247;0.35128752408914488 0.37504107185218849 -0.17000873230016389 -0.31311552630110479 -0.030802837871895087 -0.12585414948794588 0.20227684396850795 0.38235657519513999 -0.29684390574085862 -0.35118957500613518 -0.20253026579104427 0.093354941808781081 -0.27556989197083159 0.10288146821833287 -0.54232452200256176 0.31873617737404775 0.18824759330922589 0.47756094048167241 0.19235892466152785 -0.069888900975415363 0.33895011924182594 0.016401799854694116 -0.22282279564237426 0.37511231036515047 0.021157345217091755 0.36913853441522132 -0.15882281648302177 -0.4450000294239152 -0.24962971055316255 0.4588376631320526 0.32092899832482191 0.089495155262278192 -0.11718262014597568 -0.066453989950884806 -0.025829564598988077 0.069335680813817135 -0.22211538964252267 -0.10638435540192309 0.055439398800502269 -0.074298218529217461 -0.36389374832588056 0.10132412258064089 -0.46117746036386148 0.34279166153174256 -0.55824558274805625 0.30576055625565629 0.36409332906802966 -0.061573295926298913 -0.35473116298701263 0.094528671592097685;-0.62950262671681378 -0.63825656372240047 0.70807306984017615 0.20876092402359905 0.25944127775519954 -0.093819584989287011 -0.24654208668778776 -0.22865988265935971 0.36699218048008952 -0.10845688524712951 -0.077223815494223719 0.10070574823284972 0.36611704745429213 0.18909562387095091 0.080219782762513431 -0.1709345464553351 -0.1178609324536684 0.18398847914765387 -0.10843007772937767 0.28706592251498592 0.15125343444838399 0.0085476623422331352 -0.5966551472153645 -0.062943218713008342 0.059828835928379093 0.058602946397710257 0.94609058308297578 0.68318979104460731 -0.13636134943119022 -0.23305044907836178 0.43566562009209359 -0.34082484376368383 0.54453506791559336 -0.24332946015215959 0.46137874790727668 -0.12223656904106203 -0.76784437411472017 -0.068028311195654959 -0.54947696552570091 -0.56574751110398147 0.72392190181788829 -0.19985668580934765 0.023891398963012189 -0.28728265270888198 0.67328361870877262 -0.47909454081875652 0.45584892259963938 0.47505375767316943 -0.045032565671988795 0.60952863438280003;0.31990406753798772 -0.0055978758787214467 -0.62108174024324758 -0.013429577505537407 0.35854842176817259 0.036615619159426863 0.12114229160153113 -0.27233780320800977 -0.51884524217708561 0.0083713910652278237 -0.020512833943530869 0.15612205605402135 -0.04970320562999106 -0.23317864149858888 0.049229980675713408 0.15119126422295728 0.53868424124318448 0.26238489476889587 0.16234367569409328 0.01063451737339609 -0.085710559656538746 0.049123569535428853 0.024928466207841601 -0.053494146654228816 -0.01448455069933652 0.065247779592122662 -0.59935379965963742 0.32618338024286675 0.074220824765143245 0.47678850204854162 -0.035274045723777125 -0.061966296778365543 0.83008156881634221 0.18662626101509902 -0.1518464193855838 0.041622046514681703 0.019487148092587683 -0.11856520232811252 0.16212171458198624 0.13933743425525819 -0.10618300054668731 -0.015336638992631638 0.017101041154110312 -0.28571491779124936 0.38697599969006991 -0.043736001119208071 -0.00049890379960082563 -0.29712758812122547 -0.059063372867825238 -0.23795722852541695;0.2026236956682789 0.14294834286871513 0.18617847416147604 0.30088446420410608 0.085350046606984031 0.24421981730156694 0.3872579417576637 -0.39736631301075298 0.16152288263558032 -0.20360342875644863 -0.31598847393624241 -0.15534811709848509 0.39581570895363144 0.10704999148597708 -0.022260393082699028 -0.38557498952761565 0.12183555106037211 0.078693161632524877 -0.11882075880829117 0.13828550505172779 -0.1179717753900475 -0.39670554500904837 0.17313178157933348 -0.25589385063679831 -0.39203822377564629 0.15121914416703561 -0.17778678899750935 -0.11811795877747699 0.26100639564092765 -0.38313901722327021 0.089834321609916445 -0.20173421856362522 -0.22029456446941428 0.29048929307946764 -0.033856211954560296 -0.051098640352686596 0.34073789360435658 -0.41204285240205235 0.27241215296979338 -0.1681966461321516 -0.044759497417230024 -0.18744095711789049 0.23199185669618685 -0.074005814228426087 0.38067056000644467 -0.075870773800603239 0.24724511544094124 0.053390726520646296 0.14447230171040823 0.034308428838001198;0.25022876507330527 -0.14108064679683263 1.3334469076418101 0.75066050967450504 0.050686443876796577 0.087075037806570887 -0.16886080015542479 -0.0055949160231264635 -0.26278487383547855 0.71900413934241636 -0.134366357407979 -0.15422203530036946 0.27605225620884255 0.31748936291032998 0.051162677661769886 0.30494301026990911 0.18913645852254118 -0.42430698422375146 0.77057652207418237 -0.34000963754344637 -0.15320460714563017 0.073179848714067394 -0.099564648678388476 0.011384784039319445 0.087808183822767893 -0.069947906765271448 0.25033415305916368 0.34159231112083244 0.20034131699581659 -0.77349680697589651 -0.51548728212828854 0.087464888678810027 -0.24953498372735894 -0.76488825458973353 -0.58693647763049617 -0.04957145595611686 -0.22414896751880983 -0.17411391972399531 -0.70924707231291417 -0.25192294146322247 -0.049886056827320974 -0.39439365839592377 0.1880966429138653 -0.36687476023489102 0.43976435997757712 0.18426070985818388 -0.50777466137878602 -0.14022447664178234 0.33925986893540716 -0.21246468219937287;0.19541218301673899 0.47095236047924827 -0.18619557406064316 0.055438451219079844 0.55513790221172277 0.043426874245909082 0.097400701310135659 -0.030158063898826689 -0.24004010775458093 0.36318602959462448 -0.03588624324253032 0.26135504865320996 -0.26897669749720365 -0.27081961090265438 0.11669089087285028 0.37461345403980606 0.0087437291631931053 -0.21295927408791485 0.14761811038310554 0.05012130161844882 -0.18334392411313807 0.012939438025090125 -0.029661407596528327 0.059782628111320506 0.61884120175771573 -0.08748388242831151 -0.82537025404142672 0.010831618506829354 0.073949193776590205 -0.17995540903775056 -0.1263405770901809 0.54127334970852681 -0.23088679332134646 0.12898475544372345 -0.1382651836255881 -0.12751399328413221 -0.045581666557404109 0.21204388180074243 -0.093736414505354568 -0.087654700625720963 -0.30604086640042077 0.099688006994730308 -0.29703342938194971 -0.083071618504259981 0.33316025315970932 0.26113881273866901 -0.12579286988184551 -0.29039899190642937 0.13580658582064631 -0.14268066614233668;0.25748914172903542 -0.64683357132626507 0.28560979783833979 0.28287327631770437 -0.24456982483527118 0.054419585032150324 0.063578472619068349 -0.25277344811457941 -0.42011508086417909 0.33724497506980322 0.010071622369888747 0.06288251867243573 -0.17510880263031284 -0.15705848636197209 0.022946360316924576 -0.46328339185032669 0.042493248440210081 -0.077729100574533333 -0.28582250649636387 -0.17087056505848144 0.13988500524818745 0.34631623993372029 -0.12005061153657803 -0.021852746022857136 0.082481195719274897 0.20103031827841006 0.10311326054831871 0.61753762702287274 0.063755601163421965 0.49855825223736677 -0.07050560093636013 0.24686872980390565 0.42678400709544562 0.38913600342163257 -0.19207675758592638 0.019124075871002021 0.019369384296194003 1.0736985577136107 0.055237984140555536 0.055280332458219041 -0.12981409337375455 0.37532448870742852 -0.71966234568688681 0.44503045479767706 0.67493623844170825 -0.098950827846211606 -0.078673427508858154 0.15053422114515053 0.05506449090850709 0.10389695938719479;0.60621959884906362 -0.020350386276238787 -0.4342725909955949 -0.61408530839550424 -0.44665015190541979 1.2671415214038415 0.69754561964669715 0.56754175763884729 0.38105458390449937 -0.029125020813546693 -1.2929170666541345 -0.59543983567771952 -1.2041291892347024 0.52936506439030484 -0.77503131798047498 -0.04988120756340076 0.53124542888895832 0.16673462881253936 0.57600061655499857 0.52403173147509707 0.31414695367896078 -0.22773110240142458 0.50078286484074397 0.5187403039640327 -0.72270293657406581 0.029516229469788876 0.37581188432540152 -1.0500692097105557 0.41623538042345376 -0.0028260946999695683 -0.57710325098929138 -0.45484649378560987 -0.43180568391974744 -0.33428630013076854 1.4022851378923802 -0.051113620012603264 1.5553357913977701 -0.16735946415591998 -0.04629832866921553 1.5757399590689245 -1.1622322272426588 0.29060427201052813 -0.45875131377209682 0.41193273612866971 -0.59841007949128022 -0.10997412305434615 -0.62810870248111328 0.079959469332808397 -0.18292331018815133 -0.54592291529548942;-0.02116603349008974 0.42108113991008456 -0.34026429516171147 -0.18552109796479663 0.21208727252534884 0.058201666500144557 -0.035588481856731004 0.035496641402977647 0.32220979720643306 -0.37345893971495903 -0.086025344837272741 -0.049513322752343325 0.024824185170846315 0.077981542267206341 -0.20667771290421805 