function Y = neural_net_5D(X)
%neural_net_5D neural network simulation function.
%
% Generated by Neural Network Toolbox function genFunction, 24-Dec-2017 12:50:39.
% 
% ===== NEURAL NETWORK CONSTANTS =====

% Input 1
x1_step1.xoffset = [2.02419499584217e-06;3.00253773055648e-06;3.84234862815802e-08;4.76156488460333e-07;3.2719500160372e-06;-0.986490935592;-1.78310382272;-1.78860005969;-1.81777788317;-1.83040862088;-0.989585688391;-1.76667270772;-1.85153325469;-1.84300951362;-0.989797692538;-1.7960325108;-1.88570293539;-0.987303713414;-1.80454374559;-0.987844099575];
x1_step1.gain = [2.00000607590412;2.00001009616576;2.00000443310839;2.00000256253085;2.00001545773915;1.0104004087929;0.562568684078323;0.551863550296362;0.540930294959731;0.54942003923353;1.01241679316458;0.547854326762814;0.554295553818118;0.542527192810439;1.00982443123834;0.552329801859597;0.539456866375047;1.01093565201208;0.556241389362329;1.01362592934329];
x1_step1.ymin = -1;

% Layer 1
b1 = [0.8404712804814658;1.6886764206253726;1.1440340593732308;-0.73159850974677076;-1.2784653402260313;-2.0459531307126033;1.4633571532801348;0.74982224137291253;-1.1200587621090516;-1.1211618373293437;-0.96348430030261589;1.2419007332666361;-0.8105092612337691;-0.8072746644540264;-0.65568782793942337;1.289962262791424;0.78858540929064591;0.44246965077437261;0.21227635032823133;0.69429121901222868;0.82078843106919774;-0.30467130847739127;1.1937705324960437;-0.42230300807572696;0.54306546810207468;1.1220530650842615;-0.9687035574622731;-0.50946120219893265;-1.0894059347092875;1.0414137773582175;-0.037934121541187082;0.014346832372292291;-0.211678819427668;-0.64121243294603347;-1.014998348127031;0.074515058061944375;0.2539645826000258;1.0368293502814943;0.47995176480108315;0.20327664247528313;0.53713920483512734;1.2644489529050671;0.75525116769454526;0.85212464404645294;-1.1106917954940152;1.0467129980739327;0.79465674917485474;-1.2664363788243327;0.44890848814276296;1.4131099634792093;-0.72368208474732143;2.1669370988235217;-1.0502134286731899;0.73061273210252187;-0.42691528858698485;0.8073959856842865;0.90055389851982481;-0.84194020121837632;-0.83285915168098457;-1.4062144384550177;-1.20106557282486;-0.90548649627630984;-1.7069797914833031;2.2642202220368688];
IW1_1 = [0.0086546114638521975 -0.28346660767435106 -0.0020214717444635116 -0.040536350204777812 0.07359983400359485 0.0031853784872406207 0.012410356952762717 0.012762214030717525 0.030622655244101432 -0.00010547034011922703 0.0015349118837739229 0.029848471483139991 -0.11184211668770762 0.030594588286172859 0.011527403943768347 0.042658088116171736 0.0020626435931941963 -0.018398023473638218 0.056183410156281026 0.0092325165820439717;-0.021047032476395684 -0.016757016196939891 -0.0024651650440469072 -0.03883909895014262 -0.035011157637236702 0.047007538288529625 0.089105815465936086 0.0056342174137998724 0.20733103511704654 0.11126512109982648 0.041223013270780907 -0.12730483765363682 0.13230563170453438 0.2202102349424935 0.04012463210506536 -0.27934933253552652 -0.12357211888218887 0.24638213738718925 0.48990223314872516 0.037616104795294793;-0.011997843150659325 0.012626373651744321 0.00026550173881349949 0.0030981207271246281 -0.010272251971734991 0.074060215232844173 -0.68650358948709578 0.32127221528087457 0.507100060300404 0.65001406878832935 0.084988428391357076 -0.64620295807085637 -0.61799714972548381 -0.69751229139642301 0.028758375767401777 0.32101019804398956 0.59443714295546657 0.070283968277432662 0.66376600500760352 0.089283309322584783;-0.059542808834369645 0.030554594288659538 0.0016863644250585865 -0.081386181881225914 0.14272405177899503 -0.0038217293892490018 -0.065590463390965928 -0.10252499089606147 0.068003517343100617 -0.15601614527015542 0.0061374580560794711 0.0453271412622792 -0.012158454889734407 0.065200082594336017 -0.0033238835124633367 -0.038887424855813979 0.14967962594490619 0.0024647769612307765 -0.006415641063393809 0.016487956219870696;0.72685940728880405 -0.0082742834637905965 0.0010011694059328241 0.016153774513955874 0.0042056798449897556 0.037328612550377185 -0.1445260271673573 -0.051667989676694788 0.020349788420924678 0.16232274621311801 0.01166658621516809 0.035095382449371625 -0.022685204173947253 -0.020296022738462264 -0.0021327769499626965 0.018921424784021257 0.0089952500941848541 0.023040561675609032 -0.0094459012962122679 0.0011018915785225363;-0.013217121853838118 -0.0080364372602519541 -0.011213708124686653 -1.5552225880242272 -0.016865772492407987 0.013952546021151787 -0.016864467031186672 -0.04045125152324669 0.053860442348077381 0.01153061966765451 -0.00053538627604127328 0.0076205253451967683 -0.066831461936873032 0.0090209321759323734 0.052360410710284674 -0.011211995526042262 0.032904689237563754 -0.25550717507657983 0.024693583672896407 0.021296639156219769;-0.002765680946794941 -0.0093470745214063681 -0.0040309281904603641 0.0005127149578158151 0.0022879618037265708 0.10137845884512278 -0.68067624515242553 -0.73072998940069445 0.82797230207680839 0.70377498434914543 0.06704116083312528 0.72776809768644335 -0.69937429707732779 -0.68188212703269313 0.091970987046124053 -0.66488552832510905 -0.65500974434297854 0.12061221714605613 0.70660556222352822 0.07071927794527362;-0.0016392412138447211 0.020988009213738029 -0.06519240898788406 -0.036835379689582011 -0.28068968044616244 0.0060830430012941113 -0.0016709030188081652 0.01538524389174248 -0.0076762481480799789 -0.0081257575040320565 -0.001387276329128273 0.021425196008816458 0.0083120436407614438 0.067875990814964565 0.0010053538123182754 -0.0214610252983196 0.022323918419982602 -0.017700550468791241 -0.089174711842927218 0.010525297653463295;0.011426140001783413 0.0055049957294306924 -1.1683989869165423 -0.0088528609062275086 0.011207048669447075 0.0070245316994339228 0.045951991772078621 0.063690502921159853 0.10632070104181982 -0.036353448857519739 -0.022841495732610097 0.0024353725421160659 0.028608090676074709 0.015235118283626704 -0.89346099545546476 0.065273281263351288 -0.021672993158542261 0.0028190069577504529 -0.0076339404912815958 -0.014989538548377496;-0.025040915770573748 -0.0044628303883339302 0.028820568293167641 0.021858659945212768 -0.030255692156630123 -0.039565430007360694 0.13786312557092864 -0.81064763131918904 -0.10669056367696161 0.39824175914724674 -0.011878699419147161 0.23963057693893433 0.066060231532738517 -0.07057831746036719 -0.028846652306152232 -0.047718353694165307 -0.01987787835164434 0.0039121575228738973 0.031199804897985343 0.02303792486418826;0.16600472202247255 0.037063340254326345 0.045881629686234569 -0.084018276925419258 0.071154491498291741 -0.025332351914447684 -0.069497035543431895 -0.067800098791110708 0.068249452201895586 -0.12259693346875457 -0.0040481630393526501 -0.03770449960284912 0.063067302427343652 -0.10024519425802249 -0.01104122926614901 0.040527693623974834 -0.075159401267543779 -0.017505789079455665 0.067565549905432773 -0.017041157741006716;6.2883668975064825e-05 0.0029263340463912043 -0.0049208364379274266 -0.0017277995798554995 -0.0051044550039706111 0.1136873348246739 0.66828032211825728 -0.61666122967496784 -0.64024754971047459 -0.63238983062681475 0.073308543799064985 -0.69568757999122577 -0.64547479593146895 -0.67202681012196719 0.13502142201745435 0.69497939373812889 0.65158376423237019 0.11068341001584994 0.65732765629693735 0.07314814313565593;0.016686787721527326 0.0045112032786555553 0.39733439961704908 -0.020509485585306242 0.010845405417522587 0.0082665282403397797 -0.00099993370552719282 0.018983647317170043 0.026570741122704758 -0.012583218354398344 -0.0016138235319263932 0.039934192818344157 0.00082858015139441457 0.037462474707999405 -0.088545666304270368 0.10066697241062292 -0.061303549743037089 0.0067758229223198879 0.010082310804628626 -0.0087471953164692147;0.26264588831738761 0.024542725665555182 -0.023943314026643878 0.012959312462469572 -0.010000873470537065 0.0063124183582694239 0.055451307472121118 0.007465999425759394 0.079700232191628889 0.0080907039104511046 0.0015451222817693031 -0.0029425148031910959 0.0023796125170773355 0.03173935759847521 -0.0061475605355840847 -0.050028079972510804 -0.0045049201590469596 -0.0029471510767528522 0.045400180728925488 -0.0014321026469008263;0.010130962059549128 0.0013677835876398827 -0.67733160005977766 -0.0079165115711321496 0.015762300071751004 0.019575325349354838 -0.0063454697263313486 0.025020076001528564 -0.020220281410692556 -0.012476015573057241 0.0096812156948208258 0.027297288263837323 -0.00093261375972613822 -0.0085549850404995041 0.73939101866908807 -0.061706812358344 -0.022473032204640114 0.0022141702299954711 0.012728564216769839 -0.0073071027480071486;-0.011861719948680275 0.002750199697914383 -0.00101018659549072 0.0037721622404792935 0.0035042014264051401 0.06521176980033154 -0.58911602313154821 0.47147848060492437 0.57510284235605857 -0.42056134712205612 0.064246711088584471 -0.71115774524284914 -0.59222699518677557 0.43456374012403803 0.11232885298664608 0.69801881661890797 -0.53347785771959733 0.086416735097721312 -0.5788588651302965 0.046417861618781787;-0.010847927572594831 -1.9675068650052484e-05 -0.44883141481324185 -0.00046008163622306993 0.024553042377482976 -0.0010231084424622687 -0.0041036474349397736 -0.13306245283438509 -0.012854588478240283 0.020054414221276518 -0.0068521823784101852 0.11040044678510888 0.016446968699871035 0.0011479619456864396 -0.0080444273187386273 0.0014913272017530888 -0.047580422232604676 0.0026697173505083717 0.0059205341707937653 -0.0020255941216506912;-0.15892704422257398 0.058201022995602023 -0.0012611900590569513 -0.10735398751426366 0.055644135771356087 -0.0025206016047728793 0.058452394629900872 0.00016158712157292071 -0.056840872718817485 0.027153477492312155 -0.0057608843557536002 0.00084512494446605749 0.048601408808162556 -0.023829754188048762 -0.0018697330130590206 0.004676193358414159 0.0032674616061922354 -0.010456664484190319 0.046069833940046365 0.00098504262685995478;-0.020404353660752352 0.095090452927590552 0.15490277818442372 -0.0036178384751946054 -0.041660983455248983 0.045223752484511215 -0.059207520783378161 0.030088357439831223 0.0031127666977838163 0.063027772807588187 -0.013994770967831801 -0.053026847399831746 -0.063171785297831878 0.023700254884906059 0.042726553300499744 -0.069665620699252917 0.0010559731063792168 0.035909321587606985 -0.019786068642664977 -0.022542471368454144;-0.24848227179363766 -0.022629286486092099 -0.022370772225125755 0.040322049771816436 -0.029254230168732295 -0.0222812039824314 0.095725731985843818 -0.079924900084730799 0.10767722968110581 0.05955083201990391 -0.00042589946054064228 -0.0027456117018432088 -0.064614552047730284 -0.01854505186765085 0.0051110794979568027 0.032399597353520826 0.033240321577787411 0.003746785843302214 -0.066304131164888327 -0.0025505998932342684;-0.20742012744660912 -0.019578623769430099 -0.012785518677068035 -0.074606948495895525 0.027611410818635704 0.047599074905868309 0.067551299072930837 0.056070833542033446 0.086331758478946571 -0.064737871059834667 0.0012597956441011719 0.013575198274002838 0.015066563163649748 -0.033512301832795612 0.0070656472041807977 0.035601532096653149 -0.027504434167788555 0.00560717496092212 -0.022766544056543415 0.0079596398333406353;-0.032779501695696316 -0.11155201737748094 -0.011168738944823099 -0.10582318308507879 -0.066594194300960932 0.0062400739489760076 0.028998169866310344 0.012196732249357935 0.036305989398161292 0.024842142270029954 -0.0043454095712544679 0.012967716223627891 0.073307900498181228 0.034999041698659514 0.0041424752956488254 0.031292334694164273 0.010232558284150985 0.0041467062484881589 0.014851297765770417 -0.0028901893349606118;-0.021798762226182093 0.019167184776011145 0.0102986351678125 0.00094948117527584783 0.015591389145490383 0.045846038456199674 0.67691906898826137 -0.3418039848750089 0.62207689650893205 -0.53828709095759675 0.098016451662705575 -0.71111440083990662 0.7760606981242627 -0.83820784461882081 0.037339845655383751 -0.50626971189371395 0.57436871269012213 0.078045342323036754 -0.6610286232587409 0.077831412183216001;-0.0053028535923679131 0.24073187904311777 -0.017406805523702492 -0.069976640065457479 0.014760223432307845 -0.0012381036531556593 -0.021080774295423696 0.019292092671792268 0.0079703920980572305 -0.0023484259114366171 -0.0098473077589253093 -0.029058947635342336 -0.051419109612732564 -0.002790411976965669 -0.010987341605114536 -0.00031750158756814402 0.0014460296995315997 -0.0097773251828949057 0.010689927701943045 -0.0047931859809908564;-0.079727840234381869 -0.0014333527148741492 0.11627237019479882 0.040238576072728689 0.11124945285928863 0.01008078737813954 0.031546244967977519 0.12034542857477348 -0.023992127709142663 0.10943922194198445 -0.0017964590645131841 -0.049312962391343806 -0.013189783427791998 -0.05229461322538799 -0.0011676409826143202 0.012753270024802001 -0.08981576082560043 -0.0039486634981207051 -0.020762586233126844 -0.016347927717466203;-0.024337804983346489 -0.010361928138637656 -0.0018274554807916955 0.0095187679370159067 -0.005951432844111342 0.059019925753329171 -0.66897975500964901 0.51492258752790987 -0.42198131130756539 -0.46591890693324745 0.073862227390670873 -0.56899683746887597 0.54783157401465399 0.56862939784953992 0.064092019242786208 -0.39924692494172787 -0.37137132024666603 0.062483112380463474 0.4233854429381782 0.03911229980116069;0.018940615008658498 -0.02460658289711366 -0.008631105640279229 0.0095108621944616292 0.010299038538041384 -0.10518910712613036 0.68133966671726509 0.3699850082697313 0.54867857809753895 -0.5871744028232363 -0.031382341085337294 -0.27108174313306926 -0.36279607523442947 0.4119306073069619 -0.070160127594878038 -0.19837775739875613 0.32241064367183231 -0.064274940090751992 0.40396541815274783 -0.063590288852720778;0.27980687347426281 -0.0014650835873910729 0.03826801926136348 0.050581020041965075 -0.025976667753294966 -0.028830908236431248 0.023152567242635164 0.1415327730616637 -0.021465557810845193 -0.080898792309854389 -0.0014074504222468646 0.019693937590902141 0.013056402747717025 -0.017714619212926341 0.0048625795587893409 0.02240743438200524 0.014525248985825585 -0.010411271322626614 -0.010848500689350527 -0.00086299522468714235;0.0012550267541708018 0.0031217575319864572 -0.00099864212970410282 0.0053206306009727592 0.010472286401878425 -0.096215626001740079 -0.45205396654385133 -0.57359974078042575 0.63824126826227678 0.51686000223987993 -0.027392991579053554 -0.36211711317392142 0.53601346668005234 0.42361743210193842 -0.092523756673816585 0.59445107879292558 0.4131942993951207 -0.11745169380236482 -0.60414813232112829 -0.04752082799445792;-0.0046740708579456154 -0.011057637601090577 -0.0094104559829908362 -0.0060046073332135188 -0.034165618201879883 -0.096130273767595448 -0.045509173517085701 0.031593533516886041 0.019430654594296683 0.029133659290995484 -0.0376797390835703 -0.042297207281377681 0.017459091621371693 -0.014690978846566217 -0.053235630004224099 -0.011449294733561323 -0.03077363450638472 -0.025291115093934304 -0.008626659743737778 -0.91200666371476247;0.01058549793161759 -0.031224256328718746 0.0015665525641732324 0.060824366123891804 -0.070643987948277948 -0.010978467713373494 0.10040298839353239 -0.0037775790712932995 -0.036196752748421497 -0.047816688670992674 0.0022276413976957915 0.033941064292396475 0.018183547107555667 0.043524701081465729 0.015976860751814887 0.030818186651563963 -0.035399781002272042 -0.022976336199620542 -0.030773068785450036 -0.058425591441791082;-0.021840740331196117 -0.0040085768950437785 0.030341084531515898 -0.047872010601355895 -0.004329919456003627 -0.037741556206376335 0.038330648950624623 0.026472959443525436 -0.13623821129114236 0.0033403456158514269 0.039770864624677951 -0.017014801178255327 -0.12226872089552052 -0.012395842459910426 0.0054683733749008381 -0.057356125739983221 0.018503870646107902 0.024577905106090602 -0.039145990425721797 -0.040615789919879852;0.054360493916070014 0.039337347739404817 0.0033788738894508612 -0.034138482700089144 -0.011452505457138487 0.15115506028887399 0.054625462102971784 -0.016346385009347087 -0.018402694597730522 0.00024656396640117826 0.010874226097679957 0.019531298273785577 -0.019289785492538798 -0.011460184349909013 -0.015775568572065652 0.006930726973783094 0.027019499956885719 -0.018028587875255433 0.0080711750200477689 0.0087635000760652275;-0.0039487542627215239 -0.013138617753108428 0.030807085589029101 -0.018967776823297002 0.032172586577315102 -0.042031996537926226 -0.0036952883779510274 0.4014007957237774 -0.037365155203748869 0.22498080090479897 0.022565157785943927 0.17082941725894535 0.022263898917246831 0.068534980873493398 -0.054517938585942963 0.20185846597454052 -0.48753393518379118 0.018745012977581649 0.15203463831183547 -0.041740092069581743;-0.01179157387312839 -0.0094051752400128169 -0.0027608532684134223 1.800464120942638e-06 0.0042591963871364685 -0.089306593572718973 -0.40018228641354242 -0.50298492375541226 -0.46286440070917528 -0.38358685329963221 -0.028199926150799828 -0.47875421428876824 -0.54392529686285485 -0.40254968548714598 -0.11178499283286045 -0.54020077454619719 -0.49982721400009178 -0.074443137078413865 -0.43081091654057957 -0.022497698558936817;-0.0065160022847622076 -0.06319431565268481 0.0093727446118588645 -0.027902704300802175 -0.011525775240579149 -0.040421692177367602 -0.021484842694385709 -0.011611930251252163 0.032996173237067758 -0.081668566251084998 0.13767407200192872 0.15969101427988666 0.01238769741646311 -0.12079454045423198 0.022151807160819735 -0.0019878297536317638 -0.056666480044619078 0.0023637381992814822 -0.016436539863715877 0.0047500932037167608;-0.053310727251414135 0.092212886818254861 0.025335788102689782 -0.030385598641442805 -0.058270668697593946 0.023508220670869027 0.12474327460872592 0.080762001725273785 0.034318947622493032 -0.11008887845949096 -0.076116796139029635 0.096217724363351714 0.10638634949226676 -0.10619797252965396 0.049678649114008738 0.099355126098386606 -0.15056247114823451 -0.0039001969277171074 -0.17889032829174642 0.0061519322108322359;0.014666005492324484 0.0069332366043420015 0.014624464472302345 -0.0038935075831289627 -0.0030630413475304171 0.056928959461882492 0.38010952702355882 -0.59451631519690018 0.45519099999322621 0.45922304880449816 0.046434993312544554 -0.76656891340563471 0.48537588952887639 0.45355677150013707 0.14481454069249108 -0.62001773650744918 -0.64066130955533773 0.074569591369060523 0.38064495315194719 0.050055665564957302;0.14511348916958225 0.049276589758388986 -0.12368162512139035 -0.081784802826229949 -0.0093740728366218037 -0.018827730311079319 -0.022340477196074685 0.044669113982559336 0.048628791690485597 -0.010774062363365994 -0.0020383371943285288 0.035783467660922122 0.02015678667926768 0.019472201256098883 -0.005433404777596104 -0.037388130269791715 0.00081935555280902665 0.004483501611149375 0.033765469676326501 0.00069398453372604516;0.021636453683965662 0.25305051262490647 0.007193023586025641 -0.014503407742861676 -0.063703645190321262 -0.00090100186253780324 0.016413781216000036 -0.0018391426806566068 0.0080954348953509777 -0.0092063415662278509 3.3992333063678514e-05 -0.0059529102105833932 0.10391812084036438 0.0099576928781388539 -0.0031751623784780554 0.010949812547953046 0.013984447275993156 0.087808984739247475 -0.078556423102136022 -0.0014971325635215749;0.0020133075889278928 0.084117678283489913 0.0058494089247054307 0.031358322790157996 -0.22149066958076408 -0.0044153427383549953 0.01736670502882073 -0.0073898181290497833 0.0044897916557443199 0.030793118904591757 -0.0030916611200456617 -0.0058784371244276698 -0.030873880507784428 0.096114337916948539 -0.0098784865929091425 -0.027028447239582344 0.031604620599943005 -0.0015620233754270888 0.089642231517429144 -0.0023917250593682108;0.0011282337144231751 -0.00022789681143538717 0.0017759183398051428 0.0061679669852989852 0.016099754992776077 0.080655606938633814 -0.65095950860251739 0.76575241828749663 -0.61093885269336234 0.5835797364312999 0.043118175761333005 -0.85390902089790577 0.72364169335803574 -0.6539208588644212 0.11996571487820606 -0.6148522570075784 0.78193349878658969 0.097642859708670163 -0.65443092518396306 0.062053204619894199;0.030418106829786067 -0.021431183308174943 0.046812263717872581 0.0017639507610976584 0.55286109446086928 -0.0085967775050007442 0.003794067122701895 -0.019182300324550795 -0.0095492948433617327 -0.094284186356448321 0.0016419339639830086 0.032337840081908327 -0.0013027531799311215 0.023835413363823652 0.0092367678729590817 0.0029163311675091293 -0.088569274133569229 -0.0079439846410875019 -0.023091095929388749 -0.023034064140238675;-0.022262697571096564 0.016243612747525237 -0.29313033658145576 -0.04078352644868713 -0.045318738910799933 0.0026085506620583711 -0.0072750481905429903 -0.029602454545426447 0.00055103819324042616 -0.0053954554443525959 -0.0030588582880749144 -0.029136175940021318 -0.02191043365150323 -0.012014313733205436 -0.017717029608187294 -0.021267774832404714 -0.0059686613479501462 0.0064862970166802677 -0.021783700899923236 0.0049866387521023481;-0.01556141044634347 -0.011367878224514431 -0.011408266433144933 0.0040349462237914569 -0.012387264677249613 -0.092534768120185823 -0.52276149519341986 -0.52445280122941029 0.53249230866903696 -0.64227147987359934 -0.032410971883966487 -0.38327780430422259 0.4923644511539329 -0.56921305720802995 -0.053279911711045895 0.44620225538416153 -0.46915637628296014 -0.055977790835742898 0.59446505171916164 -0.070757081478600048;0.0067667615564709332 0.0088920954308353058 0.011189979760615509 0.032044995882659702 -0.013649298952317869 -0.015141730479572168 -0.012713587318793091 0.023725472677598933 0.019114078926632794 -0.017537625303066306 -0.0055228105960667163 0.0047981975874942205 0.022514780899924373 -0.0091698122630155515 -5.9287437426438079e-05 -0.0098686766617674462 -0.0013052364284565755 -0.52416843997866713 -0.0076690806195670478 -0.036979933855132423;0.08619875496072546 -0.022502332188310641 -0.039530475745309754 0.0080760631907563548 0.10117065881523757 0.027002734306539111 -0.28726017333038117 -0.46448875702064413 -0.3663609326780326 0.39318958819556643 0.0071983439531199886 0.080589127906500149 0.15088759844897986 -0.29221924698337254 0.030128676029486018 0.13348459417348921 -0.17740992343174769 0.06294676505315186 -0.30065086270480701 0.030030586825948849;-0.0059250942787327822 -0.0019549592912263855 -0.019756865923423378 -0.0019346657751055808 0.0032959218699757297 -0.064315180146528594 0.74572295473976613 0.42650657571290745 -0.60669741330141413 0.5383004967309496 -0.087287066537930863 -0.58034826698460773 0.70839944462423632 -0.8206939830047888 -0.068158777907284265 0.55619039758591016 -0.54195523645615662 -0.081374831302520878 0.67775067956901536 -0.06471386434529651;0.027358736201881416 -0.02629163672989325 -0.036927600819670225 0.10027453951553963 0.22054755133299128 -0.00058224088163155935 -0.0070834425246187604 0.043484179794296002 -0.037192764832001492 -0.041819146167558739 0.001068283244549408 -0.016105928176991927 -0.001025256862597866 -0.0021261456859607533 -0.011930659536806078 0.010456553090097772 0.069632260230698476 0.0041255540179181123 -0.082908621926125609 -0.025272447301139544;-0.0050317517862939519 0.013594241905916725 0.0096089476828121641 -0.0094216213892041843 0.0068263331418111327 0.084123690586128327 0.64435320641675853 -0.68888987527094925 -0.70702823112287405 0.79859955615654987 0.060720232242539418 -0.6912629107342303 -0.69453906817973143 0.66854634165208859 0.11648453350062 0.84315069053219349 -0.74505824703993562 0.098998692183045398 -0.78221615082035156 0.094977606151642108;-0.011116701896898432 0.079817920279108764 -0.06512247561800856 0.019115011107047636 0.1722110689737667 0.024719235011211958 -0.070922357568261735 0.092695466423949088 -0.05296205006777345 -0.065797978398281887 0.0024868870168153747 -0.027062278503937165 0.042506955270814703 0.066641924552898441 -0.0021018880688158455 -0.047555889295912722 -0.031412148977509692 -0.0010037365544788887 0.10300655281616114 -0.0030950941115355803;-0.017460623827192566 -0.01201852325839468 -0.018250491874847792 -1.2745378533054605 -0.010898035481704763 -0.015031837046466217 0.015154382358268135 0.019201525754419812 -0.056557827471182341 -0.020138639336836191 -0.0018560031636066386 -0.0022233600202909909 0.023071456154367117 0.0059412191188660708 -0.0428693981549624 -0.030934772854983954 -0.011347577215195248 0.071548492100833097 -0.026624608970914957 -0.017723132315234966;-0.65102165095875442 0.021685347474717578 -0.024319414753155296 0.0158770470067723 -0.025527271449645242 -0.03267769278384286 0.052688851502166817 0.028226060480939334 -0.024267549372968288 -0.027590423305086806 -0.0076099496354814474 -0.0029799154398284997 -0.014046854823216055 -0.005764285192409532 -0.0070203478764379497 0.016850227168702041 -0.014519488098571365 0.012771120426256402 -0.0033912867584954005 0.00095269766571502885;0.045379685893305884 0.15229178932791965 -0.064675197241576304 -0.029651889588367644 0.16384261448585527 0.004324920624067319 0.013932171063457689 -0.0061492845107311792 -0.027545398285928554 0.016157921294140492 0.0082792295706737695 0.0041670930740617916 -0.0052977106898479146 0.027587803044446146 -0.013518576963954665 -0.020320790457873827 0.045220125720352222 -0.0055678287984076685 0.038485314401388818 0.010135126249143114;-0.057842155662334832 -0.059192132299910633 -0.099064165420395742 0.11630439308935611 0.0040578642180461744 0.0070816489032751407 0.053386344861164454 0.038480072225362517 -0.048675671540079415 -0.0083065211531448586 0.0020252156235143134 0.059234131734458427 -0.034488231476461288 -0.021188516884849112 0.0024617783930885448 -0.048962145249069125 -0.011398237250204109 0.011079291495677797 -0.017647248027686583 -0.0036401761049817544;0.011156245165641929 0.0037170184808388326 -0.27121819659450047 -0.023791838726539671 -0.040007566947718197 0.0025388531284708327 -0.014902464806153369 0.023008014764291231 -0.014957931974887101 0.0042023334752409767 0.00073057168813664712 0.051766130213121223 -0.01422513103062387 0.012626805250858235 0.010334678083940851 0.096040771105840042 0.017797600301140512 0.0035625101191843053 0.012560434142026769 0.0061431179425866008;-0.0041333921826956117 -0.040973767890666458 0.03188746805707858 0.02435352711133925 -0.6656918681599554 0.0010208859441346639 -0.022835949029536382 0.014453372425474885 0.049699736466843156 -0.07769061757402769 -0.014414766388384907 -0.015140441522844765 0.0040872270135893125 -0.13302748546563176 0.01002625942127835 0.010596482640919658 -0.00021024476791390101 -0.0055540882041968526 0.026032853221876047 -0.0044763589597589222;-0.0023396199683676931 0.049867868246603088 -0.12517634638778086 -0.018816862936218051 0.2615807700074157 0.01042988984157177 -0.028879283821144505 -0.017267286966661109 0.022209354717470788 0.021261613868974676 -0.0037242952056784732 0.083163547253498282 0.0061649647077853826 -0.10016158057082795 -0.0088481161361730586 -0.063703609882450718 0.18625475527991853 -0.013258545171993491 0.035178516494493425 -0.020128299037579799;-0.39686822407547462 -0.0040340700015763517 0.024659739452141186 0.035432106673544857 0.011798705999995399 0.011334495840305214 -0.10866840828275061 0.047038770864418745 0.042047956581790481 0.054754329718602633 -0.0030227395053773992 0.0051509636730828852 0.041206671607122276 -0.014674315501634531 0.0016980564646068297 -0.0010465415361775334 0.008127113352921678 -0.0014914016025086778 -0.011841081782991749 -0.0037053538222723641;0.0088202029150481927 -0.0010481020607642623 -0.0047751237037088985 0.0023099940935676581 0.0076590572835691451 -0.13147054031113981 0.73158623299799841 0.77874421177513364 0.66006731871730717 0.70150934117931274 -0.043996496945623874 -0.65687959952109909 -0.70867989097391937 -0.7023926228224785 -0.11806639941761195 -0.69009939703952661 -0.66299905440919693 -0.12260283735201098 -0.67841431995531143 -0.085422558719393304;-0.031840700486496003 0.001505506144839665 -0.012736233126357112 -0.014307836320726425 0.0034361486199073225 -0.15125364695848309 -0.28455714941034738 -0.23607187479489175 -0.28593765184489472 0.31192428549789208 -0.024491085797539818 -0.16923641336316703 -0.25740805111258269 0.2842662553819178 -0.058540334621546029 -0.28983602887771054 0.2431090103803778 -0.071536644245343464 0.29409793874763701 -0.071219068441346622;0.035520280475158969 0.015747062677952787 -0.49110381245966217 -0.014941620864849528 0.019671209574185226 -0.0012051620330750289 0.047949116641630027 -0.019539676003820165 -0.00072091488749044801 -0.0012830925382788336 0.006613323522801042 -0.23159497925581768 0.020098993477880946 -0.0042012219753331369 0.015734961626452701 0.060470293288932733 0.016280286282524307 0.0060783739816133156 0.0092170364903419056 -0.013242101845955232;-0.0084080017806209967 -0.013045059109784839 0.008360461050196024 0.0012750502965735969 -0.0095491086882401408 0.14536187128691175 -0.14418947251083269 -0.020241702807509709 -0.028322471278375314 -0.023277855501079088 2.3443314049658297 0.073370746693474417 0.025192149159666138 0.011377074689169146 0.13451921866355157 -0.019576563094013396 -0.010794282013362593 0.15430317941033955 -0.00086460089121145206 0.095096509538020443;-0.0017980633219041435 -1.3694834308164654 -0.0067365581778602501 -0.022195404177176362 0.0057126350588052304 -0.004691860981762018 0.00046896602973304336 0.068231753680674884 -0.046729418685335034 0.010539035206179345 0.019120663521794562 -0.061438836284815217 -0.068188534825552011 -0.035591623671680089 -0.022957197957705559 -0.051726346415363514 0.033174217877032793 -0.043630607160388024 0.00045883620550068164 -0.028244617683978273];

% Layer 2
b2 = [-1.5852739940118499;1.3866649226387666;1.5058338196523744;1.724215942733395;1.329070499220067;1.3387660455667594;1.2946779143009701;-0.67869389350378617;1.7070089867710643;-1.0893770317415019;-1.2269425563168832;-0.85904163905335607;-0.52576889101273538;-1.2131553272106124;-1.6449809538874465;-1.3666080513238146;1.4500033301748889;-0.52119820031414132;0.83134089394422106;0.81625941685307202;-0.39811791514188394;0.62951761872376111;-0.33335223682339443;0.42266289895769094;-0.56200111586573487;0.046404029759014073;-0.3335268506989032;0.44514401212810872;0.2258261104668671;-0.17303449935779808;0.32775067055582208;0.31680740458206552;0.26877270102451883;-0.0541155562393483;1.1045263472580831;-0.31247104296075329;-0.058896147340501304;-0.61596850772516087;-0.43225155896228423;-0.61860904671334405;-0.16077738991426874;-0.52671352224137713;-0.87287071964680485;-0.88640050023727224;0.44085846357503422;-0.75028681076309767;0.83438891003661098;0.84426824624587049;0.83423236150922486;-1.3500711231059903;1.1491025435921232;-1.0055811167568169;1.5710259594420695;-0.93583926607896539;0.55355758148771128;1.8075443098921131;-1.8555228465711608;-1.3889614419484408;-1.3472343023090956;-1.2301173169378601;-1.2316660564739224;1.9861357136812912;1.1805563786245115;1.1549767123242809];
LW2_1 = [0.17090113825178763 -0.25352039382753627 0.45150799616641091 -0.15616513252883737 -0.38222901932049269 0.077839194951862159 0.75882874240929143 0.048659510018267314 -0.047852241490784979 -0.26083218651990697 0.57146085391946899 -0.56617656874939581 -0.26362672655348879 -0.1742601855388074 -0.013588997089041757 0.066668440004995222 0.080310761907765482 0.40731515361742499 -0.037569217905691392 0.49872702259134916 -0.10898488740565999 -0.027724303504560323 -0.72345068819265024 0.31755332972903033 0.14303149759395037 0.49319772167014053 -0.37010295782379571 0.26477253640641923 0.16094981973009737 -0.11544515954374064 0.055494612922410841 -0.52274765058838524 -0.53224481945633972 -0.047410729045660224 0.37353832907629092 0.33152468849064815 0.42287343496455038 -0.70006719077508195 -0.21507787790451688 0.24282058823061028 -0.012382481686526088 0.32783236449771364 -0.0026826767794627896 -0.2234344011299905 0.42835846757326235 -0.24422608595034737 0.19212945967430103 -0.5213522054900932 0.17466640608141509 -0.84777902574705444 -0.25465646733649067 -0.061968681110066356 -0.41624840174038602 0.011287427677025785 0.07065732013380073 -0.10630626579001073 0.037157519339595081 0.038404615902068936 -0.27944198685624766 -0.55605203374593892 -0.0051840325202643471 0.10400806078059383 -0.41227749386189322 0.53323337979809726;0.14802475388767161 0.037800562317929554 -0.065206591864770055 0.19654807810119795 0.13252814484160205 0.12126573909381841 0.015827813711243539 -0.43523694110188565 0.20894520631052879 -8.8293786659938887e-06 0.13865388198891632 0.067420147664452784 0.27261497785799338 -0.44940188548018239 0.47301935823247843 0.069064375934338673 0.15482160389355032 -0.20809101381961026 -0.061746675837432763 -0.2473541724054775 0.22803990746347227 -0.11414482982872651 -0.053564135259880734 0.029949844688209038 0.17359680939147526 -0.012509790009253416 0.15942652514885616 -0.087293115166781454 0.12073671281212936 0.051838433757391847 0.29683004418921499 0.16922798270268838 -0.31219364969735042 0.0016368782756816509 0.029689412069731174 -0.23122698820670234 -0.0067005842011391183 0.14547057076215175 -0.17462994650318958 0.098406914152627575 0.073704658133033882 -0.087673143627778685 0.028963522143602 -0.064786310743689263 -0.023742643989124068 -0.043059751193023736 0.10377590204328649 0.05248964952292514 -0.20771570616478122 0.17089643877556632 0.096402977585176131 -0.11849474179212037 -0.40557755534340056 0.16464251062440266 -0.39189908442574967 -0.21222624848505794 0.045051461179810445 -0.073634183146238902 0.082188641588232331 0.03550571617953497 0.097023079246278052 -0.21476341153341125 0.0067745792985374944 0.0095488954310264176;-0.086917916315569652 -0.012187170726945964 0.027062509713500854 -0.35071386561384538 -0.071136742267309955 -0.012707078110787392 -0.0049542471778494827 0.056924756808287173 0.0037677910425127346 0.028764342445442154 0.37542596678762108 0.0070820205391292105 0.11797426160888499 -0.23889477520833252 0.0035531701479905916 0.005508953943720021 0.16284954616774452 -0.46744677459983752 0.064987716045727922 -0.18777825616769778 0.24382003502155636 0.07915982298399836 0.0061681402042205258 0.072670445619113816 -0.58179798271825955 0.017968284548744544 -0.037371666678306811 -0.16140781383801198 0.015560667436814309 -0.02302186299336801 0.67218130448807145 0.24113155323059124 0.019242692616455077 -0.0047551399197701474 -0.0084675258304118348 0.10661037176379204 0.1559833013951675 0.014633152299763606 0.36704711499949078 -0.094782414273091031 0.56632750310461 0.026070182232771414 -0.53831650443645573 0.5157845351176169 -0.038309459551151413 0.0043316128596278536 -0.016448448617442071 -0.0011138266905949712 -0.30940148397406403 0.0091475016987307006 -0.0058835039084251346 9.1936601567482767e-05 -0.1273094500671636 -0.17654440977541383 -0.14928656744864646 -0.2704267650251837 0.081999627481544227 -0.14291539081410559 0.40112009442701413 0.018973739453806693 -0.02285003284794377 0.18185824350837931 -0.012342271115598231 -0.083709227712163048;0.055184763077214066 0.12634068253133185 -0.31661925311724876 -0.24010459676108928 0.089244761993561919 0.24586682638130306 -0.17209281156662173 -0.12265569701138587 -0.12955330393479708 0.27104387079971315 -0.059845537011226212 -0.38521456390684056 -0.49897434526450041 -0.35760667727325246 -0.13641335257141271 -0.49769736006771553 0.50105488827262057 -0.023029964401311123 0.387135815563173 0.34185202760344352 0.20307074139715914 0.028023822187040553 -0.28741106175852227 -0.20889852506862408 0.12901577734566375 0.96210868782026038 0.17501443371777625 0.006759481856240224 -0.48263905685893482 -0.35541482484322529 -0.09883581426930968 0.50270857303755934 -0.023678280332627047 0.22169792130196728 0.14373268304645739 -0.27395183085347269 -0.11866614018609178 0.30360965421666741 -0.033430178978314608 0.30144097821600851 -0.059432796676307659 -0.26512906287611715 0.044185861071590227 -0.22118878665447755 0.45820684717597499 -0.33318215177167881 -0.094599526333896108 0.38246123395799203 -0.15515434820295332 -0.46257645639413231 -0.11319948879517872 -0.40122034152004971 -0.21873140273931779 0.0023566847598587731 0.20174846438098409 0.184766003450724 -0.099169742363970984 0.061051057611653269 -0.38252433941659125 -0.0017161107254654809 0.13867186862045686 -0.066337582365511905 0.069611289559814118 0.10876054321542311;-0.094143961470591356 -0.10178845166985982 -0.62389528009713646 0.15169598054070782 -0.18639202524043597 -0.1249272416744908 -0.61961747026669434 0.017321447802323552 0.22717679353262882 0.3683966546536574 -0.049110275272806751 0.28724163603071068 0.45591088910177663 -0.22183265497635418 0.34354422809343804 -0.34840886570063695 -0.658668131184865 0.20189751436242151 -0.13650184402375282 0.33600888194711293 0.0088840769783246846 -0.0059147425559155547 -0.0084013449264461627 -0.17265295581326712 -0.13829555265529764 0.30788682014160529 -0.041589934824756647 0.0043573648659284009 -0.03109333927296478 -0.095012599833104172 -0.20012417591230713 0.16703629474052498 -0.25357194333280642 0.28023913335002903 0.12704507110340957 0.14268772119868237 -0.20892889876909593 -0.25936171415864812 -0.01035440114438008 0.39371183747054134 0.32725084536091575 0.11006155831879749 0.28986492356832166 -0.37085004147956835 -0.021239082271713061 0.59799047679910611 -0.11683190752302167 0.40911091884586909 0.091970127131202992 0.097230546924940514 -0.21040952966345206 0.25795060203405701 -0.2507669898519142 -0.24990901551357853 0.056951275873410943 -0.099160560600933312 0.11000524482170762 -0.044029259567859462 -0.23301051296408312 -0.46895426114688776 0.11994923399993358 0.27816378505246003 -0.076883003280480991 -0.02799769680962785;-0.031025703150073226 0.18606883531922175 -0.0042362466165474467 0.17993313849369288 -0.10419324074188703 0.046006931929646958 0.023034108330017462 -0.13757992463757593 -0.14717023981247462 -0.10639006593308296 -0.14967791174008649 -0.098277124546174335 -0.47801109159686173 0.32176621958118246 -0.23778613057524722 -0.028905489469316269 0.11199560947072808 -0.38913328595139646 -0.19375973805841448 -0.20793587186192788 0.63951997067652655 0.15485057659961549 -0.13560854977994533 0.25638353453852519 0.46981880707672052 0.051882553208494796 0.11842464098237701 -0.17972271711604595 -0.00088201928341877006 -0.13949456029609303 0.06252633214629677 0.23766580801334261 -0.68524409785849161 0.32837370725976062 0.21235083973003344 0.056431472096581108 0.16608653436877471 -0.0075103435230297845 -0.033892509091138841 -0.2911043024791608 -0.084070780586321017 0.082319330013135392 -0.54293432920056861 0.25243689832633132 0.026994844718910792 -0.30317578208472357 0.0029573618624561524 0.048618365638589095 0.13585480928460564 -0.035036310763782247 -0.066432516660229105 -0.22684128782512206 -0.53184988886845241 -0.22483229414880351 -0.29413057016148597 0.11938954699537879 -0.19904651332601728 0.04953222373601459 0.023037757125843342 0.1642893861474552 -0.092530451738874919 0.36492684771562323 0.024103502379565427 -0.36304027087206425;0.050333201022818998 -0.19671906996982091 -0.14004634026227183 -0.062377048357122031 -0.43536183886927449 0.085351949179753916 0.19536529646492926 0.19845326278276182 -0.21290064269175996 0.058859871977866948 -0.17283361927250029 -0.0035411815312529752 -0.072938715506973159 -0.048240849245632364 -0.2872857263351416 -0.12580194790871294 0.015291466398296706 -0.084673380120417446 -0.13147286226434937 -0.20547865131338372 0.12557916329698224 0.2198335765546621 0.22869688758595741 -0.0074390528374369677 0.19391137788220258 -0.0092196967174140929 -0.2414595549935353 -0.090107541827548363 -0.37494056843718582 -0.0082188586171121382 0.11961947037013891 -0.022945179629725445 -0.12973302186470367 0.18372916322437369 -0.037743908170248468 0.29558312374848505 0.047956851532858051 -0.3013646723130643 0.18892916703187512 -0.20389991280656189 0.35723043920425485 -0.15621255031130576 0.18749234559738215 -0.0052429376054843897 0.1448587923698805 -0.19270782194018421 0.14108518792125277 0.029304073986239652 0.31767358514256494 0.25658517052561425 0.18693048360470951 -0.10438306030310687 0.010539212114132054 0.17682000378938112 -0.2994770069111457 0.2135285676832181 0.40430677191876679 -0.016292152413860179 -0.16736300242736879 -0.1984426512988465 -0.053385977386884838 0.17794316989807799 -0.026468503652586291 -0.024662292719178521;-0.022395247793467198 0.054126831839900635 -0.04376881340208099 0.20015168235330558 -0.062098207596057234 -0.056991074674643843 -0.0080042662908041337 -0.36775437535301542 -0.094212868507287745 0.05676514432254369 0.058667156310945684 0.034731739886627706 -0.29354093545360727 0.0023915030135280499 -0.10199669515860124 0.030605688342244797 0.15110699765755012 -0.17505663701373045 0.40818741506643047 0.018188940008897821 0.38573826070704176 -0.10260062091395102 -0.065611269885129248 -0.1337508768827963 -0.078946848475313774 -0.032258233738019802 0.0035358732429640835 0.05440858307788482 -0.016212181561651915 0.84614971311712295 0.83836126579423687 -0.049330879578731258 0.15898522334099885 0.027666888412618242 0.018645619952889932 0.082090906503829539 0.047960446675975939 -0.026068746641182153 -0.025601090309221051 0.031190790066212865 -0.18663675516360262 -0.029892795201901311 -0.58523273678762855 0.45649275898070912 0.087452965518416081 -0.090336291675240682 -0.16132642289311303 0.051554515380939678 -0.2861524126374147 -0.060959804379955379 -0.041185390890080643 -0.0071868419376893231 -0.31484692741269099 0.23525739678154561 -0.22933198441141178 0.072759096864327397 -0.88765779968338487 0.14813685270965135 0.20878035170511464 0.010001643714411763 0.1353708959228215 -0.073075044324769703 0.024815971051825911 0.34085021050806713;-0.023049730127392882 0.048080605426693103 -0.0051437830636322799 -0.11591072028643974 0.024464421501930317 -0.025274088760799243 -0.0057772871268456528 -0.48249258944588103 0.0074433983035396764 0.034875828886261478 0.28343911071178451 -0.00048989749791003589 0.018572399007493086 -0.31176575327132244 0.018508382533540663 -0.00094125260297039969 -0.34665359734879986 -0.65594981735332192 0.020949691693616188 -0.1978580730524358 -0.18141043578421182 0.97188843486952436 0.0024100759706265828 -0.020734352708128938 -0.30832173215426456 0.0047656123836077782 0.0072851986403122205 -0.12126956155742807 0.0069871649800989618 -0.0036921422868086392 -0.29135723746034514 0.090818406455284842 -0.063145420408877329 0.031824363179788477 -0.013017194891981847 -0.13546477032305851 0.00587850871489661 0.0025343550280267765 -0.2614129382769948 -0.087670542006027488 -0.29379233698470086 -0.0076435518752669095 0.010545257299190841 0.69790211825401671 -0.029488663264461513 0.15257844683801244 -0.0065100668211128133 -0.0044832436722068011 0.0046461056093001383 0.022403720274581207 -0.092844895967031382 0.069745213836271205 0.03813942284241631 0.083748029323510095 0.8791369518444424 -0.29511940029039124 0.13810679801029532 0.15676787983715898 -0.092115828878890318 0.0026663195416791528 0.0092242871539272558 -0.027850566196781064 0.0055009160032266011 0.12510542771230049;0.1955338835734784 -0.081128826240685223 -0.024883286879960088 0.0020401414476985962 0.14256003668808137 0.0091228414495556406 -0.01614495791146809 -0.21529943269246388 0.028143608796038066 0.055261196694911363 -0.11497011309676296 0.0012777186894312609 -0.18503033207721137 0.41541522833283301 0.036336294239031515 -4.9945256479956302e-05 -0.14969843741009961 0.42844704246023063 -0.049269011466569292 0.33666295436377297 -0.44130270003342659 -0.25003662320175835 -0.017157923363637737 0.16362780081848122 -0.17043218591672019 0.0038211515752861933 0.022978200408233944 -0.49381343937087879 -0.0078557302611337483 -0.045035520919576043 -0.51918686733848574 -0.38984141053067989 -0.14482966694195928 0.026958786754955982 0.011491252169634295 0.12072599175348389 0.027709298797102086 0.021878197996862223 0.28693091695648909 -0.35168606570109567 -0.36529065444207431 -0.018120832275154788 0.15559021620792327 -0.038107280639987078 0.015838043466604609 -0.13668022120489862 0.12002461735983437 0.016713045277862184 0.29687024479362406 -0.028411349836741442 0.47832042395563207 0.041733326091966713 -0.014620114482006022 0.28303443349653262 0.429983350033741 0.065123195944706322 -0.11362294377002957 -0.46340485007019128 -0.19189878001615304 0.010641244842515978 -0.18676211746805549 0.059090669835462503 0.0014663768860641707 0.018540812628499614;0.26959508036869484 0.012349724887577044 0.017575757813796038 0.2078321869168249 0.088452175331784733 -0.010519659395890795 0.012591978079205078 -0.00078101785962153775 -0.058259145353646562 0.017081238037060083 0.05915977423218418 0.020401975908639215 -0.37544501624185417 -0.41226438919803798 -0.058860555289723011 -0.0072742261320560119 0.17887652664390574 0.052618691064645007 -0.24490369414324659 0.16599698673940197 -0.24259522915656889 0.27746114143630041 0.014267472423375008 -0.063689158700365095 0.31054132929591433 -0.0012919362773289613 0.033577011637907828 -0.17019078234064747 -0.014191445595470581 0.013256849757909767 0.098729809264775634 0.089242381545521207 -0.15835331810160508 -0.072966610131690104 -0.021714790528455229 -0.065929958524926904 0.12490774655936708 0.014780907159863887 -0.45939692556604655 0.045878614108692803 -0.040623799797795804 0.021123484102300701 -0.14027478030993476 -0.1483083854750212 -0.018797086039941964 0.069296834150278833 0.047622816781044755 -0.01258643660316134 -0.066447747477533389 -0.010532222269505644 0.34145460831783964 -0.01237184481553443 0.10738657312251949 0.28558321249849117 0.37131101105151965 -0.38214059455808114 0.16266891569880082 -0.0036868151471790176 -0.21610300788936335 -0.00085810255462660226 -0.036008112506471297 -0.10913800591798099 -0.013923094736062161 -0.020543056978975262;0.16081000602221365 -0.0052732639157423459 -0.016939254206425444 0.44106188575543526 -0.26112417441162172 -0.0037738640259157995 -0.027636086536914562 0.3945407276828572 0.047953981080795578 0.096293868301715407 0.26270083873253836 -0.010994606544651002 0.13671159089126553 -0.47675278475653354 0.049401146124422299 0.015021023612587546 0.50697824432557304 0.3751881774694043 0.19636724423860874 0.55368006852161766 -0.25858071733521015 0.33216948097350374 -0.0085426144696988879 0.082962773552368113 0.40797212356593238 0.0096522985642552312 0.048477180844218384 -0.24200805454037311 0.0060662982615514501 -0.00093228216569797193 -0.23078514579914372 -0.10397375860257033 -0.17075185065748885 0.041160178324572409 -0.00051365258561196893 0.12473167006385964 -0.067181894101281822 -0.033716461350193579 -0.56591380135891123 0.015217667139580615 0.069324541884843133 -0.024930602315376058 -0.19527161515005709 -0.3203995307153184 -0.0075561572574711251 0.03050606499396501 0.091361791873268566 0.011787474218144859 0.013099051802210351 -0.0020242442503584724 0.52666314179053664 0.018099552307945729 0.16439005365350309 0.19118622550003334 0.088994000872416268 -0.39226602162734053 0.2426247324306785 0.059666828655388131 0.15213028797541206 -0.0021272348859518527 -0.029841694969826013 0.063843591959707222 0.014509445598572977 -0.026997233877923882;-0.048440692649052319 -0.064249948294666404 -0.040894283981729514 -0.27601510562653209 0.05549935327946065 -0.0094941615088493005 -0.16596439111106473 0.028452265385857552 -0.08979183722913725 0.069742635367105149 -0.021449548736504499 -0.10552514921734672 0.089439633366783483 -0.23860544133608694 -0.12439465035720834 0.09323247010292969 0.23060566279271408 0.027872342558899005 -0.27450234588233435 0.019771309909035382 0.051425372046875001 -0.55256235799184017 -0.016357738383802094 -0.20317464194038648 0.071713198003601611 0.13585968413070007 -0.20780220314353948 0.235988676347161 -0.090100610420041458 -0.65448084150994046 -0.28331898443819237 0.41421159909449101 -0.39532291000932057 -0.25136814446756889 0.0031403950456584027 0.16865780072039152 0.15767724656423257 -0.018170758779937204 0.29944662738015693 -0.064331530623439451 0.13959058675068939 -0.095440896945216583 -0.43742970877435239 -0.26264669164200494 0.14126877721678899 0.072038430584729335 0.032597307211114222 -0.097196534966542764 -0.16323485959525746 -0.038759606197078529 0.067002867228133769 -0.095531521399091532 0.037470991734855283 0.06351717185566054 -0.26137769178535208 0.17560632988071398 -0.16954274082443838 -0.063253109175907998 -0.024072982858963067 0.011343970552975185 -0.24179030505738611 0.043650860567686023 0.071705525794083028 0.17486367344715781;0.37716542408388737 -0.49041202577911092 0.57265206467006147 -0.16521038510863453 -0.13336192445754214 0.094400110960411315 0.19353022742008602 0.15672204955264007 -0.05678383754482326 -0.29298716633874822 0.25666910470196513 0.47684869452974743 0.31568108221902813 0.10471493402318692 -0.18712403414779069 0.58854303146260234 0.37563560846118116 -0.1731306334986617 -0.036106920870222457 -0.019222194488891689 -0.62491967017900663 -0.039817718974162558 0.44134920398380112 0.03837135133352388 -0.1789965918747638 0.41963917812238505 -0.22654235247431603 -0.29707353611352733 0.018810991297450903 0.24399261992617674 -0.14086923281966357 0.18754911533617577 0.012967298543835968 0.034410961350315933 0.54763806996220055 -0.2242643812526573 0.29515781378164774 0.62247905918347157 0.20966456316469509 0.021552820422391358 -0.28723666315647695 0.50628228923136986 -0.22688150613654781 -0.044283382796083445 0.58180148335801674 -0.13599721776391629 -0.12509457689358602 0.52878925368461105 0.27017290967449997 0.26701871391850074 -0.1158256443354375 -0.3313372767624147 0.15557678527586236 0.20711387430931116 0.12582530525990357 -0.1919942714560964 0.13936554399287893 0.37654211370560736 -0.01882127824531564 0.49998698352138482 0.043411429956756904 -0.0085104809348405166 -0.29810024470292112 -0.21774361407175208;0.050049944599721195 -0.44231022126057162 0.43667272311234656 0.035667684510720749 -0.32831168739768413 0.024722630027530026 0.21981064132556991 0.064011430500544336 -0.13786668016369286 -0.046475657270645829 0.013948178082903544 0.25592539021732674 -0.075730288220869066 0.55482471531455346 -0.24319588285753846 0.06141229513894015 0.16287028895463082 0.46442165259646667 0.06523632904686083 -0.047646568292958283 -1.1963705773538087 -0.28070627768393647 0.055106470592885738 0.14279625243137442 -0.75020480945598256 0.36786918708044702 -0.372312612627823 -0.44218364732746096 -0.094076548205421009 0.14606912188442206 0.084458379278276222 0.57037897105072966 -0.095533550700176231 -0.66389088227455995 0.11435746735884632 -1.2750708249882345 -1.4075073451586795 0.30176606048257959 0.084570703073212392 -0.60257891721357559 0.54892288501712094 0.19244940504903416 -0.14451866815118791 -0.12234764299468946 -0.28787439845233492 -0.010373595491980263 0.17265770725015209 -0.22387956244175541 -0.40537393657543908 0.2862960228806139 -0.010715106480477752 0.079465187695829942 0.075967306072756396 0.22317226250288805 -0.12916975992158469 -0.028138079502176908 -0.2070149929089827 0.20369213574143691 0.30633652126985333 -0.2719374929352672 1.3358566818683617 -0.0042062052839239245 -0.054171557099723051 -0.090607978127154307;0.10533845164007433 0.13238982317338721 -0.045170179829447508 -0.011603127835199123 -0.1186835601422786 -0.3750369023746627 -0.019672342887172404 -0.21382825753688273 0.062361351622544428 -0.17916629408155804 -0.06163009859422397 0.011249497987351883 -0.11536777227321804 -0.20705437005325431 0.12438917041367319 0.0080435866448663948 0.16919337539849788 -0.22056968108266567 -0.1151460114216153 0.052429384018571466 -0.088234754996275588 -0.1674275168383684 0.021521907931086038 0.20942173945213549 0.13288067559564831 -0.058454995191379977 0.043589101939444923 0.081673841783381107 0.065613337695312662 -0.073554894037126187 0.101082445716382 -0.44479937385218643 -0.33223957880430915 -0.10006722593101984 -0.0071557741003720008 -0.079550164087652114 -0.15525847314093011 0.014360452616113293 -0.28266506845162387 0.011727100153520544 0.021940896070101659 0.025923522823587283 0.020629256186705053 0.065451410710799782 -0.014053881080673026 0.62513377597061326 0.075608220624006919 0.012498227576522128 -0.055845148501246146 0.029672276970586671 0.057653372748309104 0.50548723215896718 -0.15161408343948918 -0.29143681365611551 0.2085840589357657 -0.12790246898953278 0.018006963684276595 -0.18681538991781033 0.075039677592685858 -0.032462758889863309 0.017194314253515364 -0.23425567163067415 -0.040947746530040602 0.063979273425544728;0.047311989853118554 0.18184150129463883 0.12515644067989837 -0.18061538141393971 -0.15378116783243539 -0.045639243362873387 -0.2376786591421429 0.067901756075889025 0.0090151011349850346 0.07096891443115616 0.099643506559376829 0.62280972447932814 -0.28276846053845711 -0.50575295797322695 0.046061231322183357 -0.18919866104246447 -0.22626829953688599 0.21829055025555236 0.33495641417701194 0.11800010697983118 0.16046843554175547 -0.34845933645813865 -0.28481112596444597 -0.11623846522334963 0.05423334210652761 -0.31657302270758564 0.28800742924058637 0.25952081006391448 0.49873056582057906 -0.19466300803941147 -0.37801209719321027 0.50481967985679699 -0.19845457340139555 0.036778071007502404 0.13027612483465636 -0.4148612790829207 -0.24237672312371369 -0.38568962053094374 -0.041714524705441069 -0.33344323244241253 0.036525228279224067 -0.19106578860290771 -0.29968021773207182 -0.27413810220400053 0.34716929839673982 -0.23482335172797913 -0.03122682166961735 0.13624693889969408 0.039302413387744643 -0.071230302307231499 0.087297539175593714 0.0278169100802408 -0.34929283322136262 0.0018235544140249413 -0.10581847465599097 0.43508375403853133 -0.024752409132706939 0.23546448735192144 -0.15451052763882772 -0.38286421979156759 0.061319023964866499 0.01581978943436196 0.082426487231138018 -0.19502083874602821;-0.10590286881255963 0.064385603382917225 0.034582229123442686 0.0072650437791993219 0.25724912443601788 -0.10560186677764831 0.028351541557353487 -0.22561824641205255 -0.12550448318973417 -0.37843972016215466 0.1029197026993396 0.1813419286535565 -0.28422422975553746 -0.12159527233259236 -0.15260852712627776 -0.10223396725253842 0.3373379264960793 -0.13050408101238334 -0.081898483206330003 -0.10562108865766215 0.13883790119824255 0.40078817670155448 0.063931322879180394 0.085802380610775192 -0.26324252665771591 -0.15868823217110176 0.12948785427075449 0.082397052808207097 -0.088655070082877638 -0.22311954495123484 -0.018276281954690148 0.060620397138853886 -0.018854477367118386 -0.31390376348608168 0.051638739451542959 -0.18572154812077443 0.029526329194999552 0.02233884077761172 -0.041933252352559798 -0.24596450311549087 -0.10668474785837563 -0.045756442191156523 0.21893353896210263 0.17396524172610911 0.13078935646638554 0.10451871454528507 -0.082916901000030338 0.10488567330069111 0.045169420262819254 -0.10918896431991119 0.17370695432391894 -0.057550364307052446 0.22825695557972789 -0.016664357514091805 -0.11130516304447831 0.16108922989512237 -0.13696059257212248 -0.25924811575122603 -0.012752495527780367 0.083939375967267416 -0.034005706768572792 -0.015346556042397382 -0.037414174387341945 -0.11308882687963372;-0.060925452865265371 0.13022005757933985 0.11624727130147083 -0.35898452085995614 0.050343484065142989 -0.49566024196221004 -0.072857333788656511 0.35910619654379233 0.065281055310490568 -0.083748253812331974 -0.23851987842286715 -0.054255644390025476 -0.0031045746785490443 0.13498821993625637 0.077695418855307757 -0.098039014483808626 -0.01299911277222879 -0.00038930660678188983 0.029476481585817942 -0.10043813978009436 -0.11513984949525778 0.041764766912039335 0.034981530042547074 0.44312126440191718 0.36156390455311449 -0.054425163910339976 0.18172745007327606 0.18803066341578234 0.077300456154417815 -0.34800581235487776 -0.39377087105996683 -0.34529800291602708 -0.19827638920667648 -0.15719292983899133 0.08348819992487512 0.048720926280631863 0.22805909270367228 0.022698460943869472 -0.2247502693332798 -0.012596878888124101 -0.073041738350269308 0.025562467936986206 0.38121153362323323 -0.026916000763961667 -0.092538381023645991 0.15369055293669162 0.34297162376033608 -0.18816558537240763 0.32440205660955973 -0.069965470485714776 0.048565890038122346 -0.12153807579376126 -0.030255973158350866 0.34470602071947676 -0.016748325208644953 0.42478220566732139 -0.24856490463103584 -0.35328635842784556 0.013339923550949054 0.087602310209580855 -0.39529276466794777 -0.058208538728465285 -0.0097974195969235383 -0.28139853744047816;-0.094108522668826938 0.020382802599615332 0.075075249077050113 0.097076245102846445 0.11058103732851919 0.070751751693736237 -0.026887864254662972 -0.20953105435617664 -0.0091988481397055274 -0.27221579630013693 -0.38555821994289036 0.039115136453867647 0.10660631238134426 0.21602561821458163 0.010447887020467986 -0.042133905776090386 -0.025191504618800854 0.24374495294088461 0.054042071027771345 0.10227289007904142 0.046945431571231697 0.19809593845181536 0.04846887764394725 0.15586984688865235 0.33091488377903272 -0.10875766063535676 -0.066805994708457675 -0.22824298063094201 0.089175302884544103 -0.21237625638196297 -0.38149001127604082 -0.39625458573272332 -0.26197229273012923 -0.23838773458745785 0.004770892094765198 0.16007960594661133 0.16998571178968491 -0.046097851055570023 0.18458499919534893 -0.39150577958544336 -0.39052828763634834 0.052795727364157823 0.55677812722731712 -0.16073586154087488 -0.020546967956464299 -0.14545968015937358 0.016929769251562331 0.018111541791272279 0.39987189068339418 0.026787383283157364 0.1969372904880887 -0.017975827302032357 0.10834534964287712 0.67937509009898744 0.038851504052684178 0.22978956787895016 -0.11763201295918632 -0.25124794239639348 -0.33858009883610024 0.027458253884563275 0.19828840806735043 0.19770175983984689 -0.018849000776534033 -0.19556289709693891;-0.43332964925475098 -0.30499238359292818 0.16575442671376991 -0.14059631708207498 -0.17871097624410462 -0.07517310175479501 0.66960085636796218 0.098081897984557895 0.019486495136692775 -0.08426537513382501 -0.12577863427147248 -0.38773644035870536 0.022030456632883288 0.18761652159740055 0.1036920831352746 -0.24632339609872403 -0.062864501198336448 0.18151985582842772 -0.082096703275319829 0.080526236135053636 0.12479151733132927 0.096851631174144581 -0.51397103501953512 0.06200201607997461 0.4364285312835135 -0.13038708542622929 -0.4068480886016555 0.55755826422559951 -0.029519629043338391 0.06391886026323057 -0.34361047497437547 0.18812283716267758 0.02564689541878536 -0.15138691834376003 0.066709406045701802 0.16573790874233621 -0.096724348916777142 -0.58345415380750043 -0.057691253945685105 -0.13768327877334977 0.08260456503298659 -0.20450781957874933 0.33278210141416698 -0.085500920391025123 0.002494547338257826 0.16006534243539575 0.17694863607458708 -0.68181465659789009 -0.13826468984989107 -0.51753194284882753 0.038353344871605591 0.079695962047668545 0.34255044235671783 -0.10632870309069781 -0.15344667183645658 -0.23923729978481084 0.14099009714929467 -0.30002296759056479 -0.15073613067781272 -0.6105020828111708 -0.20581848745853537 0.36553030319589003 -0.018685127958363738 -0.28146398296364383;-0.10728607913855639 0.21749631380106346 0.24594808483222683 -0.38156572887986306 -0.23114529772425429 0.17914056495955688 0.085295428683860058 -0.026945597153715955 0.049022016605469426 0.06926234216224951 -0.38002458807125267 0.049202000377949584 0.23623140898680672 -0.1816662681092355 0.13888874397466802 0.29135377700900422 -0.092727656737267308 0.13584615415082388 0.21567682099234012 -0.0051713878806456705 0.28407586765715531 0.072930037955175872 0.065359469252430497 -0.32123516304513616 0.14052944111307597 -0.10773292006540371 -0.10403455834341584 0.19210922911251677 0.18620825346824943 0.057749131339461968 -0.15310539270209325 0.10024697372093692 0.2765971643444855 -0.1479350993486645 -0.087298691007569915 -0.014356206114515194 0.1037138805939674 0.017160441407102749 0.12318074414594511 0.02422476488237172 0.35493447188572008 -0.016651918355468552 0.0096181642673954862 0.29871509686492914 -0.0033469227839108208 0.28306321982631205 -0.30810564480343072 -0.15778601897693456 0.03899379356220542 0.14458743157168774 0.17793819139669925 -0.10923668448206081 0.141113750405334 0.039096456768533426 -0.17654118327434251 0.31062952902080343 -0.010329452874964926 0.10395748373257314 -0.079997553620115153 0.096160825250358184 0.0050694612974586809 -0.29616829390296601 0.022915922883481824 -0.086511265207271107;0.38817013924615668 0.074817649201306402 -0.0056468016128307695 -0.13469589207827706 -0.030647430254819735 -0.039348618719210304 0.0011550375482715302 0.14779811173640278 -0.016383475549383655 0.033131480125276454 -0.22232398224356953 0.0065135048092240999 -0.30480233297784548 -0.20463766678111731 -0.0038339721179060197 -0.012378948711895791 -0.017103695250173804 -0.12143734418866624 -0.19547857328597895 -0.1678236341562454 -0.35854392488812314 -0.73933853994927135 0.0005321632981252981 0.23012325657383245 0.088596021648306419 0.021102008457248494 -0.0097824437494712525 0.036035948361267993 -0.0044027104401668897 0.0014583924631398426 0.29735403834551605 -0.74919575640408387 0.010006151175857297 0.058870948525742664 0.012796272784997053 0.062978554089442154 -0.15306670941877437 -0.0036053830160149951 -0.43708233962242016 0.16792579449168044 0.017196764213646614 -0.0030709083662917645 -0.16440783676137569 -0.24529388927700529 0.0041122478113227237 0.37604412835367096 -0.069320432899954598 0.0014102841135163464 0.23942695895903546 0.00039038828104837791 -0.16354731880836376 -0.42649047711616456 0.014348587211214164 0.19776456445352611 0.69046981986102651 -0.50911857255765869 0.056622220747596222 -0.017743723063751288 0.072666158950735998 -0.0086311210638359524 0.039919918901488161 0.045659576001664967 -0.0035691177484400154 -0.031271528894180854;-0.13730949871659509 -0.2217992876514647 0.031412396559230421 -0.1798473811320552 -0.021506022869277767 -0.052729595905529093 0.037295520957146597 -0.19420428495941958 0.023816755138734397 -0.039414522614447382 0.12353884900793367 0.020427332962447305 0.37851168652248079 0.17719259019152456 -0.010150258528089571 0.032851479988591309 -0.010302304505244565 -0.32012670276944682 0.18285102104716122 -0.0060108911063230267 0.59616556699289103 0.094317496040292728 0.01965187971034605 -0.27803576143255349 -0.30065444876856839 0.035188221517768591 0.018739710999502467 0.16592106506120513 -0.045448081466344319 0.052351555300634824 0.27812850100871034 -0.1420754514877908 -0.13542414420916532 -0.033213858207115823 -0.0089435267565550203 -0.13741412535681072 -0.1801373051037776 0.025365488769336645 -0.27788349465458134 0.042466866384568092 0.30744823395202181 0.031381530509332879 0.09174732569742837 0.58298557150216868 -0.016603555562581241 -0.19621183742622442 0.1628926301996679 -0.012623262718185181 0.046947144017881033 0.016486838919370462 -0.20112087389492431 0.038394838432303999 -0.15245138752368392 -0.65089055163826837 0.22869310575285737 0.15135660113014279 0.1284772002006728 0.35896374999750319 0.047372497563265399 -0.0058733130789009498 -0.064667068567658248 -0.17543755339644695 0.035472114249816 0.34543058825602879;0.15931062485055811 0.28018671268461248 0.14608857889270641 -0.026322616304108537 0.061427614883214812 -0.23086956898587521 -0.079164771752759405 0.28494992048280482 -0.01213683297007008 0.025374491578028346 -0.057501702913529469 -0.10304716406331076 -0.15707920400335651 0.056676975526093389 0.054674125505386452 -0.10757523641041963 -0.059591895776928423 0.011392189893709484 0.016487175443599626 -0.14780053141532229 0.18289480135347896 -0.27279907695604305 -0.097146644930390672 -0.11482915268196668 0.11771817364450317 0.043743471355157527 -0.081068123997890762 0.18172614399964937 0.028312068085815895 -0.13565484566121561 0.036944149373276204 0.010694466261594249 0.59422968540299925 0.091770485618780609 0.051217002709929745 0.027352808539816195 -0.16592002451682472 -0.060621696620783254 0.098038023636650956 0.053668720266754184 0.14038913133563199 0.030190557544864636 0.44501344297650036 -0.48422872141640572 -0.11403535951714612 0.1983863838050163 -0.034427585531187549 -0.047857925009560015 0.094683846461526444 -0.014830350349338812 -0.38997572291931981 0.33429942458431389 0.12792699052105952 -0.34053860808539743 -0.21115338312793402 -0.021787564647043369 0.18664567269931093 -0.034976059812379813 0.11310606521912057 0.065627020440166939 -0.0034994909501278879 0.26929679716417371 0.030267416616255663 -0.30863899516821347;0.30575899031689535 -0.22711420308898358 0.21298199863728648 -0.14826124324258608 0.034432611308914875 -0.11363556345507429 -0.39911491275319866 0.15096074824089453 0.12440671432402219 0.1585528171767959 -0.28051277115908019 -0.16254450754074767 -0.21427495987861939 0.21298081473315209 0.37600093632761333 0.046264406908236098 0.20115651580378974 0.16464988049286106 0.80391154171050472 0.015469356269509535 0.099468743282626573 -0.12382650473868738 -0.21197475788341422 -0.12729748323285697 0.13992370672828403 0.28485775259252605 -0.038625137647300703 0.19512877742081902 -0.064210267738677759 -0.083999791440883737 -0.50724332485994639 0.43473820443190797 0.21285903011938626 0.0038967637115526681 -0.17505119467735367 0.050240877249419814 0.15279235779856978 -0.23363911720798691 -0.022085202598939889 0.016399973006247036 -0.086001475449224388 0.33396986179006316 0.1087326515576565 0.11574225235875016 -0.27989956269526056 0.13736868512324821 -0.41221609312473473 0.22157285079281361 0.49182522077813501 -0.46118562415174064 -0.3504572804887936 0.056737421973939023 -0.30940950720865457 -0.22156971757714375 -0.28453256793402876 0.05066509902257503 0.040550651059425874 -0.23447901906088878 0.23675409784037044 0.41431763754672241 0.022194878068306868 0.12235001419890493 0.015876206305810141 -0.12855164270712591;-0.6816784262783222 -0.71312554304024822 0.25922828122005265 -0.04432602974851009 -0.31500298817069777 -0.11238022504664359 0.0064068555991693924 0.10270784551553713 -0.057278046763611007 -0.2545587139562539 -0.071742880113438531 0.2079567502021373 0.17423892987917994 0.25187581697108286 -0.20211983101638126 0.42097104292398729 0.26511606144722788 0.0085631823352916425 -0.90367585448016918 0.15711451472705107 -0.37624071776580409 0.31837172605505876 -0.72537901781198366 0.74533360434315199 0.35138869439230602 0.33001257684893887 -0.43103198709599738 0.32962518188438439 -0.35419902506542833 0.20708300886574135 0.070996262362435378 -0.0073420854519941348 -0.17071221090279728 0.91904899911918647 -0.36283744854037575 0.063503902606681012 -0.3822533360115366 -0.06431806279942158 -0.15033670775666494 -0.31824551913862537 -0.030905475392292978 0.23017955533462162 -0.099118433114636736 -0.12180100079637984 -0.24863874212844014 0.19554425652157484 -0.051386470850155505 0.76332135510461419 0.15166330413037679 0.3797208565248108 -0.11445300947612277 0.095428395737475802 -0.034880969568954735 -0.30590544836292349 -0.28557051475768264 -0.07820118357579918 0.075571392539509688 0.044789736996028909 0.1627226255890091 -0.29750754258446171 0.1518480969406131 0.11154263199911896 -0.011659400558806148 -0.18115048337120143;0.038349712988029694 0.31238093905769482 -0.73712808960881138 0.079981710437406109 0.048204057270875886 -0.11042227468353132 -0.45051874389729607 -0.15911854099416858 -0.18281673176939978 -0.35465186392388165 -0.24145011752273576 -0.44181077615119396 -0.73183322565804565 0.005061416063212751 -0.20151745821110445 0.79853583536455064 0.21270096403299132 0.090396400136351626 -0.26357467952030178 0.35040295149999401 0.1127332386072414 -0.059709814298318821 -0.50719395401044853 0.033719784622287731 -0.1022544309887395 0.66970304888460219 0.40579301888642511 0.31128274316942794 0.24938510928527002 -0.3710728491562883 -0.43162722211510118 -0.067198015193500396 0.10720796542546884 -0.092619043314060692 0.26828887084859515 -0.24965504857639034 -0.48120743977756741 0.17163080082622129 -0.38240157007128822 0.069654830930230158 -0.046556212393364091 -0.51060501197685149 -0.36902026193267645 0.092792954949264192 0.049944426397787643 0.26498377498459319 -0.2100604086968878 -0.20055007867538016 -0.4176272940247715 0.43261258787664625 -0.39455353459149489 0.23998986214005266 -0.25625133603502276 0.090671325554117443 -0.10591786167040684 0.29872190939479659 -0.58695114871806997 -0.31701601083757852 -0.0012128094845353142 -0.15046154659740177 0.14129218579717501 -0.23527581553159779 0.28298878702031727 -0.15345192436641245;-0.092124606026340664 -0.025322734420985482 -0.034385125868457558 0.27370278443801599 0.32703255119002633 0.18970888836721461 0.14207288230217835 0.013498796785153099 -0.00097577264877995768 0.065554263558892323 0.24149479225328244 0.033833880877546997 -0.047727918145151607 0.18357842254077789 -0.041178074963812872 0.079746693241319763 -0.13521110770125286 -0.032697822772747701 -0.13605818813902285 -0.19787445577210186 -0.21337965331529743 -0.26902887880336923 0.089302176298923064 -0.096267291428618756 0.21216738292911291 -0.095972607981312796 0.032162562720074776 -0.024551948431779998 -0.12950437818366387 0.013312783331085026 -0.11366448916912722 -0.26243904443092619 0.19836185079265728 0.13084565403661769 0.027734682126268416 -0.082860749010978882 -0.026386025136905918 -0.0028077707072159041 -0.0731479249186201 -0.29448406698677626 -0.28428891105007914 -0.044116529108528278 0.44370755077440494 -0.202667529468716 0.025797439516267517 -0.38715034479768318 0.032313505312601735 -0.092389347163377752 0.034685194334522766 0.066524204094832298 0.02577907284164049 -0.10260755825412338 0.17134664737489885 0.21508577752664512 0.1857945478898913 -0.40805787422596507 -0.32104461844479765 0.079899001817451742 0.4192962994089352 -0.023893806011418012 0.088259951773816681 0.0024311919382528384 -0.027983167614064351 -0.093894128657032769;0.30220744641370789 -0.032101841075640777 -0.15257758165925001 0.038874436350931442 0.011862643494236476 0.077493399741621727 0.032440394960425993 -0.14529531326031581 -0.073437913396078233 -0.018242460744609744 0.044553894667645207 -0.016280945305358695 -0.17895314711992313 -0.0011636379353571638 -0.18989134740380548 -0.044723551053593727 0.10431051829138245 -0.076851323101890093 0.066738922630647179 -0.085580225228418239 -0.23863118553089602 0.35107738337660899 0.21538576376776344 0.18332989623839996 0.13830094137322169 0.2739014169790876 0.22411080922857035 0.24166440288022456 0.24377689946049957 -0.11510627264967419 0.012049074631155236 -0.077512515792397582 0.048543261416777062 0.24605519125537087 -0.12818494638102446 -0.0066144047439871392 -0.1614380079087899 0.40182110682806288 0.12425423294349149 0.24281336891777563 -0.42690123596244595 0.22398694495270965 -0.30828895035051551 0.34683994812723695 0.19432131632864602 0.21764562646075208 0.012718878859750796 0.1807820867497506 0.0093470985422503729 -0.023556439638976349 -0.25867327558782111 0.23499524700379851 0.27931383918517916 0.077745072612842095 -0.064008145949913595 0.34490471466098449 -0.028895161389202825 0.053957905350114445 0.20570579839474368 -0.054446276311040952 -0.03198354225458009 -0.30272086590385283 -0.10927966794341711 -0.16453063215510921;0.049024199330635794 0.46795894675351879 -0.012919306700003505 -0.06837370635828853 0.29878431005106915 0.56815066304075357 -0.10200788061429598 0.18867338119775587 -0.026769638758591067 -0.018002450831314704 0.028368793680991471 -0.37318066631467101 0.051090437188367893 0.021518975053424406 -0.13841065740012123 -0.0095983922363017601 0.34873679654113154 -0.15776537463792381 0.20957892204949621 0.035317638523116784 0.49508220888648546 -0.074043622709926843 0.35837817444778858 -0.13417954275444138 -0.011768202288731672 -0.10888060698593829 0.22227976944996344 0.0044548208880214758 0.5624680858079697 0.16924110698494949 -0.017411314285526287 -0.20059024222754546 -0.070304842420266953 -0.21656157382943184 -0.66905383380709627 0.0071633374250542154 -0.15142790351752944 0.47482756950150284 0.12539774021049294 -0.011784706700892109 0.093005306752982714 -0.16880688336599209 0.12576985498003673 0.1631048339735518 0.39612688529216311 -0.58216515970451876 -0.031785515065446045 0.00013030702771257339 0.15092216428623201 -0.27525834015675288 0.12061918913624646 -1.0634252385674507 0.014923801726323989 0.16567857140848494 -0.16036330279482547 0.048870886054018098 0.0058425743674306021 -0.23918460266705044 0.29277002137112246 0.31604329713983986 -0.36001115145314716 -0.092857582990390666 0.089763694383086692 0.010510044733542785;0.48481635561168024 -0.042543472421101458 0.0065629290783749397 -0.010964009744088739 -0.0064469141885837352 0.01619830671638546 0.0046531871789145798 0.51056278701471602 0.0067599639343794279 -0.018853675406187501 0.018821107043363167 -0.0044323375516434815 0.029839642490128195 -0.40084134753624556 0.0022296326966567206 -0.0015415988663687703 0.16451808326268633 0.32887597448238476 -0.13645521814000855 -0.25909470538722112 -0.22096537219911178 0.53669116609272749 4.2987028359658372e-05 0.80446610111993166 -0.15104957603134322 -0.010068790946883842 -0.0063651194135963471 0.014386564040249347 -0.00059397681008877727 0.0066722156622106869 0.17756048435961375 0.2669997045641575 0.0697712488873619 -0.028542366722680429 -0.011123338557683746 -0.0085453567077416644 0.022793503679809389 0.0099361194434300082 0.54790143240278943 -0.25307475104269567 -0.50056714093555932 0.0067348392528195477 -0.041442754074429503 0.364153261376849 -0.0015003295523452645 -0.17712403229553822 -0.0081316128097995485 -0.0012905119651089654 -0.18253482968492438 -0.0052290829585538304 -0.29089205801283202 0.24699604853917229 -0.060275813861215582 0.33063566972114872 -0.25062645557130819 -0.8797191194023396 -0.11736137737411252 -0.15922146600443346 0.30791381200105061 0.002927858585390508 -0.072563842831023365 0.050817412899720582 0.0020025512416735306 0.079849098875324084;-0.16053436244375624 0.13066398469981233 0.0044392211714173796 0.21295885003205445 0.043280546872020265 0.077053556370007659 -0.023151856486055757 0.34325064253928012 0.022243766780669832 -0.00097004242358599555 -0.17202185428908154 -0.030646766264589557 -0.14766795959963999 0.21841355792440328 0.029471350476898632 0.015359640211455737 0.43212714843135086 -0.14487421712122964 0.1311093879256961 0.086627002871868086 0.48307949085832286 0.29706753042456907 -0.027665577218084908 0.43057568637773208 0.27386104242558967 -0.067638226979418015 0.033026370223181459 0.32307452334102083 0.0077733413040359895 -0.031968037911466692 0.27329339149985571 0.01813625252797459 -0.12439957986858084 0.19691260057396803 -0.066839660586007266 0.066381292779257667 -0.14304456715311711 -0.040807392548874617 -0.22946293951989696 -0.26044373912104879 -0.2097140450628468 -0.031201257578287275 0.012471063261663374 -0.11406726530590598 0.045509472818261794 -0.059347731877624141 0.065014499030092668 0.026173917461804769 0.038756273206011563 -0.042993489100041908 0.17701778483339031 -0.24570831838577842 -0.037406636235431515 -0.061083055799957861 -0.27838785593824322 -0.14419735126687158 0.067607851077173861 0.18944334429425885 0.07343776439859942 -0.0050101320580652944 -0.098107817747487752 0.093372698024651923 -0.015622489813798006 0.046739193691548477;-0.11390335585802315 -0.042972900940785888 0.043336903759532093 -0.10099807541273764 -0.089432917437964998 0.039035783100580236 0.13930929539711373 -0.14549984360448429 0.17077509859101098 0.17912053153346708 -0.1219394286475679 -0.35149828404610367 -0.1310585109942296 0.21279871036143336 0.29083781253277136 0.053385825645540425 -0.23100892259941336 -0.25479286665416012 -0.16225498927813123 -0.20919147103231972 0.24606444659448448 -0.170017516290807 -0.3135495075105082 -0.10105411896593726 0.031648804470035631 -0.15778278066230558 0.15734972785801962 0.063731170852843494 -0.22027305131228042 -0.27703883681742425 -0.20522262983095663 -0.37159093667215648 -0.066606055045048809 -0.093352820713013707 -0.43621949357338197 0.2845506637085608 0.19880591846964099 -0.092914116739639688 -0.031185445669769746 0.29721097255991574 -0.26725210190306586 -0.10586452784738565 -0.17237992873686428 -0.16873693818076027 -0.27282168370113014 -0.18434246676336685 0.26190612875314001 0.097034459553723362 -0.19760764884637225 -0.066354140925772326 0.28541556825644487 -0.012024130589433838 0.073942071995605027 -0.066808945563988545 -0.064058398787832316 -0.36614244598498369 -0.2586533966314617 0.16657608150673522 -0.052246451158136774 -0.029170403124943723 -0.013819472663770933 0.41398174156190654 0.074391609183649343 -0.41174389615206275;0.020797790783983718 -0.043983911367470908 -0.0063139558052336684 0.22194778196534001 -0.023047688246186866 -0.0038089904668667336 0.0090269828891333618 -0.079176434344178995 -0.010296048789885234 -0.030842192369186901 -0.10821023372866367 0.011754020402957725 -0.021447048400112467 -0.039613799266971936 -0.010490969365500934 -0.0070457842500559753 0.05118857792454052 -0.045370605114792198 0.11324079319176204 0.014712213149224865 -0.077549082004702674 0.21683841225919467 0.00060422041705586276 0.034164597260296192 0.20012852961404659 -0.003520205907230079 0.0036570939746193459 0.15980596435115693 0.0068159735301576204 -0.0039004315584707356 0.050655997486991768 0.047592991423646022 -0.11601038220690334 -0.074055258567814183 0.010051783165024378 0.011691685994872407 -0.0093261801705238258 0.016196044340762224 -0.67946933954346189 0.01163769988358997 0.024637218091003166 0.0035311546699239357 0.092492467947423884 -0.12012080933566378 -0.0044068807881442228 -0.052131376702293175 0.014375120349139603 -0.0066406802312155878 -0.54072178215883049 0.0016764084092292248 0.054680211088411687 0.025990731614407427 -0.086312000688108154 -0.021212841924523679 -0.28907676549417721 -0.1561671225095671 -0.071729965070264065 0.16155588962835166 0.017033728594665055 0.00018108818333706738 -0.0087061988978687447 -0.012412524945178501 0.0023460813859866158 0.020025355244966774;0.081862258505142366 0.22219470738804034 0.14772038734761445 0.4007376975111917 0.20711866693855696 -0.27918177411704992 0.1558348920014638 0.069762906363942778 -0.038647845491070316 0.14792448151022258 0.22911389623922315 0.21942346602291951 -0.21448175565668445 0.14417323412329944 -0.048075870836340455 -0.0056918462266225605 -0.069833687257583654 -0.060883893279480752 -0.21764000521183338 0.39049328458040777 -0.036597558207995831 -0.33022770553333874 0.16564067291558401 0.069949741621402023 0.031129545464553512 0.16442517507892715 0.08750027818753732 0.31487899063830577 -0.44882519622937944 0.53209213747259154 -0.0087644591679044183 0.0027831925201707011 0.16723150855441071 0.14823021060447963 -0.041420875134706291 0.100669817220098 0.010092657746695729 0.060721818156603255 -0.2130807032083524 -0.13065983538701526 -0.28376130200143296 0.0084555325948530713 -0.40017044819921721 -0.67003287938984279 0.32306417942491983 0.31257040504938405 -0.02694767805917056 0.019236005537214326 -0.077397507392315795 -0.30057203581581776 -0.24579445210901807 0.35231938749567276 -0.1486779424314946 0.48240263005981088 -0.12414730833261951 0.40855057170260284 -0.65132626264353866 0.030730354480838645 0.57430530684541148 -0.04913550407184087 -0.016779430210774333 0.17111738354309591 0.026351777000551198 0.088348944660600309;0.021918849503274159 0.20100236609674976 -0.019416401573259544 0.021282463967474817 0.068250290718088774 0.01607169091669099 0.031078367394044116 0.078607095536213964 -0.0029989904944852409 -0.086685590725563852 0.042692947225607764 -0.0093459168464189325 0.10603730987752578 -0.51640579928140218 -0.036331225439910388 -0.022431445684014929 0.14086137831949147 -0.43782159631812212 -0.16342211715318206 -0.18148446942344573 0.21928578889098971 1.2391463302877501 0.0035702867639399402 -0.44792808081166208 0.073706543397020555 0.0089931998497237535 0.0049664658442992778 0.051006156055243945 -0.092184832947121556 -0.03312812451233018 0.26947694334105343 -0.011886855158634831 -0.27596115020805767 -0.10136619937736893 -0.011731254084203582 -0.36623076172098101 -0.40636189012702462 0.0079529134341463168 -0.19880271801603039 -1.0454358731504345 -0.73717533735904095 0.031417204869493634 -0.015488954069754762 0.2095883421391018 0.0083778226695710931 -0.52276050674747521 0.12742743754594879 0.0076478062921933442 0.14998040381658065 -0.059510805195235668 -0.37887211858705827 -0.040390420940911942 -0.14235973009273448 -0.92092958794739299 0.23342152787948897 0.1166253922649543 0.0033009902323784006 -0.041564285812429706 -0.20742961393208698 -0.020177410667387752 -0.20019961224144731 -0.21443518700900585 -0.0044991873549054973 -0.51691078036427596;-0.070439553600620597 -0.3410178892637809 0.18899870337780186 0.18077921527212032 0.029073647961188345 0.082006516725510376 0.12501098255648049 -0.2446674950958406 0.13659060908112619 -0.069536025440414609 -0.085205117191564192 0.12970133485140703 0.7823120343418366 0.18457985462504164 0.10793798660205288 0.023176203896963517 0.018940080171287874 0.2394354276035672 -0.17380444991508762 0.10872111581037951 -0.10015831080936982 -0.30973225147603595 0.11189876359785896 -0.075071805610071679 0.32545709924860933 0.21177714333083658 0.279148056560792 -0.30723422195491124 -0.31490576981405355 -0.34928358222969724 0.10012774050947468 -0.25112862034542316 0.027452889896962641 -0.056600761765387225 -0.17228708481324154 -0.13409599620477078 0.10368320269286092 0.055721299060840591 0.067278857235993236 -0.24560490462640155 0.22870625976976303 -0.093934865019576749 0.19251722688957382 0.20046799725469955 -0.23197661380364606 -0.34723190379326357 0.13330240343029556 -0.084232998219669009 0.23843361940322499 -0.024193940578925485 -0.027444111309298469 -0.21379384376257793 -0.053428398576937208 0.24060096106331613 -0.18216666580604712 -0.16662162465879393 0.40277178854009815 -0.061567288651248213 -0.16355524004207694 0.045968345638655164 0.13618608344740113 0.12033172531533783 -0.11239628665230049 0.24552071994916339;-0.24989976323217186 -0.35409781227090692 0.15415524098221478 0.0075715325068314715 -0.67276936604909032 0.05520747151777318 -0.13591330543473376 -0.1822846247836255 0.014590967848349725 0.013034744193287245 0.13179511978777458 0.17903988413644578 -0.14913700862005849 0.022545374707800755 0.060612656483531584 -0.62645491274992404 -0.16637472991502539 -0.47043976670926363 0.28677017058428472 -0.26975986914579297 0.11370389805453295 0.25937088978517914 0.099872067971044393 -0.026195868464648622 0.29430649496362193 -0.29481830350948141 -0.26441470112898224 -0.1412974893606023 0.22619002290332982 0.22982308223073381 0.43019588250427276 -0.0055119784700131801 0.12542178600116471 -0.1272320030002104 -0.095550106488029266 0.13983130580950456 0.10667179475842993 0.0090521602004267464 -0.090066553580398723 -0.11628801483816792 0.30390574257528025 0.054576987858194106 -0.010704616258586111 -0.0018249379285089253 -0.18394905531950118 -0.27030399841618152 -0.051476333835180764 0.28743182285849023 0.11161630492351286 0.23827569808350324 -0.0042424982275437546 -0.13254532856088089 -0.10927330914745816 0.570982976148662 -0.19926363553061011 0.40191181227872103 -0.028937669218296221 0.20902748664079365 -0.30815573101481908 0.008175353642985236 0.26091277581071365 -0.047693815163197505 -0.04510808050705286 0.22615949915939715;-0.19569973357415643 -0.014866995219779796 -0.08283195816724348 0.27429960491765998 -0.19702803973887043 0.41076106406519158 -0.04638410754550127 -0.057320276412852436 -0.14790665623868349 0.04201785769939894 -0.049635629273564588 -0.026567957558213878 0.11344915878080725 0.096828444134869976 -0.29836030479065034 -0.31204393124792318 0.16889921829575202 0.072589460644470485 -0.71119109479141507 0.26085596746012329 0.20059503449006832 0.057998258447273465 0.29662002370454787 0.23559079213184694 0.066378627352329897 0.32257684562134081 -0.28094155365755713 -0.12214652193328634 -0.21596055719323237 0.056894626715294723 0.015097094143307906 0.19074598379965538 -0.58139037358429846 -0.077652227728569681 -0.43534425247947794 -0.099422653468349817 -0.27652157502297781 0.20520267268015654 0.21829812025017656 0.041087231721628467 0.044983115470165154 0.23261016865342327 0.094051640119395916 0.16945250616809585 0.14798006551737314 -0.09752344986198358 0.093777079806418154 0.17905345933962616 -0.064817078143721105 -0.299037058835256 -0.39478105903895849 -0.68465263200813598 -0.40451692118139393 -0.19369096859645324 0.13695641877128781 0.037397767625596837 0.052997341407033459 0.0069012139936991514 -0.043546368666241272 -0.30798373725926576 -0.55631402757548798 0.18936396215983844 0.14156454431682103 -0.39239315656037738;-0.26160725620786446 -0.055555141741974436 -0.091676819209722121 -0.023463126713807146 -0.070175084486021735 0.18828755126354646 0.40809130898686535 0.12275956161997505 -0.28302538035853575 -0.035879762535764956 -0.10702943196538138 -0.4669291653652316 -0.59996741376664042 0.35614381665881262 -0.39793570930213207 -0.01215039886356332 0.1433003689187603 -0.07756015769855322 -0.095363276006270037 -0.12274587414703265 -0.1171705520889102 0.68096644218278946 -0.25702858728381262 0.39269160410032439 -0.088715105049525997 0.0021360626997303962 0.01356109296639018 -0.18305369723881931 -0.41952269427918121 0.035978849918140196 -0.098966256200932509 -0.019149582601548039 0.19817280320425257 0.26745771766901527 0.04869259759435781 0.23437906988322324 0.15997940700848262 0.044512797253827625 -0.0049450625771669896 -0.0012568252375460825 0.39416017414730464 -0.098136165553282292 0.87569938793372404 0.1843804979925984 -0.17614736945923512 -0.038033178398961268 0.038398971726247948 -0.0881698547660133 0.44914200061600956 -0.093934521424651016 -0.3334826337079867 -0.48201931010245003 0.20386583002113765 0.0020845219444124109 0.33782461871542796 0.23321009788359912 0.58670935752562836 0.030600867463802816 -0.18049317051294048 0.21896397323250066 0.039124989834683849 0.23092023239337642 0.018493324910005545 0.015574271367779127;0.013310479515801957 -0.13219685481066126 -0.13645763647540099 0.024943647239375973 -0.29594688645702366 -0.082979276350834755 -0.061854227443716221 0.20416385396123901 0.025984193406807569 -0.13452038804363847 0.40658734465154667 -0.079984309796690176 0.17964534242318594 -0.17782092856694914 0.0061698350094985411 0.4302106291604505 0.21156417870764815 0.075231791444450191 -0.54408408745958958 0.24359747102908205 -0.28831791389199329 0.12168318707289233 0.0066465521557073854 -0.10493059862139578 -0.1033125725447273 0.38926642188537136 0.047922526737360749 0.020486042898980237 -0.072960801705752865 -0.092139128387659294 0.095205398849592768 0.12954574642584565 0.08227605028886055 0.27409894234935117 0.4002106254825355 -0.32163116535149888 0.15626771679105916 0.12121552062307989 0.042188407171676844 0.074295305853216115 0.14034974975355255 0.018620887658573494 0.24321500599454127 -0.11832728322257978 0.22592685109241034 0.1059241769867693 0.035502534076003886 0.16127924413203945 0.12098921631152859 0.36872014470405751 -0.30061877762172601 0.25579370182405808 -0.01664175913654433 -0.3090633221069084 0.046261883865144689 -0.1359007697734442 0.13883751286928228 0.16056483644356567 -0.2502441102758996 0.24479530712590788 0.046650300038888953 -0.37503875601144077 0.033942920836146723 -0.12956576328486286;-0.26963698350726062 -0.16754445001448395 0.071101668194202466 -0.12579998981673188 0.079418917724558613 -0.040189371711233914 0.26868323300378594 0.15391814762057454 0.030590076359061726 -0.42946984615643641 0.34449007539890397 0.29347714321654067 0.070079022120006731 0.68649808224196596 0.0023149987249864437 0.22041077356682215 0.093184189451439581 0.06036673654220101 0.14146802869805403 0.1539258459390199 -0.19883944798734868 0.3006324063428929 0.17997274969236085 -0.2941900624651636 -0.12896936236899684 0.0067062101299424377 -0.53939779306486402 -0.14738562567980407 0.093120475062026378 -0.024795164604041312 0.21351394683457894 -0.056080351384581707 0.80597944791465859 -0.016382647702390989 -0.089092563466945177 -0.10678141911018318 0.10585417618660922 0.2473371076692166 0.062895559028518774 -0.01804342912255813 -0.18451068440055379 -0.052676331253545781 0.019642588384108237 0.33087619302095783 0.39030784293165999 0.047315376398007675 0.029117418094454492 -0.11262331339563722 0.090926627798367021 0.26424688474212155 -0.040671901907991158 0.021185166987115919 0.18569654864980487 0.089930953125092028 0.2220746373270929 0.16788251479739161 -0.23175508845849171 -0.15351783220685114 0.34815372393528121 -0.38610977846521327 0.33175463738089239 -0.11805478293422123 0.10657915580465807 0.01960578266803233;-0.062455410324980178 0.4320547272560234 0.21390999654521675 0.17846240445638065 -0.037699213685442233 -0.22541282999197829 0.20955386893396166 0.15482315922922502 -0.015238251970352614 -0.1548170969102203 0.028203765248026404 -0.10681456752686104 -0.43623531815826577 0.088980368275833222 0.0057617980541517016 0.14471143712987738 -0.20238460416438561 -0.37252471835462164 0.30551296806414857 -0.37601446085966073 0.19011496791342136 0.29692909765261205 0.1966982697598422 -0.16685716100838474 0.23808592254670027 -0.52946124453672028 0.27115146145539071 -0.60330877613084355 0.26669512502824583 -0.14460092683184983 -0.12621844906567076 0.020340009508492466 -0.086973627172459489 -0.10308566904076831 -0.29824481621843241 0.20139405638876107 0.054361386895298971 0.10993482331841088 -0.026214569603334729 0.077513511003245716 -0.20736725182125912 -0.30037782694717124 0.037804564066379193 -0.21512337844837487 0.21878334155870224 0.58094356311728879 -0.10705437427233787 -0.14893832424516115 -0.15316010123093754 0.0031944745621793891 0.42183812557364347 0.25814639493444214 -0.090674497498306333 0.20776129519348779 0.22159509677628259 0.036798387158693144 0.079521053417443505 -0.21407163889624503 -0.11197883727111994 0.30193930738612867 -0.30389232556186163 0.15550550948204259 -0.064692558195361752 -0.14778280284876388;-0.53585739609286631 -0.45245960941487706 -0.0049509098742828387 -0.0029666092553156426 -0.032479126701776578 0.17474570214102056 -0.27509797937893954 0.19126235418129911 0.15529160233000472 -0.076534340302730999 0.40853855668949501 0.30337126778653539 0.13769412968212172 -0.08485548390141999 0.2269196715899775 0.42662423291219115 -0.32317454465566325 0.19226303935347844 -0.13077100001590045 0.0056481265605669217 0.12050137890877147 -0.062010220443455985 0.10452726153351397 0.06935040955966866 0.05416701748880523 0.0980595971796729 0.19944828619929245 -0.40929199892527052 0.12091474190615495 0.24669898530517734 0.19178423094248589 0.24743504107499498 -0.24086247195689961 -0.0578063023752328 -0.11848819330218086 -0.22269356557842163 0.14210739029987993 0.060999873770690625 0.32253326300119617 -0.078894045384702502 0.045006446785339833 -0.72987437363308139 0.6438505536079091 -0.65339568108735435 0.42051078865575081 -0.3320955143477895 0.062114161044635192 0.043051458352581486 -0.13273538662645595 0.32109678867006491 0.10336587868544174 -0.60245519707303985 -0.20751050602077317 -0.19224312596723825 0.097397701611790885 -0.10674796083912999 0.40367843622839389 -0.26951592160164228 -0.15334751358236159 -0.275539323773203 -0.11226592104724818 0.14376856323274123 0.0050820022273048108 0.34354637394985776;-0.18184299033975881 -0.26153022110795321 0.10829162177968871 -0.055159159635781572 0.093749191362283227 -0.10699727749285869 0.1609397244505511 -0.13361104897458939 -0.029090928562668292 -0.062999383291694563 0.23989118222584072 0.24154516607520457 -0.14771822334439838 0.185241896265843 -0.053841948208266099 0.25911731169525409 0.36761965082803921 0.17257463890018038 -0.00011712288490326525 -0.08365897488551928 -0.11879872812090511 0.41348328617141566 -0.025256148681823111 0.098827848235199897 0.19045766768008771 0.17411282636544936 -0.14823363293230557 0.22046704018640589 -0.26130244791677631 0.066691727220416969 -0.17265983581147162 0.04159104972483986 0.11435845696251995 -0.10314259894240925 0.16109728598105524 0.31306523925115143 0.23821788864890642 0.035387068346583152 -0.021615703961953305 -0.59760360537441293 -0.018302447141315632 -0.052796927307234065 -0.05421188211621121 0.007396562825808117 -0.27585235071058672 -0.075278908202482009 -0.15792351999914356 -0.26443003488192457 -0.31123063597765027 0.4132615618009991 -0.080073510826942904 0.16047036003809306 0.32561538403518481 -0.34186533430740201 -0.28783545936980937 0.12409550203344545 -0.035108220068964843 0.17578556509717821 0.020069304473572424 -0.18364128744830771 0.12395795589222967 -0.18991018743887564 -0.08777969520718848 -0.18285797270766799;0.15814370979599021 0.35559859268395494 -0.23145474653999309 0.017261916584922241 0.10144601762081457 -0.26791659175235932 0.10751315415667738 -0.68416360519875608 0.34568128331088072 -0.082142630819551768 -0.061995085607817177 -0.24876174266104042 0.3429752138225397 -0.0039590335073454207 0.47661605006427371 0.27454274949227708 -0.50373674868880536 -0.24706297988650638 -0.011280578126767962 -0.05568618598073008 -0.029754203617934856 0.019062128752245149 -0.3023000973709557 -0.19562676600465254 0.18004356248778805 0.35152898658123549 -0.22992956022792541 -0.26039590024834308 -0.30988261091745745 -0.29209126708187721 -0.19738546460997813 0.0070383461960051132 -0.12394619428508283 0.18606267512198299 0.60118935259723794 0.22462856283808999 0.85067514277494316 0.11729468877577109 -0.012947414182785244 0.020316661972751497 0.054517757930343629 -0.26677368988088646 -0.65142222545524264 -0.17865796024608221 0.41793733644196362 0.26124557043224605 -0.21358979867699815 0.17424071692705778 -0.066547957401707603 0.16498588746852244 0.030673619230144274 0.30028864936850935 -0.085666275450889923 0.028388991980300808 0.068476626600254248 -0.077215164152494936 -0.73104157115216117 -0.53877820642473662 -0.18180306080630684 0.27755507383665884 -0.32267903477132703 0.034622302484468057 0.089189725757916283 -0.070977995335816391;0.17134093565655797 0.26906601849414857 0.075950552480251607 0.020543172305931449 -0.051841551027667548 0.025017821636777019 0.0050914778269923388 0.2339097404926872 0.06214407971832403 0.21820604259872584 -0.10524388085550362 0.063653128606114037 0.049753979431348676 -0.052859650674039325 0.063660952804275722 -0.086903604218233746 -0.43446025953738121 0.20635184800129994 0.047660879119257343 -0.15484757910839567 0.14305955759523592 -0.13068031921907358 0.12813993980258923 0.098391421804289184 -0.24140089646591206 0.063725969389641299 -0.096226010919138599 -0.062803205819943683 -0.081683329919986211 0.026566961405518768 -0.054659209112412115 -0.025860050496579016 -0.16158056528963238 0.025386217270191507 -0.11018137205207544 -0.061403083261278406 0.10844966049934286 -0.011373778771379874 -0.080635889514845918 -0.14175984267979044 -0.13536215157506187 0.073619372859778709 -0.23632064315461612 0.15784932625594544 -0.080775719694236456 0.092533553410366939 -0.30882894016807283 -0.081931718210280308 0.23298997127153578 -0.020768061107001166 -0.019091159527576392 -0.098082800409481669 0.16417555000477893 0.086283937907330327 -0.003465284139173767 0.21129833000065748 0.015869792833100641 0.26451646839275766 -0.032556685242663294 -0.053497166594854907 -0.27300913875257143 0.23907604961529652 -0.034379697241044178 -0.037380663457898776;0.33007146171865603 0.21741618360896212 0.3535110177338972 0.09891837413923743 0.040827621826666757 -0.31862629145809823 -0.2300845186288111 0.22702496905774203 -0.23826821646079779 -0.12486895976931631 -0.31548210294687723 0.30707954271361365 -0.2595798643500829 -0.040394501577168986 -0.27393626962830653 -0.21686678975845078 0.18463054873079349 0.076570132566390448 0.19656065617674556 -0.058727878503810588 0.19408667025923707 -0.032266457263180698 0.081484914186271545 -0.13051400552476478 0.21747492679443489 0.085148311877347213 0.15402687313079605 0.30364940141193519 0.10248987637238072 0.30449342325765338 -0.26752873789047438 -0.090693443367627358 -0.1280188080984794 -0.27588161095293057 -0.10836352830440137 0.083332876994915761 0.078795680971968263 0.073162832811736786 -0.2143849323530507 0.075341049357480455 -0.28992979109638345 0.19479687137235935 -0.063459824673482226 0.21583533978495287 -0.25322958824516917 -0.22424197046877384 -0.034519491024213936 0.12946417116186551 -0.14275304812683137 0.14673060348357184 -0.19684933397260362 0.0038169262070075574 -0.14804455814818082 0.19843459044158465 0.14331341863101285 0.11859670633481539 0.03909547187409692 -0.25389094384385263 -0.16564410822880379 0.012961553798813082 0.052793440887923294 -0.30178525302344428 0.068797395826456276 0.26630695940630267;-0.25764354248289562 -0.22843231547696935 0.33369340739781062 0.11649670433177865 -0.3615426520504525 -0.061030416080925305 0.066801230664251782 0.062102742990858419 0.14551424739385235 -0.11237752287071415 0.53537014619970014 0.35231966378438195 0.13042769153051448 0.23592082160255309 0.20241380740607262 0.28890674610508976 -0.022265286995716966 -0.018911665604401544 0.47549524065565568 0.0011882620485463421 -0.48465972638455018 0.34322750358016274 0.51978915692685579 0.019102794135250081 0.25578242864508471 0.23282800268715539 -0.50219372078672009 0.4030318868634038 -0.3347011079619388 0.38869417018059554 0.43911990050408461 0.366302817600616 -0.2382598154839099 -0.22460129025206629 1.1577406383726399 0.28812381360131722 0.88240768858057261 -1.1035071400077552 -0.12221329022013293 -0.47782737372918627 0.064764621804241723 0.27371232831057762 0.50312368875594737 -0.19208699639142351 0.087382693599541358 0.15611144055621295 0.063047983456550841 -0.3341205841651167 -0.0072993722006890844 0.17443667170493257 -0.050265925537975431 -0.14244757038804154 0.041060153087670921 0.0082365814327502607 -0.073077683461599055 -0.1794553036592533 0.40392589726740513 0.36945726949636265 0.060981760149788046 -0.30025283827556148 -0.070954742141380991 0.26595775279167866 -0.096938045488953697 -0.16626037898590523;-0.084051259358330244 -0.095520315312869419 0.30450683699199543 -0.22379156766900332 0.47451508029243095 0.00011403653149507228 0.34338013114105742 0.28613265233750684 0.088294604569359628 -0.09756271472959771 0.45556409359632738 -0.40821239660577796 0.049790257553132239 0.32574759710592965 0.1630410355400842 0.43146163976610508 -0.017639427695429404 0.12939442257573194 0.29263837476369292 -0.39155305236555854 0.14117990856965434 0.063489265828349559 0.19109923973803475 -0.042471766608567607 0.20495320596453651 -0.29276450837928303 0.38809213448948165 0.28217167972344814 0.51524017119451737 -0.081591383154980254 0.021355171192085288 0.117629448805483 -0.0017563568646694204 -0.13798799352661825 -0.2349975132833117 -0.015395898615276741 0.064636511133183638 0.1785097959182598 0.012178648413021947 -0.17798439983750586 0.048641286837342236 -0.24401140638894475 0.35021183076741319 0.36515709856328932 0.56539982234855268 -0.21210978023018115 -0.17578411605888333 -0.39966607162893431 0.28630052327886196 -0.48093156798926806 -0.24937801416613822 -0.086371726175919053 0.38051235948252138 -0.15204350954289816 -0.3375467107661988 0.18319578139832429 0.10586477227766795 -0.15502334578278718 0.64916381290922531 0.32526730171769114 -0.17149365873401351 -0.24343036217455241 0.0069796631467366659 -0.12110825779615622;0.16065983012264148 0.354275008664237 -0.074554138851157095 0.044416698392879622 0.51889587977147533 -0.040990112596514916 -0.091754959876875139 0.031570374194862118 -0.11968314686704205 0.017936199568605038 -0.26270368234312003 0.12041942900360279 -0.23900963525386304 0.5374143181746841 -0.15664821211313262 -0.005869796593684494 -0.21804810858321805 0.081328108734290874 -0.38218180260709533 -0.29060588562994039 0.17089803675440701 -0.010779144349053764 0.084292068486566257 0.042639923752444554 -0.005927073055475276 -0.043249709268901891 0.1230290913869584 0.079596510533947021 -0.08430123287210281 -0.067379499032007698 0.63114987853529458 0.27163638429107256 -0.49502911135961197 -0.12334503609156595 -0.018637764073112302 -0.031573097848506149 0.16762992996601259 -0.029266094657528746 