function Y = neural_net_2D(X)
% ===== NEURAL NETWORK CONSTANTS =====

% Input 1
x1_step1.xoffset = [8.86613183537222e-07;2.46305173000616e-05;-0.999582126976;-1.97255616814;-0.999707561314];
x1_step1.gain = [2.0000347693905;2.00007695487936;1.00038574638289;0.512948539128184;1.00056195188006];
x1_step1.ymin = -1;

% Layer 1
b1 = [-3.1928011815410473;3.259674935634302;-2.908799478103588;2.8926090975179433;-2.778002343280856;-2.9157123458094611;2.6721790983218181;-2.3478418557524123;2.1609939333221191;-2.291383015097582;-2.4025016585158392;2.2465865942196008;-1.6883921641855639;-1.962911612059677;1.299234451119557;-1.4599231692729187;1.7125307625177133;-1.2098955621544516;1.0398065505774767;-1.4887614476841062;0.96301642437162704;0.94262906998211893;-0.45758190862842879;0.31136085955561482;0.75118922951393274;0.47708994803258359;0.43459861094620422;-0.053672765420503296;-0.53017405519370142;-0.26976197431900706;-0.32769208424892649;-0.0066553194063767194;-0.018053769558782989;-0.24813829503149815;-0.1257594272340013;0.030340026299215554;-0.24611819797482445;0.31707864700486915;0.68034280644581036;0.31830951363740784;-0.8633303127169436;-0.74144383433715699;-0.87558339633747451;0.93720796373781912;-1.4989980668322334;1.2486304558109049;-1.566442113024173;1.8896906771587789;1.5103461907694558;-1.8686671672498951;-1.9517274609163957;-1.9891152021109455;-2.1829135710201513;-2.5372189611731013;-2.2446759273965879;2.4595724052253338;2.5855155356014476;-2.6442439507562043;-2.3055985243284494;2.9872276773738005;3.2970672935672702;3.3114149859770858;2.5420402050891093;3.2644379782724493];
IW1_1 = [1.3179570641588483 -1.7423883667616287 -1.0549540282635026 -1.7462688282688339 0.37267438966235733;-0.36040398724050005 1.8366286493948631 -0.84688366204194543 -1.4973091032527028 1.5080579555051294;1.3469605265308109 -1.6499988403683006 -1.5267389301911922 -1.3506557268422268 0.20621046832498477;-0.51487771101396074 -1.4910876361791325 -0.42124451411333363 0.66613291806449815 1.7031021817993643;1.1647810599783819 0.76163802988263096 -1.6704745098817215 -1.6117615976277575 -0.82418927267808262;0.95590395584180077 -0.024423369693587323 -1.9060659517687879 -1.7747069907861825 -0.057502589198186682;-1.558055553111894 0.057848186823720935 -1.174962785699488 -1.6498754024934741 0.6358377559274645;1.3952986178422946 -0.10192725444632464 2.1067512578395555 1.0471492052397915 -1.1453768474161814;-1.6377256141007213 -1.4317111870746964 -0.63234390213662539 0.030837076981122324 1.1553058257552837;0.80253905468694697 -1.358192012893952 0.6408028819982079 0.45965657237831131 -2.0025922911570606;1.5717495285899985 -1.5321949231205416 -0.61581623855624323 0.988165687771693 -0.1561394613162907;-0.69408200556223176 1.2283519566204513 1.4683429552389784 1.1799894908777175 1.2947433865589697;0.63798709463189596 -2.0976472560988206 1.3191508516251458 -0.32592661416510077 0.68884580574826682;0.51165548825439378 -1.6446907196242067 1.3581367948123027 -1.3212034332455187 -0.2328419842935584;-0.79511433199647941 0.77039491313141173 0.8372924006066359 -2.3558358125876206 0.59029412307959206;1.3438687252017789 -1.0553221937811632 0.80922518447188485 1.0548406878184153 -1.9001636062048235;-1.0655227295768628 -1.3442031230301155 -0.20106373181969325 0.64308899424630428 -1.3434982575811472;0.44371216294003996 0.57311156043848488 -0.35528037967539733 -1.7949001783685723 -1.1824129256962954;-1.0593979577055679 1.2087664258774609 -1.2527622224544386 -0.46161560385934469 1.282763147324633;0.023334089485794199 0.87750198191279338 -1.311595144074778 -0.014314399994417505 -1.5327519749878851;-0.87705885026093144 -0.72345474284565192 1.6425743215076094 1.4068564832932093 0.30167069517909834;-0.94332446093002942 -0.40026760309944653 -0.9760993626900204 -1.0275669742494613 -1.0435875294508361;0.056281969915726669 -0.20802245083800003 2.9061811742435397 -0.11651263682067776 0.30936216279928896;-1.0907111679175174 0.35665447503914921 0.13790129597689849 -1.187834078975089 0.019393562554762888;-1.0868944811891736 0.72161219513527486 1.1040380134931846 1.1915372440743226 0.75249533045784123;-1.3101253980071632 1.4595157095257842 -0.18073040216769784 -0.42105031824959716 -0.73219117369542375;-0.49991323270222332 -0.92533978510073245 -0.68999930757662753 -1.0442455574135368 1.8449283679156956;1.1534942878299668 -0.9635568797924644 0.54165836130246758 -1.6744114050379681 0.86612611276622831;0.091853858221377149 -0.2157539542458547 -0.16385711681678014 -2.8535882267237969 -1.6071734333588199;0.75687804935993264 0.86949853175220349 -0.094194617991047183 1.8498422482629813 -0.45602987910424658;1.3664917756142951 -0.68212735812011749 1.1763267387206284 -0.7576444560547102 1.2022889842731246;-0.35853821872565672 0.94425574483491659 0.78525039817660613 1.8133900013291069 -0.95190912064127187;-0.95784185263801169 -0.78321254891830572 -0.73943383791122119 -0.50093538391986048 0.74373768567771903;-0.01286581484058197 -0.84595472693415741 -0.013706837626013687 2.2847583432776171 -1.4094552823942592;-0.59299974372819175 1.582285953520465 1.2413410788927546 -0.58523895407794102 1.1184893127533182;1.0053515719680415 0.9416905187646788 -0.71489005951357265 -1.4517348370425713 0.23869158210787753;-1.2617398765275623 1.0708389367838713 1.1621706836200834 0.9821393638669742 1.2403668769731884;1.1479681790644392 0.23077326313009972 1.3293250452018954 0.47365048848854735 1.4407147429382574;0.57493968868170764 -0.94491299538717533 0.18751896207682531 2.1008875861455492 -1.4675182344042597;0.92432391094574151 0.83862659016319263 0.22948084127019494 -1.0784293599154449 -1.4492779229503834;-0.5726519864093248 1.061630233366347 1.4129068909229996 1.3126308791343244 1.1274576804313674;-1.1978686172499142 -1.3428534786218653 1.2830625819557229 -0.59217075797713148 -0.096133975036113539;-1.0488702590025818 -1.3894048565222421 0.51312561740688234 1.5277214713223684 -0.85931215759347823;0.046788567854951668 -0.6476925314159675 -0.2791586788222446 1.7439942187408863 -2.1238362867811822;-1.1857041398377786 0.89699417061103714 -0.16118174422154402 0.79825763839233865 -1.084281199275809;0.041275242121001358 0.32307193580838717 -0.82901386556896117 -1.5071254933978635 -1.8125317839342592;-0.85695767259810263 1.3996706347595314 -0.17952307444481144 -1.3729345762268474 1.2953528854613239;0.57830148750114418 -1.3310500751908696 -1.2344734915748512 -1.337470628722206 -1.1968790880918441;1.6376642456168946 0.26802014464122137 -1.6723676416513471 0.28233531910872511 0.65710111471336607;-1.6320546729268137 -0.52637801482333324 0.38242960317242097 -1.4244112542525587 1.148621322505716;-0.69962591983711475 -1.5426707608460137 0.51747070268548656 1.9797021541816644 -0.93869136544610887;-0.15631123077509895 1.3026491974397072 -1.0092653022720255 1.4656257138393607 0.6503068232643181;-2.2437328126134739 0.66026621156345289 0.48328558220113271 -0.74441132810386124 -0.6537664308609108;-2.2316563325670566 -0.92531814862670392 0.11340482461075109 -0.10212043598593624 -1.0119827795961618;-1.5272594318638868 -1.2376072054516158 1.2535857963531087 -1.7882732396845771 0.62461323545692382;2.1791881106505846 -1.0222136929655559 0.51103670148435909 -0.6313901421394198 -0.54496027779052325;1.0539525712765752 -1.8519900479983118 -0.59480143486749959 -0.17248540843294927 -1.465122238379958;-0.83107253364517208 0.65588604085834723 -1.478351616188414 -1.0330707159059258 1.8237321884736204;-0.6405735240112217 -1.0473294601430336 -1.852318624569939 1.1826614186167692 0.28352637002436337;0.44517686012323521 1.5553075804932979 0.65595319186564982 2.3036326506558544 0.20921298391877144;1.6540530263479245 -1.1874518588313179 1.0358550041591492 0.46987248358964367 -1.0957121796370095;1.375019943550555 -0.38677634691053281 -1.1813338097048616 -1.3280965042371766 -1.5729939947337868;0.92001875269993161 -1.3405412213682035 -0.37357117638178461 1.750839639386206 1.2815280762625505;0.94380937780706675 -1.8968615726556548 -0.5674714201857447 -1.5204504611372593 -1.0800129826550724];

% Layer 2
b2 = [-1.6415991690055427;-1.4289236694099015;-1.4927296678641917;1.3751204514665432;1.3882525770245799;1.3361266944263832;-1.0957860854119694;1.223875957425971;1.2316186018309643;-1.0996191134626179;1.1520143013627824;-1.0084322087531725;0.91171341655025195;0.82614895006861411;-0.91835575632211597;-1.050444987649747;-0.78862892066160917;-0.77794938350644138;0.72803818156255928;0.7383376299515424;0.61588177597152394;-0.43947378220122801;0.51942875684455903;-0.31501985761128387;0.46264983290734119;-0.27376793194121779;-0.49966547556603552;-0.31161929314083847;0.26181038191200473;0.14829224876433919;0.041761724684952137;0.1585503241069198;-0.16010928583617348;0.092203645516609853;-0.039562518519477487;0.08167177630072521;0.017913281286239948;0.35522242246701974;-0.27982236804095967;-0.36702231031455212;0.31132678878544562;-0.51340389733636338;-0.65170616622455424;0.5370546435113861;0.62522374456204555;0.692519198001601;0.7924541101069128;-0.86879044007328743;0.80927488520209223;0.90684864760644168;-0.98117596074980107;-1.1621457987956021;-1.0144346354168772;-1.2156707079465319;1.1486672258931112;-1.193331270525076;0.97139134265793503;-1.2482406225502924;1.347403761047141;-1.3694206747347351;1.5195686852303296;1.2330021213980538;1.4981272721129155;-1.4912110346050764];
LW2_1 = [0.032730317250229256 0.16057257562206786 -0.15532182037117739 0.076616776777925985 0.021092402529279998 0.21717795360415626 0.15050041639308445 0.21117606669529021 -0.039645903163091571 -0.084325734851667569 -0.014099329623229042 0.048369608994541999 -0.35462901198513885 0.22817781931665451 -0.19181980416597086 0.055970212565895093 -0.060508560563000219 0.41969867207989503 0.048905221403575366 -0.10170141697246532 -0.2039257050972399 0.087110205034811386 -0.047718080214118642 0.097159944050283192 -0.20023911255357227 -0.027614464245612837 -0.054207381301295959 -0.033049659169912211 0.012480991717937191 0.026500161037913115 0.14630221478367025 0.060568580964042135 0.14010042045089749 -0.10342113896628409 0.018155540788161444 0.3001751521751011 -0.31235382922026761 -0.10675743532608278 -0.044232250101350436 -0.24933034769191059 -0.021421742439419172 0.044752931468470675 -0.14600371742151355 -0.079369573131937848 -0.054236415336055922 -0.0892874850601168 -0.033836570637890112 -0.12564977977291039 -0.083488661294901234 -0.12003964987221705 0.29456879065186131 -0.076343287693115464 -0.2664733090533436 0.1343270202510668 -0.019938884991155405 -0.25982705914761112 0.21684298315117667 -0.029138340860697449 0.093992512520853444 0.36996750667539352 0.12441171654079886 -0.044753880982793717 0.11601171250713205 -0.36612208849737649;-0.0268331607674482 -0.028776858102748184 0.17073079726559967 -0.0059930034759917939 -0.23848281423775836 0.34572923071086326 -0.069789537222180939 0.037069754885842687 -0.13545191596785389 -0.23206946573867626 -0.16240234841369869 0.26514117118396813 -0.24591244081980163 0.02168370500110189 -0.10464249224458737 -0.098794154481539526 -0.10452428992466962 -0.11332777603709977 -0.250310665573653 -0.1039148799204668 0.018996233976378774 0.27446509401312241 0.029363746703946696 0.17696688905272259 -0.04091227244898351 0.045784601044065204 -0.21995487828550106 0.19897822676542321 -0.16195993885419829 0.4001328217974589 -0.14746575845352308 -0.14738504621257642 0.14436271148801152 -0.15689123766668492 0.095066261240684735 0.27262331574126536 -0.22560953326543084 -0.13007156161701441 -0.12588775809253389 -0.14579405881247642 -0.10365671093503168 0.07327682011685395 0.2464595364331128 0.51304139085509382 0.058223495665968995 0.26066066962181983 -0.060358834286743573 -0.20544742201437699 -0.13965979790025357 -0.23960738234005774 0.099918419067202058 -0.026244302070018835 -0.010685521281196047 0.057700201687401524 -0.37669043617920228 -0.15163759426523393 -0.33079987793851728 -0.049928569630609453 0.061470214202162796 -0.013214704123534484 -0.26339345416376891 -0.22622022440936487 -0.30818558437023552 -0.041044025426244642;0.37432615668774538 -0.54556403953778398 -0.14570352415314425 -0.31820623751663574 -0.18585264380897987 0.29367681509851434 -0.056324246183803522 -0.029501959881570474 -0.10731442577941942 0.11059213649961626 0.31211149829917384 -0.18782041024920443 0.5276984606393087 -0.49314980525008933 -0.14353444916916439 -0.20971187726226198 0.12210642480989935 0.035914416202671592 -0.36441424175996689 -0.16664162794442594 0.013566536378830811 0.16708341465134721 0.02451052004047025 -0.21201663503073592 -0.11346718169312472 -0.03332741205236648 0.10556784836758952 0.031835013140345272 -0.13800992057046904 0.042809628184772172 -0.055579693836187861 0.0074343145709430836 0.39141502829707731 0.098516047806671822 0.23808328998819625 -0.032659034258915351 -0.011770511674018522 -0.36427255133430814 -0.040427833981710917 -0.24731669056646369 -0.19669097882224409 0.32674218791599685 0.19379906352386631 -0.15499638371994987 -0.35139468456009254 -0.14786193126694894 0.012515686468793056 -0.11950738834455189 0.13249764960842889 -0.35601293496007319 -0.0027236423035912638 -0.078020021625972616 -0.13633634672236125 0.0096016096126378039 -0.014987493866290068 0.10200253329452859 -0.35478054751177396 0.24726116338364698 0.28509337959813935 -0.29190393949762949 0.15602331034144906 0.3356725874472965 -0.16744995508649721 -0.070296759958560898;-0.14729769440538565 0.34752407389485074 -0.29959764047158433 -0.24131698082300551 0.010065886538544155 -0.31874677088567116 0.099437077132522866 -0.34986544471652586 0.19223279941319049 0.042363342670958128 -0.023021664100281107 -0.015657915806538539 -0.21191208396462588 0.32292051487416279 0.27680187930033728 -0.12420402215106437 0.23791268243433922 -0.033701364328299371 -0.0071257469972684107 0.3114137175600889 -0.079914173922912363 0.18015571308099612 0.083324019090986995 -0.19661828694697978 0.15333005794473578 0.2055493198154684 0.32137269979814148 -0.17748024074118463 -0.20006717159003298 -0.19829730699145959 0.15006078562228453 -0.12345982291469559 -0.13603463121621415 0.014586284620587362 -0.073316020680881541 0.31859638662623491 0.27595058208944501 -0.098685111175908488 0.082832734639607289 0.20562645972442578 0.031637637953967609 -0.18512368867899937 -0.12147236715254138 0.0064603317960679613 -0.090141085131351065 -0.090042195967625471 -0.27194833093110149 -0.28891705652231425 0.29325649327393261 0.04134183932759862 0.04068911662342465 -0.21576256963409557 -0.073638693819478074 0.11135304086012969 0.25127074824550316 0.1523550966733089 0.19956309224683019 0.093815616854495701 0.0095299756666215284 0.24947997832704269 0.025838291636391262 -0.2407266613464496 -0.078428223338043793 0.1209422314124973;-0.052210528732642605 -0.031713626774418711 0.089733656314935781 0.14935928378393468 0.082342748399338334 0.42881600653270746 0.23486323118608679 0.025903474113354683 0.083107067027330089 -0.27081438824512982 0.15809236399390766 -0.032042136787078644 -0.033325649925146091 0.1882161000759382 -0.13583087685258502 0.055279053768130144 -0.10461781166302958 0.055190488911584852 -0.033261118583019035 0.14763328976849135 -0.22211593156137535 0.3200715512233861 -0.034922412757643587 0.079199847166682769 0.088829867703888454 0.19889632961991219 0.099383835055350353 0.014615250277609113 0.080162671373079308 0.32748802140836925 0.021802484205304871 -0.066799512155695059 0.19589288008343536 -0.004568693005443018 0.24162085002805372 0.14382412354139987 0.0037890852949952329 -0.10466975632446843 -0.088702996124484318 -0.24059918785885204 -0.087468239666501774 -0.15734619507929318 0.080878232720503276 0.034323648420815804 0.35090989727715233 -0.037533770089455472 -0.039359622059219772 0.2489599785472808 -0.087577926571918374 -0.18655855857004577 0.24850398622486117 0.0035985913446634058 0.17191735977202116 -0.18249354136339069 0.052770787483600173 0.23845997609362557 0.029412976519604568 0.15308026478794365 0.303515579689907 -0.20014368529852578 -0.041436445831039101 -0.052733015956473318 -0.23929042038542578 0.30511262785282078;-0.21400900522899971 0.024070762372631838 0.16097191020665214 -0.063138431659841829 -0.19881656351262705 -0.34917750435265626 -0.14193062976314366 0.1667289573761937 0.073711123824967986 -0.23269530102977623 -0.0024746790582549612 0.35867737896408575 -0.06114004845579199 -0.20326314076468691 -0.0098286838685671622 0.017829040263918003 0.15246405909199015 0.20202118507982178 0.23359196045311467 0.12337765212775775 -0.077938840435976334 0.16774860514898335 0.29212857436571049 -0.050134641234951892 -0.20024391353664647 0.096389365223589749 0.034323028362336416 0.14569061201931738 0.30089055734324316 0.08074143856804783 -0.32745528532838403 -0.1462568862882371 0.29886545783034435 -0.052035833187631962 0.025417569314347816 0.050507501336311933 0.28396860726317075 -0.27759602078590007 0.33598650213868292 0.19221954441442851 -0.10527670035168289 -0.11524508010884803 -0.13150553181625052 -0.1652820590201885 -0.030915894205266067 -0.15788526396519192 -0.23805826572529845 0.10634675507864466 -0.0063818449075964392 -0.077855620681858445 0.32589651042509038 0.079776466669548796 0.16294230505361074 -0.16756455061046602 0.21548114542741256 0.1689336354287746 0.32622744676919174 -0.090749874240304659 -0.19353899644249531 0.13085801106910955 0.0024913308384618823 0.36143236674297102 -0.067542690385484119 0.10575005029463337;-0.10787763824721798 0.041927486618597305 0.065643810288580573 0.19986262754843337 -0.24909282788578185 -0.28161054552235842 0.093352277849228074 -0.13532363357545052 0.16756124701366637 0.050276665280972348 -0.025476565977713878 0.039213010983157839 -0.21339657366648573 -0.49118266397659188 -0.1796024958836209 -0.089340967628627019 0.30832176907905751 -0.024270776808762856 0.12570224364779539 -0.22784956772191686 -0.24522937611122736 0.31729763514712472 0.093485459889849812 -0.065830139251992173 0.30465535726146536 0.34166208512233615 0.057712964079172507 0.10669849585322119 -0.068551065661328417 0.42353840736791487 0.040746108793591952 0.18535760486777997 0.12203974844850671 -0.021672259039049048 0.031154747504223961 0.095462604621992381 0.070596201626779681 0.18389898907368593 -0.14352418889233595 0.18215269648683882 0.020188420115515963 -0.24946836388823304 -0.15651650864730826 0.097872376972391845 -0.44742549985137109 -0.034294494736631889 0.058612772096896665 -0.21263014695578267 0.019975995196996017 0.0051168060654554178 0.16665597449655259 -0.46839779032514239 0.16126275613001187 -0.098482578374719146 -0.088488613761351087 0.45222132856930047 -0.19063099381020349 0.0010231306265505577 -0.33836713710201743 0.41495791412197564 0.35240023334250992 -0.059306178313895383 0.38888284160418091 -0.10159496838766338;-0.02320307545646429 -0.033461115441832265 -0.012918129740220654 0.016433814027040979 -0.43833073136288514 -0.0014303479890520935 -0.1354511189112321 0.045274812977010775 0.5120287294354926 -0.20239231011345776 -0.13966247106406457 0.030239136556450007 -0.47988414778054522 0.11823881958198591 -0.089264659919363595 0.24764136331686362 -0.0091161602623308895 0.027049560296750881 0.24024194142953573 0.021377185813245998 0.078227811317880522 -0.053301986834790205 -0.11817439932674095 0.35417309727718399 -0.13744846834171076 0.40341379405805117 -0.22593547405523207 0.12942115293727322 0.026228437042932977 0.21235890380661634 -0.091418242576103759 0.20249117008394052 0.40487033546275208 -0.010851456404604233 -0.1501125437615628 -0.18842649326502944 0.15097974957176749 -0.015837734822505584 0.16309365067684639 0.029934163468270297 0.11296986451221543 -0.17112325167359591 0.064765981856797439 -0.11094400563862525 -0.094930425802370141 0.016820561392740237 0.18547570178318487 -0.018107513510005505 -0.20746130718644831 0.27860270597154546 -0.3125282114046829 0.056061139643622818 -0.22506078351428804 -0.15538658614335177 -0.13006900059233736 -0.35767159082702799 0.13513828879228965 0.29258051557819614 -0.057953291550748041 -0.1162127647128238 -0.21087308072189306 0.013602874601042404 -0.25269474006820097 0.26097710612871156;-0.27779957096507857 -0.09062206594604226 0.024541340914106737 0.034178321087966881 0.16876504281336743 0.17086232637359541 0.098493543227581248 -0.25766436388377334 -0.011646884555280842 -0.12945521184918321 -0.33222935338141102 0.071244480905651095 0.024590127492204471 -0.024105006127375799 -0.19665523343643754 -0.31646810095233469 0.13693082614760349 -0.062926527632839957 0.3148405947882677 -0.27348509354337447 0.20882908510723494 0.15419339047082203 -0.108728213208324 -0.011069090351353054 -0.16995474085613499 -0.15313708900036871 -0.079709169476466737 -0.13219507962019814 -0.0098150579734637648 0.036001503668822821 -0.19346438664685159 0.014937409914487674 -0.10590079449061801 -0.14964739857716225 -0.14562415987177846 0.27921504659007029 -0.098313387014294318 0.21972809183622904 -0.12658912051830545 0.00037635165437178742 -0.26056057019653683 0.21440673430651749 -0.05418851150679637 0.38515167402925077 0.050765434368851128 0.26672966211978039 -0.35671556902175927 0.16306328748913076 -0.16906666349039459 -0.25098487218006421 -0.11124078525362519 -0.22047089903541184 -0.31774259530214344 -0.11521090594727221 -0.15125417301676497 0.25609518226527883 -0.096020828027897659 -0.12252153251129465 -0.022967058730898493 -0.16607967787983619 0.22269082646868879 -0.1887460096712959 0.27595916064130138 0.40215253523339956;0.14951357521539979 -0.33972340664010747 0.019590075960622452 -0.16376701442638145 -0.14280748963545553 0.089195536377987023 0.1411558811754389 0.2218864492701525 -0.20031633306544222 -0.11149244088446972 -0.27477460144777432 0.13479826686581101 0.026733549920753504 0.27668545974609565 -0.11176952522195613 0.043879577969812206 -0.24366246101035843 0.19643729123769554 0.097102768988729549 0.13339110980306365 -0.27974915518536336 -0.21645309381691166 0.2618836589211625 -0.19088669023702243 0.083214304031683409 -0.09130339618517587 0.1955568271996902 -0.13857689962876943 -0.16224877921548561 0.26915566417807923 0.0045997244328959469 -0.15473273638395849 0.089061170097923581 -0.22786348724355307 0.21062290398364464 0.008773136566472748 -0.33206374097387442 -0.32351124889682165 -0.20442799950023216 -0.28861934348284962 0.23991192170166578 0.015325153415070099 -0.024546648952057926 0.036685635521098166 0.12926466029328992 -0.086852668785843676 0.21251069937022202 -0.10209480410406217 -0.27570138879011641 0.019005474215286335 0.20391039388409091 0.29694945248086896 -0.13408137307762638 0.059584953072336889 0.24579174656546179 -0.30190574448827251 -0.09155881365581528 0.21292919340231906 -0.1530652681965993 -0.071604936937716385 0.1037254487201334 0.09180714571652035 -0.15127298742152148 -0.33682447852282149;-0.20792521775095457 -0.20039667383016238 0.049618266061468616 0.0093493550152605152 -0.10992887103868033 -0.43699210079164269 -0.054580890412348579 0.24492217339513414 0.07553718746076013 0.1022092174965009 -0.020448649999999662 0.15274247957321879 0.23015693154566455 0.11748435214686226 -0.0082283262619071932 -0.10015598624457439 -0.10069283665317548 0.016478605359476359 0.018992200595183792 -0.013499635756982542 -0.12743285539857646 -0.12238586777055595 -0.074529519410172898 0.242863151669759 0.19700995271176275 -0.003162387374850628 0.048437852572079658 0.13400054778619289 0.091903880800598844 -0.25289435856999171 -0.11053979175040597 -0.05264960064900788 -0.036820164293881026 -0.052889712503695077 0.23147663111111941 0.064421170027906136 0.15646981859393122 0.1681053851181121 -0.24449609913568043 -0.055641610170465226 0.20754127075820325 -0.14790939996741032 0.11980080869433796 0.32660158544073653 -0.11588799436709982 0.020154352576406204 0.085923591959997811 -0.10681291871017436 -0.048951480190474253 0.18745682079901424 0.1120027006923688 0.18806400139553747 -0.22007811823637893 -0.060942550203844703 -0.10331408771657945 0.017338042564989341 -0.11658718068550868 0.24299172360376406 -0.24390903872568651 0.19495461617150855 0.059237685386338584 0.18160787502144937 0.044342794522141744 0.089250801765088067;0.13781018715158735 -0.032085207584535709 0.050978440187956019 0.18490616034596771 -0.1886928844747803 -0.25292802716381996 -0.15828900907684709 -0.01259606220397428 -0.058454826083814172 -0.15258593902883802 -0.010572696904970294 -0.047348279257298696 -0.053315485281490424 0.35703677318049848 -0.14484111726245397 -0.044057442007083128 -0.32627354887016508 -0.10818118754283758 -0.086869148355538897 0.28426589062072971 -0.079846242868043996 0.057944101101146499 -0.095771286609465489 -0.36473008868319273 0.232311448250242 0.11555161604275414 -0.27521452570791749 -0.048759157322716136 -0.096975817017275021 -0.090710724892550734 0.28634637862167805 -0.070015480166946129 -0.42822530743057208 0.10970340629551587 -0.095898518570943281 0.075791368760752195 -0.11497888113831461 -0.20177931439647956 0.017371387865310183 -0.037333224958558162 0.22727057696698053 -0.056869183132827378 -0.12102777470025511 0.044237115603704615 0.25304840552269886 -0.089289580559223675 0.0064447287786690817 -0.13625259223767869 0.27071310873300025 -0.10074069580458792 0.13201227111556235 0.11178158175841006 0.059966474065281127 -0.15616032517893619 0.063396246305840565 0.073295828387102316 0.30280400811311209 -0.12165308656912673 -0.4258894855503555 -0.13647542041256233 -0.18754343751386224 -0.1994362322950575 0.13001362312162759 0.080401572976393443;0.074491180635338342 0.23937238486279172 0.1334941382383216 -0.073525347967756643 -0.13138392098022703 -0.024309109936311073 -0.048164477419459346 -0.34585538194093113 0.041081076937779348 0.09373075290050728 -0.19200078575185359 -0.1861522800722164 0.14414625665328989 0.16116536149736521 -0.0046357264060224541 -0.01704648895731093 0.18411372203764764 0.227942181891225 -0.19081619644387496 -0.231270069733686 0.060499921697430729 -0.17496245469702645 -0.04559914776137089 0.071553097116456771 -0.088206330253142506 -0.031122629185810345 -0.012505078505323449 -0.061329942304344687 -0.16068219628090685 -0.23937298976103702 0.25434419667131775 -0.05332007750781257 0.030362559553562606 0.28829022825994022 0.14363724321132701 -0.21535297389688587 -0.35216985915688237 0.12742715752048014 0.099112599226393247 0.13693267377973786 -0.10537694143889469 -0.098489465240918617 0.21802601714555866 0.013941320974339682 -0.078104216685331893 0.0082486738729977867 -0.1413909609185689 0.33785794003955055 0.0058288298826839708 -0.27030286239534557 0.14763726848497252 -0.0006588539099931114 0.049272824750358914 0.011138739690075689 -0.050700216642630594 -0.099329590740639864 0.13756253341853855 0.089668961463624727 -0.046266252258407761 0.37825082311764757 0.00029936069743158095 -0.20821979378253944 -0.08239368261336058 -0.20113981290874572;-0.13025140503507984 -0.021108612779900046 0.10994770620706337 -0.2097869222464159 0.23780777851566645 -0.11882934642856255 0.15464873735701279 0.14671459049661986 -0.23255292926733692 -0.036320762605702904 0.36634113220835335 0.0072050619550658584 0.099265186195936453 0.10615408209092425 0.17642799886916602 0.013535424053693543 0.2894966358281158 -0.15631914688558798 -0.1950840841062747 -0.2390692187711142 -0.054305323293744871 -0.42632483087971917 -0.0045948214376937968 0.18782604516847273 -0.09056935684673946 -0.25252812535954106 0.21277523084651018 0.046636472343474282 -0.56748759514627078 -0.0196596003127039 0.042799938209094314 -0.2678587986141272 0.12255127448009773 -0.12246263074993138 -0.035238474734534446 -0.12131383142145698 0.2624881938290296 -0.14354490055309241 0.050815071352014303 0.028870987070588092 -0.30137599584436181 0.16337429396098715 0.052366840937150431 -0.078265545230920691 -0.25835589445407914 -0.064475138541542854 0.069175486143171414 0.18399867154728439 0.20093215415523985 0.073084765695549461 -0.026039357331400691 0.23460577159890902 0.16349422446488604 0.035214612724649645 0.10576891733348934 -0.23129165543033847 0.18114574072526907 0.037910885025670318 0.40705502095725438 -0.15532483909447967 -0.17152755929594854 -0.13561512300213391 0.0031361315676211275 -0.029440663790830233;0.12357311554475989 -0.086882311898727416 0.18147376925332784 0.055331497560677796 -0.29254982827136827 -0.083654877093422397 -0.21064707382076273 -0.16939935343271956 -0.29585715408733659 -0.10484662324252012 0.0011537867949350429 -0.13103037611614243 0.19888704822920453 -0.035309930157067591 -0.41211799187862208 0.10546332928440695 -0.15771817715065539 -0.066648330245603279 -0.11318193850372163 0.20693815324289211 0.23443219675946861 -0.065994402484771286 0.09459999098240475 -0.083704864903060852 0.025062416811808898 0.023590658369356681 0.28830661469742813 -0.039900082700420759 -0.28992783301509356 0.24313357794293197 -0.31806129413675588 -0.263179486803367 0.14046824557299945 -0.060194363451508498 0.20709188282903901 -0.15064628384031373 0.060406393848237601 0.19706624086703409 0.27071343098791945 0.2733436325468267 -0.28535775645790384 -0.056953751280689149 -0.092712047418987809 0.030975912707784704 0.059039044802537043 0.38352242038702544 -0.00051338517440100762 0.081127797227174073 -0.24701082721194664 0.032200993649790038 0.32959629835003373 0.14741039194415184 -0.12698662856712298 -0.17942129666632073 -0.016775882074745264 0.083483935849159446 0.20417090151828768 -0.0032289745173982045 0.23244276936572839 -0.1419898326755667 0.0093219263423244443 -0.26749208248447753 0.048708284613077808 0.10872317324106921;0.13027374800171759 -0.085303548604929919 -0.10801986073937472 -0.13456082088939395 0.059023205730324824 -0.034786420075686698 0.13121702414088102 -0.2600546950759865 0.0012655769411684386 0.1899480549040187 -0.30638848930619361 0.025043386400891071 -0.078297776693663501 0.077118445383307227 -0.038220067533256602 -0.064139273631523719 0.36701438234045125 0.031595774776536661 -0.022930509933891081 0.020935042424890193 -0.24913338051932626 -0.24968946670933675 -0.15021085417443084 0.23826586394779078 -0.067509752609084456 0.24368919146670284 -0.18377667685767926 0.19933615949543002 0.14804533656400948 0.14063075827620172 0.081902129561523276 -0.20011467557831555 0.09748309052503569 0.028867702241149974 -0.14479197668155228 -0.062834372099789107 -0.0049243583997176498 -0.10003859765806658 -0.11539438049238268 0.55914724236190727 -0.066570129505134204 -0.033083777450615796 0.034225752754199701 -0.035141370071073305 0.095079256563802533 -0.092628745741867816 0.17343438254233962 0.082063003704106213 -0.038806807417661425 0.16661474133750176 -0.051264063649981574 0.16659396546159561 0.20473121074277456 -0.27209296180978004 -0.035215507867161405 0.42232405370456938 -0.11018700617741621 0.06804826145367722 -0.081935724675987517 -0.19807016880653833 -0.089582055689853793 -0.36388157989373832 -0.0073355459783452518 0.18835443606130503;0.25575111961209096 0.1601362719221012 0.16450990046550479 -0.16612067745311046 -0.24491371573924928 -0.031301836466955613 0.07112337708305265 0.094050112186389243 -0.15558152145436097 0.12541271514131022 0.085665586768475036 -0.17224666261917554 0.15031992062106186 0.25946098188927857 -0.037348297974978815 -0.15258131871674097 0.25200923190064284 -0.014253316648078794 0.26251422000573726 0.20432282248783135 -0.10318283093036928 0.063693456091910114 -0.11245629248761135 -0.33393022143132195 0.039027981898568966 -0.068838199059290492 0.15346498253542748 -0.11685946306311513 -0.13342691898714146 0.21006503041978988 0.31855799688759684 -0.099748402150156026 -0.088698876378726033 0.36560580964178169 0.36919708869372969 0.20291659000822149 -0.0052969598466386797 0.042400952894225942 0.089996421043093605 -0.049077117214476301 0.28548322401183152 -0.19684003075347783 -0.2900455628617174 -0.22292369308409435 -0.22189299291986592 -0.26270696417037243 -0.12039888372450322 -0.19475828876218318 0.21327874238194325 0.087567348465969502 -0.09879012263782011 0.19964606679597022 0.18977247502622485 0.20736809842784007 -0.15044158808101987 0.1532940940920339 -0.37429645009612544 0.077777258188312867 0.099569446107257167 0.31945284048559458 -0.0091289466801144116 -0.072106501414451837 -0.50728276346424606 0.057926466715205273;0.32997729632713418 0.076882610092240303 -0.016443577987581118 0.12050299819863494 0.31917299931998561 0.094883607114171972 -0.33531619134936591 0.21658364208284225 -0.189739021877179 -6.5156335991179822e-05 0.001340524018177563 -0.18550285323591281 -0.14443894379561287 -0.11249307499356248 -0.2255123503385936 0.1617341610062363 -0.15105668071383171 -0.083317209398979478 -0.016319183816009886 0.26089236015518125 -0.25629508958902369 -0.13638004181781813 0.026404748051933328 0.31526528987556829 0.21849904429819375 -0.010313718458465852 0.18973485502395376 0.20931039472338772 -0.21975628742792375 0.18896809030849121 -0.057045703114405884 0.14155974337218558 -0.13726423492747403 -0.062968129118335672 0.0090175770515690014 0.010666915523077048 0.14405552927365076 0.12578286786745879 0.0068653318545921415 0.24037535482675484 0.042140559347599318 0.29254893490308748 0.16839957237863812 0.15036254975766855 0.20735759969908582 0.038057327708041405 0.27886267808513504 -0.094563088837011686 -0.41239754741108298 -0.13110731484282676 -0.062245904429722054 0.012065576426734934 0.25851152035547981 0.07461569259747694 -0.092078913756324821 0.10442239325369299 0.10871550209088698 -0.2856439075076514 0.17148962154730071 0.083363315540487662 -0.34995230650175885 0.030017007179036919 0.064845693756942505 0.038068424358788384;-0.21856601698669145 -0.17369394420752043 -0.16711901785568836 0.016817745694912931 -0.086118270805404504 -0.096437031079664268 -0.026193968320007314 -0.137844737624464 0.064264841013207175 -0.15031256572804108 -0.36195288969143946 -0.10181869895361544 0.15498429109974995 -0.048692978637986356 0.099803483318081462 0.039286186809005801 0.082777726491413059 -0.26610174270682713 0.016209759878696817 0.18817151662099596 0.1167632604394528 0.18129223647883819 -0.015026473301120193 0.24580193479707718 -0.15187240883136877 0.19814690947069064 -0.051420228846630826 -0.25901326920139767 -0.025646491937817869 0.13006741535194408 0.12508625654728789 0.29810337926166464 -0.02634344765702706 0.46221311948874966 0.097913413641748659 0.16065184190164505 -0.076324687390553009 -0.1296295270949423 -0.026034141299089372 0.22440670195316312 -0.039980002618272115 0.13272020816654806 -0.052009998581988057 0.25368838621818185 -0.02096176655338932 0.18000685498562286 -0.129593368744017 -0.3201628986075149 -0.18696087958115223 0.22045681242338663 0.19093947183724364 -0.0073989723339448893 0.19940370034670926 0.20618156221599979 0.14183831238674183 -0.0097925315829679553 0.033846837723153084 -0.04520106599225529 -0.19271069172253202 0.15061745825296133 -0.056993572404944084 0.29503025313501657 0.25415092319276089 0.040202263496370974;-0.37766429242117688 -0.29888132049123733 0.090067895240785623 0.21373655768280467 -0.011672997827100948 -0.24792653422469221 0.13496486655370959 -0.022613750597359795 -0.039568015816386533 0.099101061337867932 -0.22529875401024607 -0.094933741128265192 -0.12926210929006285 0.2227233768391044 0.19932933343603204 0.049396302488614235 0.11400396245185832 0.11864058259412251 -0.014910583043613073 -0.16905799409490449 0.061584150915172872 -0.0026615506128118368 -0.10704301480242202 -0.082634595728034471 0.080438968111477299 0.085384051287041976 0.26992429620906794 -0.10947497121822143 0.045416491777354434 -0.54899458481498464 0.091838711586053501 0.14698918116634815 0.23284348664808219 0.04228891034784496 -0.033862205699360867 0.067564099303503433 -0.084635716600490796 0.19341195668450598 -0.076985785100384105 -0.24501745568081393 0.15004057205897264 0.11254539230036273 -0.080753904683924072 0.02534313246566897 -0.24661956948488681 0.22245001350066609 0.076310637760241024 -0.069139922289256972 0.016735511798706196 -0.12916502403821969 -0.15339152869005443 0.17312025275172069 -0.013750272665180922 -0.26151067383943238 -0.12813408093609926 0.047904680506459449 0.040633301828348116 0.097175899206400754 -0.19898298925356567 -0.17457888171177052 -0.22978811343351874 0.08595975107439327 0.04325989774665974 0.047701932131302742;-0.19100766581038006 0.17970868585886177 -0.055297958784837016 0.10273674655947113 0.19944397126502386 -0.42205106382376856 0.15567925022963064 0.15011778639621984 0.068340383323759787 -0.20134109187331994 -0.24750476338131833 -0.17940196544798576 0.079464089590024878 0.075506371503787514 -0.099204042323050148 -0.1539439620744994 -0.1642242594311594 0.24092165439769947 0.12880338889251566 -0.22976124468995451 0.11483649273595598 0.15677844568365948 -0.12752811773795775 -0.17738657657401363 -0.017315249125646706 -0.36519360835180031 0.18032169305169993 -0.18749482133215661 -0.03469734540574463 -0.011720568379981046 -0.10688581664778919 -0.15451798590619042 0.28469615798525522 0.26936038355139585 -0.10680895050878625 0.092880301429205753 -0.14829642870344156 0.09062658263536931 0.27162346776683277 0.017933778564931849 -0.19817855392569036 0.15945003684658932 -0.11954273218851107 -0.30672945817794034 0.16329351367631006 0.056550562626904076 -0.12229848289805907 -0.22419503599822452 0.28344722196050404 0.24637430035952829 -0.28836292848817885 -0.084632702300203422 0.27816808410009347 0.025719223375071456 0.12903706326005318 0.34974608327001039 -0.1199336973641166 0.075666784837194592 -0.22111973486168893 0.28088765068540139 0.034938151275241344 -0.073403226139519301 0.14995938784271179 0.072606904500632813;0.014945723536079956 -0.02703431773595126 -0.3324077479595664 0.45405454293569458 -0.35773687251329495 -0.12387289635625146 0.22984221067956603 -0.074595408021697937 0.2822136194272658 -0.16721135523114636 -0.26271353029615641 0.086127010294500164 0.21886626514516969 -0.20598441430875181 0.065204817674745563 0.078326150691248639 -0.10840263491226974 0.078437356717098422 -0.31111755768356808 -0.10347868618681091 -0.22627901387822377 -0.1645721424207422 -0.076660891057858643 -0.11309568385548119 -0.060248124842706398 -0.1332499458223784 0.049582444799100504 0.13191169230474267 0.064935530772887912 -0.32535255927028722 0.059643799255625428 0.16489024575519401 -0.068515887610227366 -0.16103878886092077 -0.13993735683578623 0.2285001439510643 -0.1775425547128292 -0.37439993935752602 -0.044977070579811561 -0.069169988422327397 0.28227981221482207 -0.32746885877471266 0.25490601548928821 0.24074198928537027 -0.15855244526735551 -0.15696513788473626 0.019908048511177393 -0.22450167303880392 0.05171676365148227 -0.074419449500520901 -0.0038286708742548592 0.023110217500396348 -0.18956510058374862 -0.4739225042536247 -0.26864771399040049 0.16682742126680036 0.14306624876022608 0.097753545240357689 -0.18649892802199375 0.036130928315098995 0.053867017263271047 0.28330566747614544 0.30401916233630777 -0.3462789939040723;-0.097127048834405705 -0.076816235291629828 0.015717337274515082 0.09590286235673183 0.10747918903588737 0.25631544333296113 0.2934381234330577 -0.11789747446769853 0.21905030520332658 -0.31090806385596276 -0.096096024740203498 -0.26116820001529062 -0.15815442439789396 -0.019504450182296382 -0.064694222100829715 0.036168544451086637 0.061256397380814225 0.02986319444525555 0.33353942031121175 0.13672787333529848 0.035282049128621991 -0.069646346829131761 -0.023991650295149373 0.39843004824537942 0.15372303772460139 0.16713410634302925 0.23320662291828564 -0.024573612051162676 -0.046572468745971207 0.20136220328884713 -0.21380178966404004 -0.044634527210615137 0.063225794669485511 -0.053023339294497936 0.15297320128762218 -0.018523183885683036 -0.16139442162405562 -0.34530130608950715 0.28301907208524946 -0.14057826119028638 -0.39283454013968722 0.14820361690915115 0.13735498489719511 0.31479899766575453 0.098888611059643111 -0.27530197478064583 0.2538218313798799 -0.1081249773179191 -0.061605002762034518 -0.17696981459954489 -0.10947631610510389 -0.086397949518050049 -0.11932659749696058 -0.092238162207423841 0.01828960607298883 0.17309199983512141 0.23815045353149411 -0.23355638804225989 -0.21701561580158787 0.12498902580122027 0.0056622450524980378 -0.17935493292792601 -0.22089740832963992 0.23517663788056611;0.20648329623284256 0.07616151357935487 -0.18719802576506248 -0.18264412074567082 0.21313611959474127 0.0077214746748924239 -0.1868913309207238 -0.018045401420094035 -0.11622972045939327 -0.035697724313967422 0.25313205198613697 0.13534888539870576 0.28662893696132247 0.21679327290030914 -0.36777806860264628 0.106868112164516 -0.18819732992048974 0.3603524550270959 0.068503944799785707 0.24796609693699587 -0.12194035068460786 -0.19045775115784191 -0.39628101735684318 -0.39434505483925497 0.42889088957233362 -0.26644887173703585 -0.011717618464989149 0.29229286099532664 -0.20146019265402376 0.019475909152467032 0.046891136574381702 -0.035341072295823131 -0.43022155151060731 0.20995495636924896 0.16109084883006231 0.44793968121230854 0.2579191882864757 -0.040376990819292718 0.020203199284381825 0.17474604862311224 0.12534110316660146 0.050598615888520056 -0.060536356952459305 0.12475192763021387 0.35253393296030461 -0.078096514856190929 0.55838587144229124 -0.17544321061283941 0.2745116962213433 -0.12651582912104192 -0.22862270505522542 0.13830183031944915 -0.28229735389740518 -0.16888824641104733 -0.33489483443023238 -0.14402328685068266 -0.31413794450262034 0.0010225685455272047 0.042812061494495054 0.31142627255999156 0.15103957944779414 -0.19321208709505067 -0.35052628791497664 -0.15846984358401942;-0.385549382587071 0.13341180518405571 0.1388686924023691 -0.078065105570699678 0.053670565849745382 0.20180919561091551 -0.029196591470015763 -0.35437152212094469 0.022271829842864112 -0.065712627374198834 -0.35698540265048651 0.12478395365798253 0.11513942995279963 0.093782824929521225 0.24303763931122838 -0.18520116862062289 -0.039081143786357062 0.085474956475932784 0.046975783065005862 -0.030353059921447722 -0.11256493312101985 -0.1070418750596781 -0.08129506785651161 -0.19065887270029824 0.37197645819523095 -0.14059460883231908 0.14576562364850534 -0.068719170452675088 0.046149919445813328 -0.29823201653036607 -0.083143286348221546 -0.053776581649106071 0.092709324827370404 -0.041612396112337781 0.10772962348568976 -0.19845382960530494 -0.18470985043824859 -0.2685717238733164 -0.086767634074364525 0.23129046537189524 0.067599852924657478 0.17344352950841466 0.37067720351650502 -0.27692049673540842 0.022916422329590957 0.16134678307180059 -0.41708001144640261 -0.036304094286382829 0.169963830207843 0.28100557146083266 -0.30206950201905031 0.23240335873855794 0.22982309838331971 -0.077581288776595772 0.12854139081995192 -0.15567002530024296 0.12662961092758981 -0.32611609279095261 -0.25193075044022106 -0.20419950388549923 0.09660143135312485 0.204071882942469 0.20218858904248704 0.24010654483892946;0.18108194260769694 0.049917750402203365 -0.46626456575176511 0.068247566815533192 0.38730681835274489 0.020013277888244554 -0.27109415612784954 -0.21258343957756032 0.30955014180747847 0.2807321180532717 -0.26025829970139708 0.14980320225602906 -0.18394987883447084 -0.064417874883425 -0.048075692840777534 0.056387897029732528 0.09013690403711426 -0.10982977874454639 0.14985822926215034 -0.0058612877889257647 -0.15143193473036923 0.043739541819354674 -0.22728051425352838 -0.10081309283146422 0.11185947851421689 0.1824540008618194 -0.069728413423540261 -0.15673094501820842 -0.17766193215372955 -0.24785869222873042 0.19367646292457683 0.022958519887154503 0.17671337930922121 -0.026367768699116615 0.08891389353304617 -0.11897671099643348 0.10666061244245933 0.12064843549459076 -0.00039690557503710519 -0.25171060428660846 0.093563709827271066 -0.23929912865319647 0.16265118599298267 0.018584553507331517 -0.082710370918235132 0.14146287789553544 0.050125504117250017 -0.028368741997037136 0.018096481085409476 0.14543945802795169 0.10678770604386192 0.18377825509040821 0.22458977666765373 0.033464990724243686 -0.17433157868668483 -0.022851059967159738 0.035206459638893975 0.067123449815473288 0.12401223799509853 0.18405296921005185 -0.35305750222215149 0.11049573661631255 -0.1251070859530328 -0.21176460206630152;0.21926381535719633 0.042499403503859813 -0.018613384107638707 -0.019634733448154505 0.17275838528786713 -0.15649584376818376 0.31431270084339608 0.33678126379146939 0.046204371057128782 0.17656419165618464 0.32525252079723188 0.10520604990673939 -0.29039131419466419 0.035992291739248526 0.15211177569599565 -0.074194518434468795 -0.1850656061404008 0.46043758643397975 0.24767316723578639 0.021549467088868408 -0.05727329143453589 0.11902932305038716 -0.11788218461866108 -0.063791885443297433 0.068291242787416828 0.21490979072139341 0.049701834735435178 -0.1432689740064699 0.085974420201423221 -0.10446358236557264 -0.060526671728766947 -0.030657933856240528 -0.31892762753664494 0.057131741509800327 0.046646640837138542 -0.19958544675113665 0.0844058799790839 -0.12922508888419559 0.020975444699073094 0.19292673179456887 0.05430740096917909 0.080138119049906628 -0.12264363582596532 -0.011522963496354635 0.083577226403729096 0.34322556101076351 -0.036800657907884775 -0.15607581152490571 0.016996245127909732 -0.024700645651432158 -0.027554091386099232 0.14630464528661255 -0.025118708178165007 0.079379830029668377 0.16176136562820717 -0.15124463020201301 0.046747800683140626 0.018061013887206281 -0.094805218523130647 -0.034371802663242905 -0.19804640762316933 -0.089661523123605577 0.11520678056053232 -0.0031561685137133613;0.050802956159962845 -0.096977307627976989 0.35667841073980672 -0.20119267896995335 0.27043116964472225 0.42917772668084114 -0.073302760311486026 -0.17093497294368704 0.034318183560759823 0.097479237950407471 -0.018454020915780023 0.10668089828704536 0.25967074605223656 -0.27993456770527669 0.23422139526170005 0.10334352405511603 -0.39933580658441997 -0.13258989786990613 0.31687532206221053 0.25735420667456638 -0.077531263321294758 0.0072435645659556401 0.0041631146516965334 -0.26365090758713061 -0.24677798140763804 0.093301802976926168 -0.090185294979925945 0.25881291997643202 -0.034586440523133533 -0.20978217207237998 -0.11567324085898721 0.12322142497001082 -0.084266187719450686 0.30122463612675887 0.097488605000762438 0.022724992150682476 -0.16558823928423755 -0.041265460121817081 -0.12611604211871841 -0.29829145461911427 0.01574664453537912 -0.13814806528838333 0.11636226368130703 0.04264822035258458 -0.10465994520980815 0.060219730637828463 -0.072267890871738363 -0.036004428091435135 0.16580770451681517 0.19167816927654871 -0.11312902169426328 -0.21243171793359178 0.1732394089289189 0.31742433867182784 0.10997957040347575 -0.13642450617584523 0.24016716863373541 -0.027424156383206374 -0.25409782283333376 -0.15533161558418437 0.26203314749168921 -0.028324823242932156 -0.13033098612728417 -0.27201373748875246;-0.24018908491094931 0.072606130262097321 -0.17742570101230229 0.12381455601149779 -0.40660364420749273 0.044396112172478595 -0.13549793992205467 -0.29430193074560823 -0.2021722338422148 -0.21371210425355361 0.14395786667486563 0.24805908335998128 0.2107740546826746 0.28394529314315775 0.16622381724289223 -0.18024804508458964 0.15297220416413149 0.049793902282824209 0.071172525664181072 -0.10687280443161838 -0.018077767274790806 0.11079845601718366 -0.19681562593805213 0.11919290436070842 0.19986453774265234 -0.35021100094538832 0.14618035120350772 -0.19328442412433638 -0.20001486560734355 0.12603783144978267 -0.010956664789899892 0.25056167930581136 -0.038822462325208654 -0.045665086475211489 -0.0084044517182079378 -0.36319779590418005 -0.26783523074806809 0.077407011431525535 0.36012181615252686 0.25062716139387009 0.10231615742781287 -0.018200827571594833 -0.13545165600314113 0.33465311988818741 -0.03893612996148306 -0.10396023520275223 -0.060878944377195154 -0.16204573533984992 0.24725655791037188 0.091183934676372938 -0.187023495371341 -0.037962061916168001 -0.21914156587736672 0.088189433317994753 -0.12248854041016351 0.23802275418061428 0.059773823932969455 0.23188587285397669 -0.025008770631080687 0.2495191131941161 0.29764871399438525 -0.21681241063525875 0.073105924564034738 0.28456862324834237;-0.47223879572998606 0.21655751630985873 -0.27006704764454875 -0.20109449941767618 -0.22417494997801424 -0.095061081565000927 0.17091743752601082 -0.019929754390910381 0.2965794351862725 0.096651626440030572 0.24038063706970053 0.19342266843246897 -0.42863898448824045 -0.22038521044418882 0.067111130385649601 0.15011912550694398 -0.040142320004181518 0.22883138569848779 0.15101091398360963 -0.019351709048518202 -0.031428217628583964 0.16578070629270011 0.21522783661940817 -0.068445692968826841 -0.13772003086981316 -0.18372558792193674 0.012642012039773543 -0.11746597518048818 -0.22373379879303504 -0.022760561996343496 0.22785471398039711 0.015473106630837247 -0.016992577924401474 -0.4466307337811774 0.024523691462136652 0.32468177601161519 -0.20795611447234227 0.094743478294115946 0.15918989214785179 0.1283358664553032 0.12443229224075612 -0.15319508026484188 -0.081928055984616166 -0.15948820987962239 -0.52118462054753301 -0.13217857307364267 0.24452819324840813 0.056869673702632996 0.12541811313716969 -0.13549165113703607 -0.083431187822019873 0.03357657060250345 -0.10690840270120013 -0.11697878024154035 0.10778440331089834 0.16019764838921716 -0.052330500913490757 0.1959010806540126 0.13106175603568612 0.26536306336837806 0.30187476390634177 -0.14876823069897707 -0.19729161011285853 -0.096195688890545278;0.039685397664985002 0.15584955893655864 -0.057704256932797751 0.072453192235960556 -0.34796201004672522 0.19926000348704154 0.31467560441120129 0.0033432775549036209 -0.012432061067083772 -0.11344959154700898 -0.045024448023642423 0.14194293495141225 0.13055168493373212 0.026497090344563965 0.28541185015046594 -0.20131189214613343 -0.014050248542645543 0.15589289855840704 0.20079293505773332 0.068446809429603531 0.31175741575024901 0.092616699230475011 -0.061740318221076014 -0.091376755691232728 0.20998380445236706 0.084487650365424452 -0.2697046211565996 0.057815551558613856 -0.086226476108050898 0.32540719881177538 0.45808183351493525 0.34788685358067728 -0.092129838514334983 0.12032416628229119 0.041282115610387041 0.11104720088632129 -0.050722248822406786 0.20085942555010974 0.084798523668950493 0.17050407978782753 0.027945808579711438 -0.28510700175641479 0.15053452525644329 0.17594172576814901 -0.31679754433974561 -0.1670893104090479 0.00060641393428435776 0.031164658658265437 0.23069533987637561 -0.067533962893541147 -0.017875702255135371 -0.011921369801766432 -0.21310875211294311 -0.66881370587265776 0.011172135227928676 0.21541286582948602 -0.36453654347220332 -0.031549220558552575 0.12678981746833465 0.29039050581009085 0.011446936485331025 0.1177362691718976 0.44463334881796873 -0.2989370899607609;-0.45195096054602668 -0.0015061190407814936 -0.028921939855084136 0.29454930987411221 -0.22701657591429822 -0.12599174184666168 0.34184585102739556 0.011835118765818553 -0.13343386332624488 -0.15935506223973314 -0.050873141681401501 -0.043030674823781957 0.019439998035946204 0.20530184660230519 0.082961537239115007 -0.077488251175738418 0.092182671897451815 0.21667311475583159 -0.20693334000810421 0.30952856750679103 0.1883407259934799 0.39787259484368359 0.066422525806612925 0.070813529761764943 0.36305373670694069 -0.065570068020094685 -0.079873853289697844 0.32766025193821674 0.40294009569567368 -0.11441452343732299 -0.053870285870294708 0.036900423053605372 0.03545022080327042 0.17080430568171845 -0.10243919178745195 0.046008848883755948 -0.19645028413928714 -0.28861142747760621 0.10296466993941439 -0.11604003444251086 -0.054235044778906165 0.061018085058257662 0.12584764760457184 0.017526854093212689 -0.011128161916494558 0.15600907954036455 -0.079449515895207656 0.023646911266268656 -0.086731449641901159 -0.01546457685612144 0.28701379754845441 0.020471411808324354 0.0058555362057074291 -0.053737974654649905 0.065210324556149224 0.10381940690822798 -0.0090691846763765616 -0.13922822510037022 0.015401781266535887 -0.075840020268449493 0.30512707128265387 0.016772210196397484 0.054184862240960814 -0.14271086827751209;0.094419999230526935 0.056419772955717172 -0.051749406678221893 -0.41283225305488752 0.2404745168044875 0.07448082858544415 -0.0306923189615547 0.18376681756855159 -0.023746384716136774 0.27579894200672672 -0.040168369865541106 -0.10609324174378669 -0.0068778183489554079 -0.035371293311622108 0.18942590654387892 -0.018194425200818178 -0.13712524489696362 -0.35088624101767052 -0.057864130575997645 -0.083096846391769286 0.23857135665118701 -0.3211789147749014 -0.10709962448293164 -0.31292242260153552 -0.17451012583102474 0.11727997295948094 0.25418724766200335 0.072088051818832141 -0.3245736505916032 -0.1660778567430144 -0.05540865053801209 -0.00081221591330427143 -0.094568612551515802 -0.22884045840792472 0.086911133483927913 0.1936725181246835 -0.10082129723990567 0.018296576068585965 -0.083246161270468286 -0.17626129949599159 0.13887671063737844 -0.084040320221335008 -0.088588853419268754 0.13486971534783654 -0.2192707839416731 -0.17118228631843574 0.16085912028409186 -0.17142673826276217 -0.15761721248655999 -0.13731254292305015 -0.075736620788073555 0.023179228437347054 -0.081054958483735381 -0.12818727847373779 0.081286111461082194 -0.1332526889973423 0.29385533901453642 -0.20694826715445538 -0.059971705314727938 0.14898340433641727 -0.03350923953778303 0.34066962140017359 0.10809522739764137 -0.020917306543049109;-0.31051233690009172 0.38872311980831858 0.089404442068536621 -0.091634137340456515 0.043651905722780375 -0.21486802793864559 0.16726730723048161 -0.43262186349530501 0.1903773263244164 -0.13380797833545144 -0.11368121147814775 -0.017225596180370336 0.043574352944379238 -0.057431088617205063 0.21743780073665919 0.2449693860656037 0.33959701914180362 -0.25488905753662466 0.22164689824228045 0.11447938722074726 -0.070247434124966451 0.39120548021560908 0.24439430583157765 -0.0083807391717443044 0.18998726476938615 -0.017024084488171297 -0.13118848110950243 -0.056174510528552019 -0.097458866695509294 -0.12756469459688188 -0.0067863436538888825 0.25068070983039881 0.11701461512077115 -0.058009232704960327 -0.10468906480042807 0.20404521716793625 0.14927517318137057 -0.33043778514867433 0.12810326556384549 0.060982819920283253 -0.025915471206887884 -0.13777747647624597 0.14514557883012885 -0.30605469352745795 -0.28561122784584564 0.047288740624647455 -0.035989479603396109 -0.13077452675376319 0.21658511444429421 -0.18721445472687226 -0.0089164487020083495 -0.38494089196288389 -0.22070933533057455 -0.3406614529802085 -0.41858898542914624 -0.12156890167836196 0.26015320049876423 0.078465166573418316 -0.26825389802029531 -0.05304668140256303 0.16329533114224432 0.23015615151072402 -0.05768552018613398 0.25780398563402535;-0.23257468341167095 0.24069136287763687 -0.34724812849220832 0.1850033521089979 -0.23419379477974145 -0.036145186232473439 -0.2182015668087216 -0.1841116930094216 0.24498329840043104 -0.17303507205000909 0.042659632102720786 0.016259338173415169 0.0019614221114773772 -0.1757990465734823 0.030974542014953702 -0.19916972900699345 0.09268027949607964 -0.19353192557732402 -0.1684292204776921 0.3721665936103265 -0.23986036522649223 -0.23237257920638049 -0.022810104099062173 -0.11411684046022985 -0.28421847111100196 -0.12226392003657968 0.36903811150596333 0.2099962800518356 0.12111567954253881 -0.14676988206155667 0.15674888311282859 0.16898714783804383 0.23574773122595882 0.10513453818454609 0.22746424141531646 -0.18201132635972167 -0.042563635730136024 0.011230749170529153 0.059425678068194931 0.058834262595830092 -0.075160132024891038 0.04588416270048036 -0.13153407591948488 0.12450947673885988 0.078384273683950373 0.32786761290194083 -0.049944694928739895 -0.028718775059834788 -0.22423647771363894 0.010711444349810287 -0.32659165059672612 -0.1781399159191506 -0.26140504246025897 0.28423989929200161 -0.11061087350958812 -0.21395771972546335 -0.029537385500645767 -0.090780351578596388 -0.1605913933757486 0.12307223356668737 0.11237932176965248 0.2041975765798302 0.31537069383358035 -0.19728421115706227;0.091360848296674207 0.26191846813787761 -0.28002156131228856 -0.23058310937481596 0.049395816355201939 -0.16864507066351164 -0.20455656207777689 -0.15389563920684707 -0.061820298658032895 0.024077335158755809 0.11231074282443616 -0.027622637314213608 -0.20211283234072827 0.37202932839531383 0.097504306441975497 0.054487863277640519 0.16586743633024673 -0.30357035198812388 0.056031628234314436 -0.14671760213145871 -0.025531451211899897 0.025319280509245822 0.19868864313372153 0.050933802383563272 0.18986660975346942 0.11860103021016903 0.2340386345657452 0.032567766906878022 -0.14367114501617415 0.19106980533502624 0.20643114115514485 0.10085413754507257 -0.25328133831479283 -0.044452082296271712 0.057675575470181213 -0.021767760426388727 0.030685933440137245 0.1604145504220495 0.047343690340253583 -0.17771626812635927 0.122712960947456 -0.12178592207139115 0.25161681049044693 0.11228349373793728 -0.18446995492960083 0.24494515330050415 -0.053764221987685872 0.057518817265859376 0.012677133638085725 -0.056357736710043786 -0.32953368963227675 0.14614132725266579 -0.048726606250368391 0.052547689778854899 -0.039669804448137939 -0.20490581604141805 -0.1623145242793583 -0.059518705859931645 0.011998749479457874 -0.2041628384886455 0.04419473918269478 -0.1665737093772412 -0.12849954869906571 -0.30331094554121152;-0.33778679741498829 0.23420541900243405 -0.11837233990127655 -0.027891282817723927 -0.37379393414516909 -0.3214269824334216 0.38589012339166207 -0.1376619796751358 -0.049099851118061935 -0.30690617557469291 -0.044918247900819684 0.26272348510273968 -0.34615838413544958 0.046334104571908348 -0.044334928134656219 -0.083174777638207992 0.24500299567144265 0.043651411077983482 -0.24074440133027414 0.15450007976093424 0.28280255412742289 -0.058186255067176972 0.17707619646566428 0.34450259946501605 -0.044926802449102785 0.3672937256535968 -0.24678109957288685 -0.18028728622917586 0.22496387005975113 -0.23413594868271212 -0.12728619592321169 0.026773745699026772 -0.15948789137461186 0.014804039581651928 -0.037233106938434082 -0.028917282821998173 0.14896656196714012 -0.06575726866158102 0.026745590651553391 -0.097773011231012674 0.065393669758456188 0.21983938320531171 -0.23628390123298956 -0.008921825675057728 -0.093135954633304444 0.25916300882221743 -0.14196022035869579 -0.087804922389161433 0.18789895204339568 0.10757956354980841 -0.20391160244515802 -0.067238138182003138 -0.23920151594084141 -0.2202198752613716 -0.12613323800352441 0.25695713012930943 -0.17218096037545069 -0.10683675745651099 0.22344299664939815 0.19709786570472071 0.18559639205269415 0.3884720632065245 -0.062640246110241785 -0.0051246944095796783;0.21201296872172637 0.2611758374477513 -0.039411941931696844 0.0016860210315758643 -0.28969436321417558 0.048343421971832654 0.13863320694042675 0.21491896463522359 0.297428071417635 0.15449416349816547 -0.091560139043615027 0.0056148670777811088 0.1838435904534686 0.013644158379574754 0.42765053573236333 0.12063768590863348 -0.092677941766688018 0.26214745079245488 0.21090553161582362 0.080844913740038923 0.1602075136602471 0.15370588051709255 -0.050165870985900071 0.28899628077466327 0.37228908286526685 0.043068096564917439 -0.10670986513849923 0.055380019263203309 -0.11696733150353877 0.10843031227895446 -0.22521339519132877 0.044219774019975587 -0.098520067427927835 -0.0050325142255717627 0.1120885456455858 -0.05378781958572651 0.32197165264576394 -0.25015691267644563 0.017930212134026451 -0.26319766351659907 -0.19153671061975572 0.15338675231048857 0.11470439667352009 -0.22173844627461581 0.17774888313562304 0.12346581509871871 -0.053098342767498113 0.056476481943037796 0.015070827579014789 -0.19931762044541429 -0.034885334323604543 -0.23466527649412172 -0.092039341460265878 -0.11948436443797349 0.1003765122593593 -0.19344469235421358 9.6419135849354186e-05 -0.038738560854773556 -0.26170420234917513 0.27366393851534215 0.014022667579656051 -0.14526396371881686 0.3238758715615826 0.29342875649483569;-0.43805311236904115 0.056353286821534655 -0.052048722623180978 0.28648039424674987 -0.19838087142843439 -0.25912859825718765 0.11756264451719574 0.17691878913724624 -0.035228535789699103 0.20395887204773991 -0.048099550860957921 -0.06531356600075619 -0.10253113481272187 0.23658413100365541 -0.29035972695120477 -0.088264858855484823 -0.038215855936324407 0.035103491157855646 -0.091113617448887199 0.094409145957530874 -0.026965190112498181 0.22917385485858816 0.099787369550958543 0.0027369904664505582 0.36523874438453496 0.20800381791300315 0.35723413322245617 -0.11114490017392661 -0.083739344692888143 -0.10018316728995069 0.12537264782527988 0.22036164981852127 0.28703481139093417 -0.18647826252342192 0.0012064580921677956 0.19121387019097488 -0.18321603504091363 0.07520822513019379 -0.22029048519614466 0.055638098704076829 -0.11784264639353881 0.070152316697980791 0.084806155379653497 0.07793597572095913 0.16404969032479202 -0.1115390306042516 -0.17669367167472844 0.1276002306924762 -0.10652716765341105 -0.26517118844197668 -0.10232187802175027 0.19096315060691293 -0.1349852594390972 0.14498198166145024 0.030406318318887092 -0.31463164022285461 0.23452776943356229 -0.17682410148713804 0.090012848896435543 0.056878103455653445 -0.19973184055966517 -0.044641009982768466 -0.078768167552201993 0.29814180292679016;-0.081506399558193221 -0.048511199875421282 0.043518367002618796 -0.16435495503235237 0.1772712912123291 -0.10517203396035371 0.21466861316498997 -0.069231050775496739 -0.19343606098249497 0.141206764362796 -0.2185361708999162 -0.10124102335261412 -0.049838395652319442 0.25981880871428675 0.11742711096721675 0.075171585185112619 -0.0077994759983881935 -0.1071569105352837 0.036157261233985848 -0.1064701952478499 0.10602323363143797 -0.34491967472324303 0.66489777899634295 0.070952125815038167 0.31458980970896394 -0.14210215433959122 -0.18145782933595744 -0.13986750508615806 -0.83112422583911982 0.097295987619146193 0.12269507548727379 0.38433853701918175 -0.22570629942176643 0.47857070987582589 0.010715545515809942 -0.26588299568978668 0.19913072321060815 0.09330765670076327 0.26913653836566764 0.047603415236601609 0.15687301307847609 0.16048974507019506 0.12624588279645318 -0.11446214483805683 -0.22347727384598667 0.18649450453493188 -0.02812316360140454 0.098726637275415932 -0.011062035738764112 -0.44439326801024936 0.086781582034705179 -0.18924216730112287 -0.29399461082703376 -0.23471303454561912 0.24138468342991445 -0.097820676804122805 0.097256123892159249 0.0077909394761201513 -0.28706441952944817 -0.10465218898074866 -0.44544788465410479 0.07461669691875604 -0.17455583426895954 0.1993947135301144;0.20058480848092392 -0.26001170798166984 0.10708727059941286 -0.38241049787319159 0.31706472032963373 -0.059514631567228242 -0.14095137051660983 0.11318316339590549 -0.10146303955869855 0.17756928576147649 0.12288716624147625 0.091590576217058989 0.26189422395653528 0.15411794750310384 0.23693931538373866 0.047944539235050293 -0.21912055794724539 -0.18080014275735115 0.016988233409765689 -0.25466716025514619 0.45564218550017377 0.093789434025990367 0.040866169226856576 -0.072683596959767324 -0.037546780991662726 -0.14187355296161661 0.2629548228182198 0.20973206953106346 -0.095205928210572499 0.1293456347385632 -0.089751702446977236 0.094804385332929647 -0.1898453166236902 -0.14103145541821938 0.2439725273611611 0.016840600393143754 -0.31992369599361026 0.15895790286362652 -0.20974939396068465 -0.04201094964508803 0.071979054549179008 0.01736494096476179 -0.47304305458280399 -0.093334072952195826 -0.05559895750608939 0.22885277623490097 0.19901457113746798 0.0026360350307936872 0.12723114423966311 0.26141202716954381 0.057141128393790326 -0.10880712492142625 -0.0068614642386232126 -0.010986116772942265 0.1914995253489957 0.016479429826675895 0.016593562938339204 -0.12047343146552959 0.19591589535539503 -0.24995531964996473 -0.21609628727590666 -0.17232789432786072 -0.1401482856714116 -0.0020668086746213937;-0.03930964844263151 0.13990803753687137 -0.1046384625666817 -0.11575673727492516 0.27765190674952051 0.1165708675263223 0.0024773950301122216 0.0028309568819597322 -0.086931786748311826 0.2627486968644831 0.022880820258130114 -0.048358929146163881 0.19744635553592702 -0.29025125681434155 -0.29480652773877597 -0.27989789305044321 0.15327989553213339 0.24464563735211928 0.079805881735658543 0.14507691713250034 0.1612407924169644 -0.173170715764695 -0.050455396309546915 -0.048851302773082382 0.067322213106471407 -0.081535323889143557 -0.05665770771850686 0.21343122478688004 -0.1774224138441986 -0.39647895761666541 -0.1257133991960814 -0.17341634160917113 0.28715949324863532 0.016935674594062821 0.12616774946211542 -0.21579390304759277 -0.089428053099325791 0.013435926390520903 -0.39010654608765616 0.011987774597375869 0.18217620828551889 0.054749677661255061 0.26236869033387672 0.23073772675473234 0.42752074470975082 -0.066712385393671289 -0.16503486048136803 -0.062053441694572345 0.12297907008364059 0.079812551948777205 0.22936559409140184 -0.23976591132385425 0.11071515207464419 0.024437685751820669 -0.017897574219588309 -0.41527911376712023 0.11994582188803188 0.23574910393381607 -0.21043850159996938 -0.26383933775666835 -0.0072056062898959864 0.077144191817536678 0.20277705612561953 0.024034271481209755;-0.13686160992450289 0.10550431315103243 0.14250215578364753 -0.092151859059207794 0.14295591710327682 0.12090506268463426 0.060791896079221079 -0.16936842675132757 -0.040573413686245827 0.2440556068361725 -0.14342744266965657 0.0097970831149860778 0.19394158940589856 0.069178267655932185 -0.10655980856208418 -0.05921535708435649 -0.48078774051763318 -0.13598627656358131 0.13372991536815793 0.0036979648261490743 -0.069676699205405229 0.050638991001444381 -0.14525798774018128 -0.19173402277246238 0.038188826243766169 -0.17102555465153244 -0.086439657468318012 -0.2019737557696912 -0.11877049161140957 0.28908913560912874 -0.13730551094112808 0.011572006184486462 0.053254934320407274 0.32379477341352869 -0.22477959234921008 0.023883219282581563 -0.14943303351993004 -0.026121688305567152 -0.16845822554985876 0.16587066148094451 -0.16199000235909544 -0.27087076092385243 -0.11147653942648994 -0.26871855526437222 0.20368929629844174 -0.061476685157192984 -0.064530032255640898 0.18590537509642657 0.0023946804869618083 -0.2860816030480402 -0.28258886746448003 -0.16179291207866134 -0.12004489823244899 -0.010982492073292147 0.04161746150493293 0.16279365487640202 -0.22762630866777389 0.14550430356164296 0.14350018660087296 -0.059789513154624718 -0.29814750858946676 -0.093487614105376232 -0.20388427787445032 0.23184742538548267;0.0074320167284959776 0.27209422228798175 0.21785033388275052 -0.069877155814496661 0.1595136453873657 0.089770857808881097 0.060239521475391099 0.01222632311919941 -0.20081884049325641 0.15318829560334532 -0.043643237973561726 -0.24852604872000256 0.16346614307674537 -0.13023834851510932 0.053534090746397811 0.11375735054719502 -0.32804891425710964 0.19433556553818379 0.025955255803859194 -0.041297344555431582 -0.029909176051291914 0.12343397354536367 0.21984417725666663 0.52211388745838017 0.090083416389346777 0.1530043241697169 -0.13920484963735472 -0.28068394129186491 0.1384227003628129 -0.28578971025651895 -0.05612632585469475 0.17823495452284294 0.14060620510296082 -0.026192962195927025 -0.016209514604468782 -0.12879412145091415 -0.075488658146491902 -0.035621639804625765 -0.027280412700683074 -0.19450093057524528 0.026702886598444969 -0.046680870423368402 -0.15449761684215552 0.16831836556935212 0.13746700321340849 0.11838532860926741 0.11662187521343167 -0.062628169509023363 0.0035998104261690911 0.3177658214418333 -0.1566029950963817 -0.11388983305605993 0.17616974176823555 -0.15164659860893887 -0.044935836231537185 -0.11598486255185231 -0.065830422033699557 -0.2343976285578076 0.16292905755425588 0.31575551218378267 0.093911753904189016 0.14180028565217365 -0.55780638653257286 -0.088971171708204858;0.0086320975030894555 -0.097234427410375482 0.22478614210788261 -0.49533644974435131 -0.039074833220927092 -0.20048420080801338 0.26326486807407756 0.082263820175695362 -0.044317497850077145 0.081627345906332416 -0.026999513208681675 0.043381788154226587 -0.027809854701677909 -0.10148139367016752 0.13203024369515085 0.068767761715844131 0.023552387275191673 0.61881102417377798 0.037792292998852478 -0.53109093798102569 -0.028356080121931675 0.37467301184720153 -0.12852574162657754 0.20970396141111483 0.14729133128904492 0.14922576823346728 0.072697144546766929 -0.23297136274957186 0.041901296692208247 -0.10662500737019787 -0.012569292370963157 -0.032887420519229986 0.27466027855496494 0.087069938107024139 0.053207816447149094 -0.057990132013225081 0.038060174673734654 0.0034757277304830344 0.023857599493956393 -0.25269794310450933 -0.24386085320493597 -0.16043069647655356 0.29741462564017807 -0.22233866326759014 -0.11252841160307613 -0.0039751229666818173 0.24835365492362987 0.17459647139239839 -0.0043523747728137401 -0.23265513631956306 -0.18920877009969864 -0.17901690211886498 0.39577473745411562 0.1880953229082955 0.10523647402502345 0.08881470109208249 0.28212836958307791 -0.20232412502095615 -0.11344444197538515 0.18857841816314366 0.16785967886875763 0.17523097196272364 0.084951665780902352 0.24286382234086815;0.27538633041581517 -0.30615202875609759 -0.050252788215917533 0.29199013538926055 0.21504694152239737 -0.1731511165711713 0.059770022882685389 -0.25437113812143836 0.050604846133523257 -0.20108856440345466 -0.18836837574680662 0.068995831990151926 0.035304354515889091 0.11813331041080127 -0.015254366146621307 0.071123683599278772 0.21159325319896605 -0.10858185483107154 0.0078025520050226619 -0.011843994971035134 -0.13228190791768776 0.27461046543104844 0.29339105694138418 -0.40121093294624288 0.10030596615106935 -0.056673681149201377 -0.23184299116169352 -0.37403698179794082 0.13541629146019588 -0.10257292627460168 -0.026727846312362247 -0.019329738552550085 0.11217177887587981 -0.17480891225486592 -0.033895745327527219 -0.26617215554514934 -0.30405596474399926 0.21740546385854539 -0.069003433151953827 0.36288339198336433 -0.40123244370708483 -0.03075037431043541 0.35247405587411157 0.11029198096884435 0.03035292774560892 -0.18096687263071157 0.12960593511399807 0.18522425489723984 0.074739639427453333 0.1746500434514511 0.0073286009077371816 0.02385350039803022 0.079465104293958963 -0.61374744163776507 0.10240564548317029 0.1852717476348465 -0.1415077942074415 0.13321416225434735 0.06105148900767865 -0.0966526252893289 0.22257387671825782 0.14343254373596317 -0.06136389694309926 0.087846508465368511;0.15401290387561051 -0.12886330523371822 -0.30615779788149095 0.2002201709729613 0.19808123604242053 0.092087738322988971 -0.08088020515344381 0.1284960913659505 0.18454622203837265 -0.13589248496764758 -0.18699056770325639 0.10046849482615175 -0.30332403031187616 0.1431825867080351 0.065173962818639491 0.10218284485176811 0.067908688277302509 -0.11934281394685196 0.090833483518338559 -0.29755002022522392 0.028735719248862892 0.034170093281061339 -0.12546010495881543 -0.58321818629383149 -0.20627319801932995 -0.26134900278750389 0.11688583499653576 -0.073931023692840395 -0.17058038196344266 0.31622055177473885 -0.19901995211640552 0.16941274834129261 0.042844256111598603 0.079445920995547023 0.15012589516800631 -0.076102281536016003 0.051999466792020249 0.010813262639614463 0.31420410319898207 -0.047180030691693048 0.047072634418441131 -0.0064702140353246895 0.23534809883159982 0.20824111471389872 0.069751794885610716 -0.18560685039319821 -0.28234671810413603 0.086404972163660027 -0.17334316181532802 -0.17290847820083205 -0.16970544955293329 -0.023955788734755096 0.10890217914237355 -0.28429230000907596 -0.075140297261700587 -0.03010995200422099 0.13314080118807178 -0.034565716482475632 -0.052402971375305578 0.21526684089275427 -0.12582927162738611 0.092593265843385175 0.22760332254801499 -0.033078352806823301;-0.10540629887341899 -0.00092327486155940224 -0.029978850577665004 -0.046626565109891889 -0.21737129746581352 -0.12459068574811601 -0.18947391689165302 -0.2781334237623192 0.074974558829845744 0.039858957265998703 0.36476000243741358 0.10272812052370438 -0.030308730587450487 0.045685393684450015 -0.56524325404442111 0.053577351955033638 -0.15604615257022905 -0.71623082207527067 0.19329363400079982 0.20274689502876708 0.28985638674783842 0.21339546703434117 -0.62906271599572583 -0.63607808691368128 0.11160301764369467 0.047264546011571505 0.094234595275757893 -0.27838817793420589 -0.8038710911595659 1.1905438276575859 -0.19075467106468516 0.45977030410059194 0.15523145475656203 0.59270183360120043 -0.011380677277101695 -0.16859056052622395 -0.21397755621281062 0.078537485154554484 -0.021920738051188979 -0.10174009905958327 -0.18654279727694781 -0.017721408522805793 0.06041515017664921 0.2583863453534293 0.44471291546655395 0.26794299295290069 0.15647827707800066 0.01594215426054265 0.037354952839162979 0.037888118776578543 0.28601958866932403 -0.21807575332749074 -0.089350000986008635 -0.10117519833636338 0.12648944027465664 -0.0063093263477058828 0.083168361371001226 -0.12426515916255815 0.15381155432117427 -0.045059783884725091 -0.16146567607700674 -0.10820534021323212 0.076451827053523963 -0.081968833243505859;0.12444688158735233 -0.24379731277931002 -0.1511485991964234 0.23750257890446191 -0.14917211654654999 -0.27014991242183145 0.16267401106415622 -0.23182382093033693 0.18987022554849065 0.11872264197496508 -0.27556505184068758 0.20668567837410104 -0.2353455437927211 0.24765830371910491 -0.011706109959249453 0.26606708627104159 -0.19868576270311203 -0.077498382372945776 0.17327779150256434 0.11050195235449053 -0.051397215863014184 -0.024089200539430027 -0.091822925322331897 -0.0081744162554917843 0.28836187752823988 -0.12330628611291901 -0.11580873085633188 0.24212902774653752 -0.31992591383715502 0.0967335340745544 0.24920650143571837 0.26766336134742591 0.31161583375675178 -0.21240334685602649 -0.035564662547869767 0.14877108646085219 -0.14752794005855707 -0.27560995312267311 0.15627436766229189 -0.010028288273782542 -0.02790657677846501 0.32268270094122947 0.19619186409794043 0.084174679414176654 -0.029228782998735551 0.16348773199396111 0.059929253676916747 0.19387672034783129 0.22155430993837058 -0.22918365218100201 -0.2514638195472314 0.083329412669681871 0.13136075540799871 -0.24204810361070142 0.01319481678887386 0.21882170417541261 0.25416901495624122 0.089598570236644512 0.083644858318511983 0.0307029647571339 -0.13049740118284597 0.31491788679403837 0.14126946198029627 0.16844104367453783;0.12515954572944687 -0.21260373477808178 -0.1412054072253949 0.2777850704049023 -0.21576973755419671 -0.26460569981339194 -0.12046633735105515 -0.17288833706375234 0.30841382969385756 0.18420395046768306 -0.26150929649575555 0.24844220924162624 -0.23376660133721544 -0.18888009160810562 0.25482318471901394 0.1235236585390419 -0.18562709568152533 -0.15404566246270049 0.12753280412633117 -0.019261135846653048 0.0016986624390571798 -0.29643787475896838 0.18104057044659888 -0.062991972423310769 -0.18101434741912856 0.097932414122628444 0.13579538391889454 0.071516557386957988 0.0091521119246173351 0.083178429391597586 0.108772217281757 -0.030176793801230842 0.26673265111549949 -0.29105377052160869 -0.12407519446638517 0.0083966330179315422 0.11989172526463056 -0.13121909328745299 0.2074160341326507 -0.27592392030179924 -0.097577417630962726 -0.15432533432452147 -0.11162645049818315 -0.26069163552509494 -0.11778995074044596 0.0020383568356281403 -0.01619883003981137 -0.18752255409686663 0.015564269731141521 -0.032140095463367165 0.1173520602189717 -0.16615518049872227 -0.30354858886146091 -0.33699890597941656 0.37919381733490559 0.32500124238344613 -0.064718930285037848 -0.086662112901308361 -0.14083441118254231 -0.12444124585109113 -0.012565781279003685 0.016996897701440219 0.11371734266440799 0.23173391189677572;0.15616605765355793 -0.28539307003144032 0.052152774112409164 -0.4380822316059611 -0.070664075672225879 0.33273610318152019 0.060749445845371404 -0.12529001181443714 -0.15151838516884081 -0.082456897915516927 -0.086259312270864724 -0.27619674192925664 -0.10659640264894236 0.11753217275276723 0.13414080079988508 0.057081605944095809 -0.20466509409746611 0.28551139192195302 -0.30304766491082735 -0.055861426948380831 -0.15245717941188267 -0.10566323350573066 0.049480197978946212 0.0094575229748121003 0.11330608024318727 -0.3574721500032943 -0.12121799387142247 0.15208613446880256 0.20930551940753669 0.28989315144399197 0.0026923159281234113 -0.093925807239768233 -0.15593474137386606 -0.14900648982659184 -0.12243377778793357 -0.18829875775163504 -0.16900074998989112 0.21191676658205058 0.0018958489119398397 0.1164587119515544 -0.05705641030173083 0.17870454607874617 0.39058038694406616 0.0068879963353631977 -0.010045734483040136 0.14699963753014955 -0.28073275524492908 0.039327446902323232 0.11321082794059741 -0.17609360716086486 -0.089925140834140077 -0.28865968054175073 -0.054219228119596674 0.076905415462144355 0.094527559993040078 0.22970333711788568 -0.079679331524378977 -0.30246348951737584 -0.083084703348322062 -0.24891916019148233 0.098169858666173018 -0.29371589412361793 0.29573075288335521 -0.36569256517549964;-0.28068390954508998 -0.010651021861508264 0.10811102151312005 0.022872982719713438 0.52121706709237203 -0.10066784028779284 -0.23159369356613915 -0.14550211546851641 0.073046176538030735 -0.035454614619817679 0.13768524586485201 0.022238668496210735 5.4140541334817284e-05 -0.054800413352026671 -0.1122146608514423 -0.12126373265469202 0.045693605036793671 0.26299041864924916 -0.24910238899158482 0.043252664762788905 0.12007675384931329 0.25198254476359777 0.11513971986388515 0.49484752396115206 -0.12527172155484534 0.19003203680992725 -0.013853694986995638 -0.091118876650633743 0.084098919398958819 0.095539946295924244 0.0044905800765502992 -0.1243774761278848 -0.15785014617883769 -0.065451192319905024 -0.050045614734683802 0.20367181001924645 -0.079786981163890991 0.034172654765975648 0.092783197117298821 0.23058989406467553 0.0086152075234357962 0.11716404157865432 -0.015157742503019232 -0.032922402021547836 0.045183189462356881 0.22927848484705846 -0.069239860049987181 -0.19034776414709695 0.0056955768896736229 -0.12575878630112569 -0.16017374780119245 0.059002419825943044 -0.1150678162920544 0.017341446824211203 -0.1753629483015908 0.068128955572580585 -0.060735369337239324 0.072110212962691225 -0.18700797991452633 -0.030782448546772354 0.028638263936393432 0.088254269466939594 -0.18975080381756332 -0.3352870912646575;-0.24184806597833725 -0.31172897507338249 0.25875469350867103 -0.30919067905676317 -0.061796546182660492 -0.12857342927887114 -0.2695515943157315 -0.13323417758684342 -0.32614913006934826 -0.023490546129085174 0.3106560258751706 -0.20250527641915625 0.14990309470151217 0.038135338821612248 -0.085212906952605735 0.29960444667739822 0.0040962224224412687 0.056633900695649213 0.15068132673346629 0.1261052476898091 -0.13432948336584857 0.19895365806036944 -0.24865422289352956 0.085663399152074521 0.1700734101448276 -0.16900240246911558 0.016005471372925024 0.007755708506338008 -0.005720370488446507 -0.15153654892128021 0.074566876750888078 0.29747263438116678 -0.19795289469726174 0.2097731844060976 0.16543273930764929 -0.050438298973744709 -0.0038178118908827833 0.23783262526139579 0.13620504235056186 0.11999675477200562 -0.19244868989396458 -0.24476436858720868 -0.19478295500406292 -0.20786750811362245 0.2335552685368715 -0.15251542659761472 0.24642090301432371 0.051841034810904553 -0.19115129993962918 0.2282015070696764 -0.24949030191212604 -0.29690755105215644 -0.27074134357170143 -0.117069326488041 -0.058160814932125889 -0.11512363761666557 -0.00062343387381941879 0.0096526485351784361 -0.07397545601150568 -0.24569960345553157 -0.24685577348265683 -0.094118855358362619 -0.26037688994152247 0.15780875940676828;0.017319103477701627 0.050194924620609968 -0.16079309151031096 -0.30608445057264616 0.04211679419848937 0.27458802833589457 0.17404835812408151 0.024660169925998256 -0.045714360439772679 0.079537922917751983 0.09395267778487329 -0.00073737222544256438 -0.038219374166108655 -0.14630144316441701 0.099659316405173184 0.016922869157055521 -0.13206666152845725 0.16451858496195682 0.16638822961849808 0.0019860269384586126 0.040787177958628275 0.14626446097017576 -0.037141858874360952 -0.13412191165858683 -0.21110885942858401 -0.043465595498982268 0.065595478183378061 0.12081733279477407 -0.034692720080680098 -0.15065600912586841 -0.0013572426713348753 0.093721679861007684 -0.01550698546788481 -0.052008749971522987 -0.026051096649375865 0.21277870882649366 -0.13071393210113458 0.12679923419895198 -0.098144918223552327 -0.057549373699624075 -0.33191088629695636 0.0080349574671870361 0.013973477614095354 0.026952988869366479 -0.10134010743303891 0.1340943986969641 0.089610019681191574 0.08704023791888249 0.10089459345091491 0.059880736932616502 -0.12222164156798214 0.043622070070583316 -0.083491624306305565 -0.21460930616936638 0.015460276743763719 0.099713971021311271 0.24136805084134924 -0.10375787462918248 0.099354159627284735 0.055341839522737878 0.0695448578001511 -0.24337900665440532 -0.21412636893015966 0.19659226907161093;0.30908736646391993 0.073112341881368656 0.051489686046784118 -0.042265982969777197 -0.234710571587428 -0.20644014753453971 0.28017571348660436 0.036700343890343122 -0.21945497096349442 -0.070561062001903346 0.12962908689307887 0.18566172207970072 -0.052826202670487751 0.32740712401986527 -0.24089014849311952 0.036069302044657678 0.072859188388282911 0.20507939379423798 0.13193185887476727 -0.016742316124817816 0.35008583487318673 0.22386921887152686 -0.34663913692018977 0.078730274004413514 -0.10421483551160196 0.24779369664474005 -0.015840370290578099 0.0053055742643238514 -0.16374100024214103 -0.12404531858282315 0.23688006389530575 0.11296196005215217 0.0051815540027369909 0.053972188599167061 0.038407133398292749 -0.024087489747126153 0.157313427028484 0.030442568002806068 -0.31235776821738426 -0.034277339630763785 -0.20026071169435855 0.06742936127685431 0.19351322469471965 -0.033557845348110626 0.17799089466621157 -0.18408075657054904 0.15309144996067839 -0.021407515914680562 0.13273295027657786 0.1576841757264501 -0.023563799085935554 -0.035632052577815224 -0.019228937710781512 0.23333168995377407 0.14099843551751393 0.025975975944835184 -0.10199378058458515 0.053138593412844222 0.15622875626827859 -0.077599551078351037 -0.019206434355924513 0.0017520437538488668 -0.031612597915446086 0.45989909028021669;0.018061224580427672 -0.349779491219054 0.35172751532274027 -0.14531637852677098 0.28636528593252814 -0.22637247379464423 -0.054047360324147802 -0.14038535670065064 -0.11640198539025005 0.00028204021133310483 0.17726173113893229 -0.34795901020447023 0.20979103093477083 0.20640633759933688 0.18036630361375411 0.22111076692490025 -0.22479953913536999 0.269635993366166 0.21014687777127458 0.1848551496228257 0.11088155129795724 -0.35022615003421054 -0.1177648197654222 0.22235700086306029 0.015439478848395373 0.18008897566016246 0.090245304100285112 0.1179235015178676 0.16012486985181207 -0.0075586782254607821 0.33032879853541708 -0.044040086864504349 0.080058898151258023 -0.20184292843442891 0.050883572133508026 0.10841219766150931 0.19970058632929541 -0.16754184824161536 -0.20375859490289289 0.058325395702356113 0.028654230303968686 0.0093098745214804744 0.20362845161729276 0.19915173359494562 0.088082883838375967 0.013841370324810046 -0.05982118654728158 -0.14020558249839388 -0.06858315961346223 -0.075796882309093885 -0.12265686511298961 -0.26211941807084532 0.27116773927764498 -0.071713235234889788 -0.16197290496174427 -0.0096142878782105017 0.0054048691880246831 0.30425605355618174 0.046616677715357657 0.15391358019265799 0.092146792230269628 0.16423239760217667 -0.24235356399333272 -0.074615040077089176;0.2943930421667057 -0.061462181903232729 0.2289640212810978 -0.4896518257832968 0.057999544397074956 0.1299922643157653 0.13788824166941624 0.048488645729828882 -0.19911416294077147 -0.02603798601449777 0.035218056040748 0.28677371599613843 -0.23058871168686204 0.45756239393259796 -0.8827650971876746 0.093060882011997151 -0.030990120730083281 -0.8715492220240082 0.19199918524360024 0.13466958406878773 0.42932897166027556 0.27664837023419531 -0.57674383388999695 -0.53900283537436067 0.044932280723921497 0.026521650764276386 -0.35279465107053798 -0.22985328059428625 -1.1271326954762939 0.83766298195174504 -0.14338115613349459 0.35637864854332513 0.27347928587056014 0.54384197837571457 -0.084983258293076194 -0.1131848502505752 -0.22231395472426391 0.061503253126462466 -0.0041887598166358364 -0.20865665899074437 -0.16139950491019239 -0.18461908431184562 0.20682837175461552 -0.43380786798479171 0.47943341733967321 0.29342062594294316 -0.19784312686914243 0.12367953856458659 -0.19817563382550124 0.08111996483109514 0.25459523468403222 0.12595327969441561 -0.22663727187373847 -0.13573985131086144 0.012073691698189745 -0.24277407354195804 0.16456820111862933 -0.2417774943389944 0.088873700123465141 -0.27216159235573173 -0.04614592065238457 -0.23237716164164349 -0.0060229921599567558 0.028486303487429063;-0.17238559596608527 -0.18779194127848428 -0.073764711826071375 -0.052995198082773073 0.11724844586061393 -0.099025062265097746 -0.16723205561370666 0.38640868875704115 -0.16630049980289599 -0.011476297303837594 0.22927568515216487 0.26151582859792116 0.11806196004257186 -0.14374229688197857 -0.37380068519464132 0.061896843270301032 -0.25622294883424873 0.14563017495121192 -0.11444396773896824 -0.024165827227737142 -0.31250052628699621 -0.38503548276146887 -0.063128035306274921 -0.039802087665837385 0.08293740904797571 0.086825613479963676 -0.067838369052457353 -0.045534540099418548 -0.16776729540253046 0.12005684202988501 0.066844968474971719 -0.26632447115274355 -0.30809939378267021 0.1053951812667995 -0.28948597130295839 -0.087710353476819478 -0.13646631973239462 0.26618943067939455 -0.2317833297077975 0.11218099823587463 0.087615770019502201 0.26640681499944846 0.16206161474338809 0.26312226770716096 0.2099819044141148 0.15432240042613796 0.088214610341325467 -0.15568833282285927 0.26023208390397617 0.31129840858674168 -0.087564295497403827 0.1152479990632904 0.13598205072653627 -0.15760387741500834 -0.072621383510922843 0.26351945464329385 -0.041158186973558247 0.16920003585138921 -0.057913222230132747 0.065956157832293236 0.2399034883828699 -0.34106557771299134 -0.054615021004809292 -0.15754397408788237;0.090314665260671292 -0.13127643507253017 -0.21552512923022701 0.15604314766707791 -0.26612097077185842 0.040524809209023835 0.11647005556234398 0.045207361885294284 0.037329738109481286 0.26682193614162958 -0.22716866760421853 -0.13832480303915912 0.21815973178336753 -0.073760775413446139 -0.18246933907769702 0.20252490347724778 -0.23554931771150553 -0.065457790670647789 -0.15779216310240191 -0.012893107557749313 0.24485152963980544 0.44386814362236088 -0.28677985224299896 -0.10119462639535527 0.15213249951060628 0.06618597564059224 -0.3149321991299765 0.026839737299050783 0.50122733157474852 0.11794396444369598 -0.2961498099631335 0.12246165553426679 0.016643814179383862 0.26813633567880174 0.30257699002627908 0.15505837335541636 -0.24868458117503778 0.004090130171966154 0.075378877722033694 -0.18091449336346413 -0.054194957495680929 0.071374311913268706 -0.22335444960373999 -0.19321434826733072 0.14180550438388365 -0.48207534824379589 -0.1194666450063873 0.14725586467294099 0.070840445191737419 -0.19710327574941663 -0.21464894757913242 -0.08604369399042866 0.058058500835810413 -0.11779193870736357 0.11254479557304375 -0.098493837375507445 -0.29776752550643604 0.075145398356623649 0.13189324864551225 0.17841711491254994 0.16954709650060279 -0.064607643224374053 0.27359664087821411 -0.11880840410659302;-0.18389489411020246 0.10060343317772205 0.21971158473326477 -0.0015414826803942711 0.0020244768651026734 0.21314605126642405 0.10292478835648262 -0.056167912482274054 -0.16347464854478749 -0.14158008812127587 -0.12711184419660493 0.0090239729199671249 -0.011598986539420202 0.025928291589770711 -0.38701805098104186 0.20667421267154534 -0.32931707673382649 -0.26734139772541582 0.019900734443878583 -0.23643606125675723 0.046219602694567437 -0.12029249266031738 0.2167854167150671 0.021737243932530501 -0.086601021501234596 -0.11932737847345977 0.24031449986585993 -0.12395114223875668 -0.038336233724373898 -0.19445141574789576 0.16065304192662602 0.091697387088775312 -0.10535782316410247 -0.22335277362716061 0.062852082600833178 0.26001106919909039 0.12244477999286947 0.07993777532935982 -0.35448302588514863 -0.15907899665914252 -0.10026933549255462 0.12076693237394481 -0.42643721079902919 0.12664727750984123 0.24999854691363108 0.24006958684083615 0.20166846602942731 -0.051679657110590735 -0.17582991250195476 0.056594680431301586 0.16455046205179405 0.40064967143499802 0.1020735072482505 0.15652845370529042 0.13685645363908913 -0.31163559539404234 -0.23969760826477948 0.052152091820774515 0.096665703791434188 -0.21543874749785519 -0.0048228622213130571 -0.0021763091368012044 -0.06254449219563378 0.00027363999223669228;0.082882352060082029 0.1791330058666285 -0.166462780713518 -0.039572918619586984 -0.015664754857641676 0.32208264248644769 -0.068357185289174532 0.22178469858062141 -0.23049397148769657 0.08026195295583706 -0.019330362336941492 0.084368305708967153 -0.073408020827410408 0.28370054085334867 0.095938147201074159 -0.016685639485857585 -0.48067462188452337 -0.082098647359361315 -0.019174296846263005 -0.10403875732719671 0.20402146106303182 -0.23002733463645048 0.10829961960486159 0.0065622805325653696 0.09726097296729122 -0.12550091337326588 -0.26436937061720689 0.045403266060006192 -0.14504876135164307 -0.29682838664654071 -0.009024314017096257 -0.10521750863076429 -0.065080324974437234 -0.10158715092183587 0.076175828089544623 -0.016937334390923188 -0.079980453924166334 0.15170404629774295 -0.1634597115045939 0.18270339578411793 -0.090983694464395304 0.1331309086267875 -0.062014378176941068 0.17877688461679747 -0.17165553371789594 0.27625811602729139 0.34705272486469402 0.057198089836188161 0.086271379709372126 0.15082798381567078 -0.14241559252531499 -0.088053446287930062 -0.2523966718494412 0.03586711272599296 -0.19639020027300508 0.10737422204952396 -0.27932845634268205 0.093890191589518932 0.13386170859214544 -0.11773450253547552 -0.13524605228163997 0.0702272307273962 0.29318265289033052 0.22804229731729014;0.075855440534109475 -0.50678463286226705 -0.015353551739642363 -0.058541452659098311 0.2881210450805744 0.089051992251918288 0.018416272749128073 -0.047567876899985553 0.1094028220501185 0.20236697517193677 0.078460117551427233 -0.11127750612087174 -0.052906978394965117 0.10311150815944364 0.35551586662262263 0.061275810901566981 0.13329073826076385 0.17979508609788883 0.07865815598386082 -0.045670232897082857 0.022330691778044084 0.084301479678978081 -0.13176614643927673 -0.0052641444135152335 -0.18725840014426651 -0.040175713235802664 0.1814155237485999 -0.01306070534128842 0.25438229275062479 -0.074880612846696906 0.062199284912736172 -0.22385942280601789 0.41788040212692573 0.071520504268168569 -0.019261596051858766 -0.024341399940924626 -0.069820651428721653 0.0088783745795439021 0.09779127792902978 -0.38377329270956367 -0.016119333465163335 0.17359861782171934 -0.14623968050152827 0.32711462498514798 0.10587874938790605 -0.26933053894620651 0.15683869317112231 -0.21024292781355944 0.082586120529869481 0.024436638166297237 0.077117822015475568 -0.086506150842095245 0.20486145735238082 0.19805105367560491 -0.076719041789112666 -0.38678308649296295 -0.064187066771254214 -0.020498408836373536 0.14549455213631601 0.08808143093353607 0.0091460886185239822 -0.31656538888866914 0.029420862385420143 0.090671540385271102;0.23443199532651604 0.17481734949721112 -0.084500496013146006 0.030920229857032126 -0.10697720521859841 -0.011074881637586919 0.02037138935385583 -0.25570397549563884 -0.20229006618561488 -0.18490135269664906 -0.14512960742415759 0.28681586748552312 0.25094053120945908 -0.2743907772951093 -0.20408662532814231 -0.080700272424121269 0.23147676309601037 -0.16884860066830007 -0.13682123074007968 -0.19632136140022771 0.19910477112470429 -0.09803976018902423 -0.26499554919394253 -0.27285073985221253 0.063441302091403778 -0.10998996129937758 -0.059048062306119822 0.24550019350091506 -0.22966532550432084 0.10056964157509882 -0.28538303044837726 0.20921389640612226 0.091363283946450935 -0.1104481493125177 0.17045621282352139 0.086626608077863584 -0.21211278221285251 0.19748462141758541 0.090479567412116768 0.20808260229118913 -0.38741944830179742 0.28804938947337388 -0.14786054700832332 -0.21841073490233309 -0.079930456124453625 0.074554524803770963 -0.11089814736354778 -0.171579233841962 -0.041358927260545991 0.084189410864056236 -0.1179470899140862 0.042079627839911322 -0.042041822943150071 -0.10907587088013961 0.17203578655176438 0.19506286865727385 -0.20699489246905053 -0.11619580161671615 -0.31198118491098253 -0.0066962078469456655 0.25138114260547939 -0.13175767485725168 -0.045562449676396 -0.10366361336841982;-0.29929915987345052 0.20215183409736248 0.090224766186746047 -0.29384746856217253 0.31806215377051789 0.031125025616498662 -0.43972954387484581 0.074877384505546221 -0.39787673888443353 0.21567220149512831 0.39465923537979652 0.22160642269015796 -0.29352244715559755 0.020429898135675612 -0.022188985540407845 0.046515815625802058 0.0052064351414944478 0.086150414565667841 -0.15865273655136369 -0.1034396984055386 -0.077723671155249502 -0.096249077762275009 -0.079398340468189388 -0.22667539856224742 -0.0051438325564088965 -0.16190201625660988 -0.0075419324206003092 0.13856457638736988 -0.24009038216268105 0.23305064832644831 -0.13491107316570852 0.19431598693241822 0.29668806521790475 0.35021754632571744 -0.28163366817118174 0.091434591725668715 0.18389072774824414 0.31831047420592978 0.026048561090986529 -0.1402641570440317 0.0022199293063492188 0.21910397988450617 -0.16361970562438069 -0.13219504567455337 -0.23315532683738316 0.075789821200594618 0.16359753849253858 0.17043759407192555 -0.22510165277132224 -0.047202073784069001 0.090064218598121346 0.036936989501074817 -0.27454670087207922 0.11754302486577764 0.025001417613868128 0.21971148642554178 -0.0085198644156641509 -0.33675069525668444 0.24894048187841619 -0.039313735033772682 0.0089311631264855102 -0.27058140134600644 -0.19439236082587294 -0.14738710435245078];

% Layer 3
b3 = [-1.5128831130034408;1.4477033314384224;1.4294831610531362;-1.4304664043362165;1.3441196958259201;1.2708130749120283;1.2324773995761309;1.1640401729920635;1.126816547980332;-1.1586026764387614;1.0172255036396793;-0.98110816099846854;0.91173080687174213;-0.93654281311570275;0.87848793754990373;-0.76947237497037857;0.62695388109032635;0.75163392793263017;0.63741790281030197;-0.60529320839123735;0.52752614154615607;0.45490884833356571;0.43133404567300904;0.44050226062409897;0.37989603620270118;0.2988434897260086;-0.26588033555456941;-0.13886952254963458;-0.15864351699378482;-0.11588840101226795;-0.15247645992032463;-0.13965346989052421;-0.028386974913794299;-0.10114542618273689;0.19050182295665888;0.10937765416976607;0.185658062667243;-0.28640602681769745;0.27024953076907549;0.38403030275583089;0.38466905053888528;0.44250221514894439;-0.52858111131655039;-0.56694426249601015;-0.51076416856737761;-0.65206356665396237;0.75788127124236493;0.76704207583500239;-0.80120184797365657;-0.88555462689640085;0.89657243310527956;-0.99192592184590467;-0.97159849822119582;-1.017325490146761;1.0942732125181662;-1.1173654075758814;-1.2220234345657783;1.190853107032861;1.3069305798073192;-1.287187342920544;1.3922748739919373;-1.4039887132096351;-1.415430818900645;-1.4954877208926109];
