function Y = neural_net_3D(X)
%neural_net_3D neural network simulation function.
%
% Generated by Neural Network Toolbox function genFunction, 10-Dec-2017 15:08:15.
% 
% ===== NEURAL NETWORK CONSTANTS =====

% Input 1
x1_step1.xoffset = [0;0;0;-0.999236759079;-1.97347577546;-1.93071977267;-0.999099813776;-1.94252544947;-0.998394869922];
x1_step1.gain = [2.00000277646123;2.00000418459133;2.00000068851941;1.00093797157423;0.509096722998256;0.515824607433168;1.00128578227308;0.514149213955838;1.0010215695874];
x1_step1.ymin = -1;

% Layer 1
b1 = [-2.8072498658476444;-1.3881719419364544;-2.9696397160525279;1.5212385650490872;1.1767112280145886;-0.90879967876353518;-1.4536306474052754;-1.8603762691780601;1.7936939665713261;0.95237249718118044;1.2575452189827749;0.83503106739037025;1.0020680319372985;0.39931349517530884;-1.1365985481253389;0.47605771426819277;-0.21605863116756482;-0.94642470517910426;-0.56736215280561431;-0.26138548854068439;-0.18130221249117534;-0.58204136266111661;0.14288376853570847;0.64444195506757729;-0.1438277531549611;0.44177398916158067;-0.17735760772549622;-0.16717932463959689;-0.42907882537458464;-0.31419369612843095;-0.85971865875972087;0.28700239978685216;0.1983168408749898;-0.96853254376039544;-0.57993169415529056;-0.92654967088075679;-0.55780602777599375;1.3114065710683083;1.5186549021074178;-0.98983198796164495;-1.5667034340458343;-2.7842445065796961;-2.5257237487074202;-1.0642654560092555;0.8428529246391756;-2.3527014557580475;-3.4308101361762979;-1.376704456373866;-2.981156277981261;-1.544118944758732];
IW1_1 = [0.0085211065236615452 2.1899781901249495 0.0083076951914748173 -0.00049699165593255015 0.29580260862205132 -0.037646042796931921 0.1969726690382439 0.052329874913703153 0.012025047819736387;0.84186841323021588 -0.069824022983088291 -0.030824301208209563 0.14219935179774329 -0.25968757014115401 -0.17050837660941764 0.0026440076897614176 0.059719662630855277 -0.028397358831426987;-0.012284239102110066 0.025285078827276642 -2.2203648087817935 -0.062287682385531645 -0.026190010815454457 0.97047203887853339 -0.059821235534020654 0.11658604420483296 0.0035375372014769509;0.038815686852441043 0.00026549274753511967 1.1644841283566494 0.0090830921216484128 -0.013508543982426948 0.20064377866483118 -0.015496660128347182 0.17429986357517471 -0.27494565196786208;-0.21231000832256336 0.022925303567829052 0.007002397342221571 -2.8759349170838799 -0.12455159801621546 0.34561749787940571 -0.13403266166120875 0.025736071611863334 -0.14835392364428018;0.045990797820367454 -0.078148153840593204 -0.46403486769502644 -0.014626926102752978 0.34315468382011011 0.74440480653656849 -0.065762019504143676 -0.8061994150073688 0.34551751972700745;0.35186971309711063 -0.21280091446289373 0.22613537994281221 0.016067123604830542 -0.10655048375070568 0.12717063739970971 -0.036050067871669852 -0.075486208696622065 0.033334308636909782;0.01707025217388972 0.22916684766435763 0.68204396232097508 0.017464315732551226 0.028366637022240866 0.0072148222740689013 0.034625046393477285 0.62656873419941705 0.019728328230403651;-0.0075732410075074206 -1.0721977431330119 0.0031147331918807641 -0.012615400214103243 1.0301024168601887 0.014192827469365845 -0.187688088754424 0.058454211106806278 -0.005222258955478877;-0.46653901963159833 0.017636723598221604 -0.018860463456421877 0.072856673317783782 0.023915833518115021 0.043745844706580508 -0.0022588191030455049 0.019595645435273028 -0.0059741506752995568;-0.0080067252999060957 0.092970435498026111 0.024789682708602764 0.1786355958098734 0.237092254969795 0.11240702253466514 0.55873451701160726 0.14387498367128085 0.097947951630337454;-0.059746157198077805 -0.0054538257600993765 0.020298930822637409 0.20297095545125027 -1.3142041130010331 -1.6526605493139344 0.064679169954229926 1.0743511723598935 0.087876146473261613;-0.066534943655378057 0.034682747704275492 -0.010833063710178337 0.40185040761450347 -1.0390437269318511 1.5213564635061252 -0.051750221311531369 -0.23007937014776919 0.1642013142682005;0.021622422953722315 -4.9771346608758163e-05 0.087523467824653756 0.0096602185704542029 0.048088364051832824 0.19738850675232872 0.3005583483077372 -3.052915938534734 0.51108460495114028;0.42336872372589318 0.054914109988998115 0.16476887011044125 0.056501577924531927 0.18751060827008523 0.63799025182221847 0.013132845784910667 0.1062852242853055 0.067200581787491623;-0.0027216368257522664 -0.00079970883079163654 -0.044222954108761738 0.06072430912982367 0.98436699827445373 -1.1417906351481402 -0.21580057170617387 1.3515129076498025 -0.12509013439097247;0.19135394623028174 -0.18637533834617939 0.24183272890648419 0.0047722124593579584 0.031396725504953808 -0.052752778663092449 -0.052852942437962319 -0.034938159241983027 0.055535192756471848;-0.011180015099732266 -0.011495336048215652 -0.012176830592330703 -0.17342717626572907 -1.5457078046453188 1.3575354442863317 -0.18881932382976097 0.97645391023013328 -0.058832068547527976;0.15886021607765544 0.28145328205163606 -0.042694971468193628 0.024167186806124404 0.037702042059881175 0.064173619384294917 0.025405481473659342 0.01852089850209749 -0.0053255253301228199;-0.068264703993583142 0.47545561079752713 0.0042631501345851489 -0.0063344415162129219 1.057650913656609 -0.053801655285330832 -0.078907464281784329 0.066425378214696573 0.0041340685684290905;-0.045741598990819123 -0.0037027051556946786 0.72752185965609617 0.015951076885928523 0.073567017636564994 -0.34356246965467635 0.026977719928458564 0.018024140178668446 -0.045694412063389159;-0.013202697345464139 -0.044154661971223287 0.037659400626873639 -0.044688439623390495 -0.055816633718557163 0.087718028340395535 -0.4556703716161144 -3.1373771432542981 -0.44385398442750895;-0.1209368803822136 0.13861089802884347 -0.17818537171077278 0.039056760325385347 0.1279606281798889 -0.322115450654471 -0.07610804906815935 0.20156288576003464 0.05168810648029043;0.036925203978995132 -0.20892581615487091 -0.35086521128830139 0.007893500939864042 0.029915986281716926 0.0024987277537250785 -0.0072220346756975643 -0.063238530650648231 -0.0048973737014611565;0.023429799419304179 -0.58691204435847033 0.031008896140950905 0.040546841366685626 0.64794285873731183 0.024608230980816201 -0.14517283733022138 0.31985685869981079 -0.020263413152362967;0.022659002870083975 0.022014385034443154 0.007034539795711078 0.47914006079353166 -0.10316274208073212 3.1952365289391849 0.026517629820621252 -0.16076446238837869 0.27317941136971297;-0.31787829186649841 -0.0062951442488458683 0.038466566915449217 -0.038983399331914782 -0.11022989859209309 0.47957524758413833 -0.012508182979934966 0.17152666019282323 -0.01821458894513793;-0.018197216239361255 -0.87973206051548247 -0.013890785144394513 -0.011298305804808246 -0.11175402957414578 0.045480904712318207 0.61503701341303751 -0.10946080831230227 -0.020651196351234559;0.0062478848520791577 -0.010994176530630775 -0.24063832706123603 0.05180985994755128 -0.04023304723978479 0.023632064767762844 0.046138886010694151 -0.098577480630065883 1.603808970139375;-0.17490216836754707 0.00064607719462736913 -0.0090121262892007732 0.43325215857430266 -0.088992148049274064 0.15345722149984339 0.057718685791829538 0.01035396522748148 0.054567778190665037;0.048417194007807529 0.38763175929023375 -0.017320906456428843 0.0087439480280476333 -0.22442052432823251 0.088757382620542558 -0.059703717880243659 0.18450822580924811 0.008823064499326138;0.2241508127289441 0.0035969491402469507 0.23090582508275151 0.01451526242396428 0.028769737597624859 -0.3860881089096565 -0.00029250732834463128 -0.12551446121081003 0.017055736975332404;0.21520401662025462 0.42981751319018174 0.10465352287543822 -0.0020262036157650213 0.27428659768077984 0.12519817916361692 0.026503423865973912 0.088583965515769969 -0.014089493488754073;0.018133244666769185 0.37551135028358368 0.026205796112086687 -0.0060039332732043597 -0.35484112183710848 -0.10526110234836644 -0.042475868564599249 -0.34711306620415666 -0.010031843822916896;-0.90526091790420293 -0.016567895429048553 -0.0083692743108140216 1.0813208260067448 0.023141584985454895 -0.30967707651210274 -0.0022754344545856107 -0.0096255949498156752 -0.07373141374740734;-0.0021045866088075385 0.051127454219189593 0.14702766679646725 0.055471748585871325 0.03459637277212585 -1.6325493246865537 0.012783468673896743 0.14897074334521962 0.028748007664223453;-0.00049898533776441482 -0.028229465437371523 -0.1826065453594275 0.026449791312126207 -0.015218666900139776 -0.28092429129448238 -0.061535744672693272 0.92626128607469893 0.077057446295394225;0.80568170262748473 0.0026993018712759241 -0.0043673400971234958 0.16506862609373368 -0.013159715031979173 -0.25868793397212442 0.012848456430529596 -0.024304397197057747 -0.01875096107318279;-0.019904123778184617 0.16067646640007391 0.65309966501958761 0.0016280527879329412 0.064824220967620902 -0.10505804848095544 0.03310286319718226 -0.093699709984144688 0.063369213310733502;0.0028760418154938077 0.044690164526899147 0.002048125299717372 -0.18929077324474178 -1.8453282135508362 -1.1283199258472574 -0.17432659042151477 -1.0185147152795218 0.031360337436199197;-0.057348355327632647 0.3191497978556318 -0.36627613851764124 -0.013367681616353761 -0.055951889273898749 0.054112439526057377 0.016363074272634923 -0.4871315818194934 -0.0079207818681902697;-0.016769795193717858 -1.9283652533662405 -0.0091422416645522801 -0.021338162805637537 -0.16089688031071162 0.013573288517526977 0.076836635345087917 0.62597401710789013 -0.013011053928851393;-0.0034430341205715373 0.014184529338397277 1.7554613123260852 -0.037429173821640738 -0.055506789316456806 -0.18762333020495925 -0.049425308705252434 -0.75515292161535164 0.15740346179942435;-0.78178072446837987 -0.06647424974588953 0.056194423436454831 -0.029797858412315158 -0.016392155840286419 -0.18361010278679174 -0.012215753398170806 -0.014476266990877278 0.0056659121135340905;0.024366452713487807 -0.38716530209542349 -0.010535116284391625 0.0032335975436014758 -0.2503580426229548 -0.042421579302757743 0.10787508127977596 0.2802882397032414 0.012226501723559534;-0.47356664669981796 0.46909095028901265 -0.35602885738644452 -0.050146043488574127 -0.4469768062238953 0.25894658764500933 0.041176583445946824 0.58193892972438743 0.012353658688677563;0.018017408627310164 -2.4283630404961887 -0.0107523345086897 0.013904286859541299 0.49181140849245247 -0.11109632188274556 -0.10364567598193271 -0.45857500770618481 -0.011589485636521547;-0.011957734095934062 0.017466187785128717 0.7570249492644936 0.011546362400897099 -0.015947897364168226 -0.22790014019892268 0.0059480839062906543 0.11387674216226235 -0.11555775207278574;-0.17088638857329352 0.20432466610530203 0.41927147434683942 -0.059720738879765638 -0.87918716610274239 -0.21479249736197487 0.046545763824661135 -0.2781575331409572 0.24323694480029362;-0.31202111724216047 0.40530820248389815 0.089264320773290079 -0.02362712738690247 -0.40176881448695045 -0.086113568258747747 0.039187478896842647 0.057413962374605887 0.013697462051860069];

% Layer 2
b2 = [1.8026830204674247;1.6696881559952916;1.5147347399272095;1.3918533222578535;0.98641974866387394;2.0078669355514038;1.1749439785386553;1.2201256969063048;1.04739446641875;-1.1330030800208042;0.92617336210076828;-0.78466697624046722;0.9531590633819973;-0.91806653378225356;0.014023441016641922;-0.63496201300845156;-0.55437303317458908;-0.91736314460876212;0.093442857214722883;-0.5999070509455271;-0.44723380612229113;0.17264559541479912;-0.18221805927252835;0.21442368048293833;0.33075162675807718;0.37719886431619543;0.2649914729905114;-0.37186724825173495;-0.019989534178701966;0.37398459055771316;-0.56733510910720564;0.63673236727981064;0.61054626632278031;0.61555285009846505;0.313436672616976;-1.0442905533557012;0.82316222546780271;-1.6376928587006749;-0.35618466289180606;-0.88253447574009181;-0.96878143491157953;-0.97212272377144326;-1.176633984813128;-1.1831362948888555;-1.5224964670465788;-1.5767355319481677;1.4716953654108773;-1.7464321424091207;-1.7650701105089017;-1.6453130608835655];
LW2_1 = [-0.020205703566694679 -0.08754618883491927 0.11381973956711128 0.16599008375455188 0.020333877102977911 0.035674656336643192 0.12742205210011143 0.2461620149997969 -0.26237288175922019 0.34681613761579599 0.028076628383435467 0.040963363393451087 0.0948535005603761 0.043111874913749258 0.6663598022095697 0.015389519559706633 0.15262515364192214 -0.2842684885538338 -0.25864709325904606 0.29674841259656326 0.089892193157928971 0.050231618610920424 0.35239346943504241 -0.32856015878684192 0.020472830314178504 -0.20833705416782614 -0.63663198435571189 0.069517107155554383 -0.022366513672913976 0.33858976527818491 -0.052716989643931914 -0.32221357300266512 -0.47056029055290949 0.01472718541217799 0.010349211824203029 0.10800898659309066 -0.30302894679470449 -0.31409190104671547 -0.087948973644355888 0.20913433505581022 0.097363964324116578 0.36801648511112733 -0.099224302744169351 -0.46333002651819605 -0.060310492876325221 0.33635259640313703 -0.24992755122250912 -0.11107130745910465 -0.46154391045961879 0.081239635871430044;-0.64734269383630683 0.48689789090238206 -0.7025118910889161 0.4006076192211197 0.12053960100263826 0.32985844191568797 0.43468191437952902 -0.1910594330913063 0.39977000356341291 -0.88669303022135448 0.039349444142855738 0.0087378556057386685 -0.19927173018612285 0.095514378079817386 0.41332029813497795 0.11255313545626569 -0.056720354106962551 0.12305999126657581 0.025859602333209743 -0.14121762193611362 -0.16118299887324522 0.095336600957013559 -0.3474692801600589 -0.36486774613274597 -0.36737493955619271 -0.0094373622437254837 0.18071428749432566 -0.054315414592987166 0.062129207469410856 0.087250619914696903 0.70867022472831387 -0.068426491838799508 -0.48083023364959232 -0.48502931200322552 -0.025605348873164069 0.18632542259922924 -0.091313665686877127 -0.29361812025372597 -0.097385528821229542 0.1389133015784777 0.16534407207195595 0.12072671164090303 0.14033092084780427 0.7582538112053604 7.4102415954665093e-06 -0.073534933847834882 -0.17965681165837291 0.077225658448901668 -0.33849815305854497 -0.12344499073802845;0.12408323855821786 0.8932674127755954 0.24840684548716624 -0.065818240847051582 -0.087305889047635421 -0.016191734881355509 0.34686282688296022 0.21381558385274288 -0.1950373974161404 0.14809783962563672 -0.38129973527833438 0.2060562577052876 0.031455805289005469 0.060856936088228425 -0.13569792196203484 0.060262769941170684 0.4982787878810836 -0.22388858787316226 -0.9916021401462034 -0.05793579999712023 -0.30467627983657775 0.0028886780112700522 -0.77157805504803001 0.27510017375538481 -0.25514620876841998 0.038306596924784823 -0.021896792758082234 0.0052508468375209944 0.052355703661514839 -0.9321967520245612 0.35179434484208216 0.79387326657835988 0.16616437121095989 -0.55507069385349339 0.02386363088640571 -0.12978222401466158 0.41389803987472762 0.87139060583049388 -0.34855141756945596 -0.3221172441188549 -0.042055009084345098 0.064485702620869806 0.38936164416245816 -2.3597884165792902 -0.41504036933737654 -0.49882701779179178 0.56138830912327331 0.15477978514281759 -0.6934947066581626 0.41570849754268618;0.2823022545013199 -0.098253272613865961 -0.15671938651703657 0.10419569880426419 -0.013402799709438862 0.095763515254253362 0.26183380788864136 0.26354789879896812 -0.28861350791920865 0.70977284441353283 0.17177354951444712 0.067431538252703857 -0.11512700668535787 -0.057858129937556638 0.090349477570795575 -0.23189736877221767 -0.03784723496931542 0.098216986010945653 -0.044499944828764994 0.30914181477016578 0.0042145931709793036 -0.080234419251384539 -0.36871422527650533 0.29490061189394962 0.30114347446948969 0.031347641485738355 0.0095518550048477712 -0.080208338569855167 0.020198590058292398 -0.1144665254060119 -0.23247639498158712 0.25621328782354053 -0.0034859027647259708 -0.26326512874511876 0.014895740597568215 0.34096244772723361 0.17426845910552674 -0.26317146079586501 -0.030586123456629203 -0.15088885395903381 -0.22973237227246909 0.10469979926984849 -0.61348881150579693 -0.12994096033086774 -0.54987877692126597 0.48364471281211341 0.34670571319768423 -0.301839542353187 0.10039710251326647 0.18902317149143222;0.49388523758739478 -0.45944528383196448 -0.395042347872543 0.0051356464544287375 -0.05130038463827874 -0.01806295037651125 -0.77645336253157249 -0.081946003678360427 0.69136157264673415 0.36916367118450399 -0.11115870907414743 0.055610914779164758 -0.039080768962227223 -0.15467135746935642 0.21212910502794008 0.021423688324971012 -0.020791609599765143 0.63506514436426353 -0.94145866766309039 -0.28383901772920944 0.09258979131596333 -0.14553901157097915 0.26277334158210902 0.23577785612910118 -0.73373783191252584 -0.047237460911324025 -0.10151361472603532 0.093280423753613159 -0.034046191970321472 0.50735442965222799 0.068949088208346526 0.48343511715575493 0.23981132936465918 -0.45165553660611452 0.013080516462763694 -0.58794665311348437 0.066592568712422487 0.37780429709373753 -0.2621259146470904 0.44895007517285751 0.074418815626374007 0.43701113506091471 0.16691214880233521 -0.353297785673165 0.039310877100397427 0.21654606839367896 1.2919955798625908 0.32535061334757048 0.65182678907464275 -0.2037326537346606;-0.82680947662364912 -0.29754537105488504 -0.018908940020772969 0.1690023227605853 -0.92086620809411812 0.081168430215718665 -0.2841075025671867 0.15070263445104526 -1.1223886630272715 0.71110114711725514 -0.69262984379633163 -0.85806933588555334 -1.3390909311995225 -0.04608719107684265 -0.11641603246714606 -0.57823601604220554 -0.31219271406327481 -0.76585645495547983 0.45119275378078888 1.8528294426996477 0.38323737997467727 -0.24454771138482514 0.021516625343425275 -0.049872744795112875 0.86877839599340978 0.45086911397774604 -1.3183064180677013 0.65111411347808446 0.016849110791735254 -0.49619107534846923 -0.39670582017194145 0.18482700345805947 0.62291079845249098 -0.70040342845894832 0.38071965512176337 0.27551520965794413 0.45137355277263103 -1.0846960134140666 -0.41158254509965581 -0.64337801130472472 0.72694271241924768 -0.36365413568343036 -0.45549148046249011 -0.055622455927041507 0.30303648315468101 -0.56550196843226397 0.98450799486364127 -0.49231128907663374 -0.46127280500946644 -0.31396485843450866;-0.28180450905488036 0.34052571784718499 -0.068803226779562784 0.18885498491679018 0.1286361195576454 -0.025418499689672098 -0.019633203995370156 0.24924556177544804 0.10242021768789619 0.059724416200323871 -0.26737350337864774 0.058876643600520646 0.27443101828173289 0.089761783922892829 -0.21283492972228726 0.15119097320912739 0.13706661375502963 -0.12279513662065615 0.15852346857189287 0.067179931515428198 0.014220633062527403 -0.050843571895940617 -0.1692568443162718 -0.11685020912518743 -0.049056728111520981 -0.051887299486422379 -0.34249909864107608 0.10575029135864666 0.013626102396464565 -0.03386090145925217 -0.13810168059680511 0.45742324818435109 -0.20153124323134275 -0.40597093926593758 0.060366426166323248 -0.13616380304722789 -0.13323640005155926 0.023926571869716695 -0.092865379192302061 -0.10485304043892942 -0.36930566236300322 0.036656705977607902 -0.014360281265270069 -0.3494281328888052 -0.14234895988775068 0.22633733081629731 -0.043858502731139129 0.20138014344803667 -0.30802232929158702 -0.1548201568381519;0.18750341239236423 -0.18785800612394546 -0.55239572732182207 1.0542450259305434 -0.010081484612926385 -0.080009606477455517 0.77324837423557502 -0.35742962186216592 -0.14342152946136111 -0.14656858820386773 0.079200215532649415 -0.0759252905259723 0.12133108105786128 -0.19607967384141314 -0.11297692743533594 -0.073605622947742713 0.58716512608805449 0.36585439928025942 0.082570826347647827 -0.16071925674014104 -0.013821761292057878 -0.18816220234733957 -0.42695096242507796 -0.15893551628631758 0.051552344667892783 -0.016993062470727818 0.2592752424499119 -0.056795730272748951 0.24716114484278803 0.01422193694346823 -0.095875526995283136 -0.13156827275771452 0.37768923173583535 -0.098139849337315108 0.010714130045580705 0.20031957053061236 0.45977254217775099 -0.21867624916221862 0.68914309167381227 -0.1936114637289269 0.33847929148623024 -0.50568548349266318 -0.2203929796958313 0.64511063441701499 0.10926851975590254 0.032802109485164065 0.3732007051903059 -0.20320903249470976 0.16666870098515349 -0.27533564100833424;-0.29534565297162058 0.12205317258699049 -0.19766303535381086 0.18878406997120761 -0.033951393478028336 0.081228589735780204 0.14734935591762299 -0.16355936770931581 0.084309507657236757 0.35243629259057591 -0.15215398865592597 0.099625086369375129 -0.23840285893123764 0.071187386207058723 0.22406613587414825 -0.16188254705422306 0.050434967683097305 -0.07804678266846915 -0.17678078246661777 -0.11312852060959304 -0.032149905163623996 0.12245839830235873 0.14063129198667476 0.26229209257101338 -0.082115132865387144 -0.0989169145068831 -0.26185062330054232 -0.13239566990355878 0.044109079365761111 -0.24286981381415221 -0.034525544195480894 0.1180736950961544 0.10921725210234916 -0.35273694022345503 0.047154319185369775 0.0020140559040191285 0.43495519198778604 0.35400554971465509 -0.28356620700542051 0.0524098336907644 0.18974982983996636 -0.31250868403061349 -0.33908326995706994 0.050861365484690238 0.37451964833275092 -0.26273960988124756 0.22147329106037342 -0.25474949023789417 0.16825251710327888 0.10976343910201999;0.16581663109331199 0.092199674033527954 -0.042911102018089654 -0.21104526009823721 -0.02354717102792896 -0.041614095350230147 0.13453325161291174 0.45994777463717729 -0.19577524232335847 -0.34642396346395915 -0.18025539684387634 -0.15881684229470486 -0.039956353624920754 -0.043250917802013594 0.10022308074544438 0.051432557031284985 0.43499272439896242 -0.15122288200457512 -0.30149529085021298 -0.015657947193029331 -0.19334330227529423 -0.017298455484291354 -0.13645233772832246 0.1857415818701304 0.84958190197183103 0.062079003759669675 -0.043303421629154223 0.28938810479862581 0.019489256721923826 -0.29563599306860439 -0.47440110347506415 -0.022814410910438506 -0.10753095634886764 0.38923159988845657 0.0022762860055275413 -0.058776145606215996 -0.03342049875694203 -0.16154936945484696 -0.3639703821354795 0.048167771146330599 0.033257288256170844 0.056846450359871063 0.16116427453181051 -0.53396390079879053 -0.022720383834001517 -0.10560779583233253 -0.1202059795840013 -0.095161526095830215 0.13684615603064607 0.33131584623460619;-0.17964001045963338 0.098434996934563451 0.033894612192061961 0.051097241683174956 0.02989944268196593 0.12827082204797868 0.21845361382244641 0.31266441552357577 -0.068252764020393028 0.22943213032238627 0.037491034632716518 -0.0063032483997001862 -0.0076687859402894045 0.048475692040282216 0.18779318180031604 0.085776116218754764 -0.14158830007986459 -0.00038818945755253681 -0.048932666594727246 -0.0058367887050512976 -0.21965364897399883 0.067463565711492743 0.33495238290637497 -0.50870866790497937 -0.13188960752759196 0.019709433781587449 0.018456470385137761 0.09817223639348327 0.0017712947091209779 -0.02212929227998725 -0.27589100737597555 0.14954171923594911 -0.38524432647306628 0.2724671666064219 -0.035283779264258901 -0.010900348640486513 -0.063029761588920055 0.086274854009450397 -0.051183772065799889 0.053152640699806068 0.14946308433483119 0.15623523435153197 -0.23380871261297351 -0.23297798501690178 0.10894525251103948 0.12685739245103272 -0.2299479521773074 -0.054768124814936946 -0.31155557911768139 -0.047393411324709353;0.10640714432741802 -0.31668176313758811 1.4487037968677441 -1.258000980432384 0.052812164949466472 0.20917352802822553 -0.33147774561490012 -0.55106564310108908 0.24270220700266892 0.015102999269947607 0.30373782799347576 0.46567866784782597 0.11339980032104674 -0.29925323227341083 0.41720729500973636 -0.34740475754539446 -0.60847835377562265 -0.3654380153259103 0.14821211938743603 -0.23152640213369077 0.57660722788118812 -0.18759503528625587 0.53301412437003182 1.0915895179336321 0.22591131888927302 -0.325706560052477 -0.16541389692039882 -0.18600358724802749 -0.29764108395322364 -0.13569857595509599 -0.53250586173904324 0.079304362505981441 -0.051612808414241707 0.62728754290417754 0.043054730587964121 0.21786520933725306 0.56674214467223305 -0.072848419521928109 -0.94322733082198951 -0.025478325377323294 0.43316602084286238 -0.39511713973517715 0.12001033543928598 -0.71430872069034068 -0.039122857072430087 0.11806225592902457 0.21665268974530313 -0.036257867756420613 0.25940473734224667 0.031974791429065327;0.072029719674068043 0.22725113266261363 -0.49847944918426673 0.031790829232876468 -0.012943949582634324 -0.10362658299372647 0.13390938766846941 -0.60753149082294666 -0.33484092238253288 -0.22441247144834001 -0.10667336616069235 -0.03657115158173023 -0.04757525753584458 0.11799028723775455 -0.14004340695268369 0.29901515267973633 -0.5152525708507274 -0.35281792770134951 0.33076704233805576 0.075258401948333289 -1.0887856605461441 0.20541982017592642 0.055316797863090655 0.66534254314154617 -0.42797514523547442 -0.13287218910687701 -0.97162547050099002 0.1156455422700748 0.14827065654630703 0.04313524723225675 -0.10610784243168769 -0.14663043310034346 -0.59405464223238524 0.11310152548705406 0.062054232453602171 -0.17952115812260275 0.2730963475343105 -0.31074808582492397 -0.034632938587281462 0.24105413370724948 0.18070765712553855 -0.16789901352486247 -1.0873600965764152 0.20047128391155367 -0.13912685597511271 -0.078197431887929367 0.11656502205330813 -0.92722772995589575 0.13392518678344703 0.17817561546957142;-0.3367969661373818 0.039966660433081551 -0.39730302727087263 0.28996829241774036 0.022082513252256079 -0.053177529762107975 -0.13455920019073986 0.1238247367184957 0.43660462741591644 -0.73250163378839261 0.16508164790548363 -0.27715411506253862 0.16776310100809053 -0.26728386081906341 0.56017383296084478 0.25761963358622209 -0.032238576984649513 0.036771829592615372 0.15486262193451636 -0.23893295671805281 -0.054294359900770063 -0.40618122721400579 -0.037485259348581178 0.41178576861118266 0.096931439239099401 -0.10679463600477637 0.068517806239636089 -0.023462154979246887 -0.018368247975845724 0.13608754065869194 -0.0024883877981224573 -0.17386906332542504 0.49919695390887903 -0.13483938999247949 0.10504807144747147 0.21671599157233815 0.10331151035015748 -0.73081674907626126 0.21906674586841685 0.35947664371227339 0.076609582166167922 -0.29835384930912895 0.2710920583112334 0.42541793047802501 -0.14287514835645634 -0.029262355196411897 -0.35144484297834544 -0.13614628050890218 0.53471922139082073 0.21509843325894612;0.2375655458006416 -0.61756452302703857 -0.16073350380054757 -1.2858061351719017 -0.17526296839580191 -0.63359299282470305 -0.2755165313229585 -0.1451268844004702 0.028604174249740391 1.1337580851273268 -0.070550619761560143 -0.22388199298753025 0.32567417177116714 -0.69250845878401035 -0.96817325801477783 -0.4615940155885101 0.42226161067391843 1.2475077604022327 -0.49456099641854034 -0.092148570844335906 -0.2469741322823617 -0.65012837714055238 -0.34972389434415274 0.080952115559315765 0.18567904775073654 0.82108197123094895 -1.1226330378307283 0.037367781711702117 -0.11136244719331043 -1.3317362940867943 -0.11439742397101252 -0.37075408153427936 0.40706381188228202 0.41266784196923045 0.19276759496024823 0.83361397220427702 -1.1245491083935395 0.23044976571412867 -0.22767434522714028 -1.1983166985916156 0.45891973251724549 -0.62152874386108281 1.2349668509552707 -0.017149336003666887 -0.44827433523838556 -0.32907599653486802 0.80571757483674189 0.38574671139077471 0.72372362712720884 -0.16118333654330361;0.0014043253528305227 -0.001625535651012951 1.1769559229610172e-05 0.17209053734482876 -0.017714439415241316 0.16603961283060903 0.041671908886718644 0.33063483784939512 0.13142340710550271 0.56043390669949966 -0.24010432206880256 0.25023541728670762 -0.10635197902150317 -0.14247559085696551 -0.021445084803181698 -0.010224436074144352 0.41044127755069987 0.40615736076694647 -0.12528342836188719 -0.0095593497511605712 0.62396889600392635 -0.27721401747376123 -0.84485339106133472 -0.6606953360032527 0.35328405394579848 0.17237232383590526 -0.11316213905247198 -0.12031625980459293 0.69759313730594708 -0.1701962148176949 0.066865126772916131 0.50027792709129126 0.4906904100022505 0.083283692906724729 0.037434358276360054 0.17006150849240767 -0.64747096956252281 -0.27503395688754739 -0.026920339189650599 -0.10906939556233503 -0.086002271363496738 -0.32711563626057066 0.3558160385251124 0.39507007190023991 -0.088053396619351632 -0.42391378593550427 0.46770928322617478 0.89731993090553042 0.092149864043217872 -0.11868538433073822;-0.13934613966795856 0.11737989020601519 0.096144703831582495 -0.39623560394657836 -0.071862807249463131 0.096198690816711813 0.0074193784946863586 -0.097284961583221349 -0.22580954545662377 -0.50425054189706886 0.30064304412213294 -0.010484138615459378 0.19756500000405097 -0.34696641435328152 0.23768733882529233 0.50779630316268487 -0.28141931643638946 -0.14035266368066671 0.54657490837054856 0.72251871642394527 -0.13273134823704652 0.064499174176400526 -0.18034093974967103 -0.27403980468542044 0.30314489303214259 -0.14655934471339474 -0.18001808834339877 0.28396682025479147 -0.025554230306818321 -0.30070490826620622 -0.35014029856671308 0.35669703374050771 0.10328051594989376 0.18706128513470463 0.1537682297458261 -0.19112700912892661 -0.098594244881314616 0.024284630038549485 -0.52735132168293464 0.14836833441477892 0.10046091830351758 -0.081088430866792238 0.012069311010889301 0.79155808179756248 -0.45144566610055248 0.010392311258416673 0.028384943311004919 -0.39193321548376558 0.21440221829436043 0.043304352124308811;0.3169174313365215 -0.36543028548868384 -0.41179742289200555 0.42185579729787337 0.022338283337663713 0.4761254306659371 0.030497728045276853 0.028750454537995518 -0.12802767714392604 1.1317940041544716 0.066059143833155171 0.27154952406787136 -0.053223725741538649 0.068196562866558036 -0.039232431858717873 -0.11256156686539535 0.12538011745655669 -0.2681713441254463 0.076678820361587532 -0.1472011008073284 -0.091631873173146541 -0.086413140598252294 0.052839099109491097 -0.23632222751089912 0.073412372902012427 -0.058908818914247221 -0.14442114703361056 0.15847251756084615 -0.013138847943283724 -0.070011264792789907 0.44282713322845635 0.16684324598267988 0.13409162678096209 -0.36876378263824194 -0.013670479142180895 -0.062961018294879323 0.5783036826955158 -0.1361455958480092 0.77984733974711085 -0.25780266539232033 0.8353831496578713 0.078986169166892606 0.75904357018493163 -0.57077798130935375 -0.23042815538541903 0.21084385383858736 -0.044581133068674533 0.11997735292670378 -0.069054167680884071 0.1612907692909443;-0.45216192435365776 -0.13735230953214364 0.31879654782271394 -0.34348262239523797 -0.023605169938431311 -0.024113339159486488 -0.047755232657292403 -0.22287081630833641 0.10497643099521779 0.23508386504865389 -0.040901304483076932 0.18355562882707596 0.035720142019131547 -0.034052066862627954 -0.26139434894582675 -0.11440374236458535 -0.27365062148090052 -0.053941630615782429 0.0056882655443051718 0.0018919237055679582 0.2181331580933272 -0.070135870047509347 -0.45113254912736006 0.1047850194961803 0.21507413958124014 -0.08897691102795971 -0.09614121924391808 0.016959368305440526 0.020577200552898963 -0.17974376609982159 0.24032138103351833 0.064962462083698921 0.16742619371663195 0.020536822936914424 0.021116998702649131 0.10043430440480779 0.19171474066073863 0.20554446804247756 -0.61782051063503451 -0.20122033902193348 0.13392194364562149 -0.39060539350105944 0.27385752318496454 0.11103551156589969 -0.29299798830779128 0.35214017387580798 0.019736289995686874 -0.057363102955188594 0.1849622684247014 -0.091997175495832875;-0.4239906659529884 0.45792753782434714 -0.53509146970999333 -0.032030411446443766 0.44477306928261962 0.2229730314143584 9.4696723722090438e-05 0.041396616824846924 -0.43766617492583282 0.010477468801167398 0.79788525963574408 -0.35589921094961291 -0.10378699910471791 0.044499883800473948 0.10363458846276102 -0.31777125445002274 0.18268908625596381 -0.58466758621283677 -0.41300049107245029 1.1797217637580422 0.33954887815371443 0.11933824054744537 0.31034272669582863 0.48197413152006691 0.99459049597128435 -0.0361303232120678 -0.27941097025657691 -0.42983574387405998 -0.043834432627665072 -0.15448930355179816 0.42080019822273629 -0.3028245495055607 -0.21245344509705935 -0.16609283595151378 -0.14327913250115745 0.23001227644580971 0.2615683186078005 0.020755133802587707 -0.48213144514869738 -0.75670765245416438 -0.34374121114268591 0.72012767492332719 -0.0027965607038314376 0.36263460326451286 0.27935068804812607 0.36674545052073454 -0.60548025684177398 0.11063599780708513 0.33194361450016918 -0.43094379590566656;-0.37251901153658629 0.32872527897357867 0.095873438081456583 -0.23971899508340949 -0.10819863734401824 -0.61099048543073009 0.77767523345403389 0.96962959213443678 -0.59814092177104683 0.034405123957792272 0.19434755629133935 -1.6352741624617984 1.0090249150687058 0.88328526409268304 -0.98208571132185185 1.6083415865033894 0.6621180265315918 -0.69841712129569911 0.58274349059971342 -0.57140439321746173 -0.58773235574536253 0.86784334808776109 -1.111408688118374 -0.18542613110653339 -1.4488126761717153 0.75681897252780816 0.74315172014403641 0.10692293850280243 0.038356969419218886 -1.0584951811923151 0.030491580467180417 -0.82106190009449076 -0.044158819152874798 -1.4557563515624465 0.11750205870513596 0.28637092179527324 -0.015670821284759159 0.12999790225625979 -0.79732761658333762 0.59732911833453395 0.029774546470865783 0.79712972584372777 -0.40522008710933338 0.19354300816435238 0.68709338786925078 -0.28786547325053569 -1.4645561926107045 1.1770297021556659 -0.073948092008543617 0.21455239770353693;0.27195533514370795 0.013369633739579617 -0.074454806815650934 0.17767320576579831 -0.043165289352925983 -0.029660284172401179 0.19202053917919054 -0.0085543045243284734 -0.0081273784076562518 0.42998244438078609 0.049368941726328705 0.022315475417970507 -0.0093306712249170577 -0.021003631238329577 0.076150147913415317 0.023249264633592295 0.3571962950532917 0.018517128345377668 0.75158093392406133 -0.10410941482686156 0.055833391683495305 -0.023078902615785022 -0.080014773614471665 -0.19440178170871247 0.049405083690020932 0.019529702705160155 0.032525763534995554 -0.027208852883828044 0.011736356945073403 -0.1589824636450565 -0.2998924042612921 0.11182233162099332 0.24707491674751328 -0.4799275880427416 0.03946236185128487 0.0032064979655631828 -0.064983597475566091 -0.075267643785042165 -0.12721654270518354 -0.0040893610824738183 0.54108596065302117 -0.0025615370239042527 0.011249681494658144 0.25910784557162891 0.42447588816190751 0.077507713463075015 -0.0074891676071598958 -0.2927355134788257 0.29202953728706638 0.36387708542900415;-0.01473794482634158 -0.010905638526088878 0.15593509530309582 -0.35156060715950832 -0.25577029262775391 0.095157392367172272 0.066129353115313483 0.48571960614990967 0.07836634611367814 -0.026376660804921889 -0.15250659003034775 0.64421905863237616 0.55059701272971218 0.021679949169066147 0.1772206679016686 0.13498413819683894 0.0016054601027529914 -0.090130904406641968 0.22199491931918333 -0.20809701786699836 0.11031656206931309 0.078139355825078818 -0.077176225058794776 0.12331724721384396 0.12587442711980765 -0.13173812973668292 -0.1918018334193578 0.029000151703846646 -0.14068708851872552 0.040429931486955895 0.44218652347447862 0.31868142234124575 -0.035396056134941158 0.46112501793189248 0.53868222998439752 -0.34921341671149775 -0.18068494473047406 0.31271602280320204 -0.34280623304637814 -0.43037472930643417 0.28135632121877668 -0.044317099805632323 0.61329219176304994 -0.72250885073456972 0.014715895943120049 -0.16458192244300726 0.10380762916129078 0.0055516785026675092 0.51363050607135152 0.14004610082740934;0.08369338251856645 -0.13600873027294741 0.044970837061077108 -0.38559292174870624 0.10146996540842688 -0.12422492931774162 -0.22388628650814993 -0.21841687413696662 -0.25612924229765044 -0.12266799403102999 0.70540316525782587 -0.04306951608071366 0.1266716256762683 -0.34871775765167246 0.043784503813457762 -0.12879958383687737 0.0049250369163036396 0.094949239135928371 -0.23257500360125349 -0.020878964236465569 0.19087950557595135 0.20517220677173034 0.36012612681861716 0.054880621573774595 -0.084887865474394503 -0.18043126406691337 0.02253790695526783 -0.061504594825675274 0.03695253310147293 0.14547807531640122 -0.31333232960454566 0.30133215602826291 0.054572582863404197 -0.35761406564265646 -0.075590981858957171 0.038247709814528637 -0.18650751051437955 0.03454772150936028 -0.60259774451343739 -0.11258493662972498 -0.19981953568056424 -0.17003834430052686 -0.095246831638044288 -0.045154054860557707 0.13519025077075431 0.10373208304333348 0.031477253728496066 0.14463531049626627 -0.021923363317484998 -0.40524490061761903;0.045560275946947448 0.012560098412162633 -0.0010468728869705017 0.070311519719219576 -0.015765555574850359 0.021720297562522053 0.24613429795300415 0.1647297825456166 -0.0069700814494718794 0.57550238333890269 -0.058874835121292352 0.009183236047695803 -0.033610174906894982 0.018783030270168862 -0.051365860830426373 -0.017554521897605018 0.1952214414396094 0.027094321285144378 0.46070521710527873 -0.012564271372502937 -0.14682805978929353 -0.014463986965610518 0.12927906065506833 -0.38504519977161622 -0.010264552596075576 0.0061751281439228062 -0.055687071057860756 -0.028167713455145738 -0.0056713394186283161 -0.053337952809249939 0.020704360977980386 0.30307087985340514 0.043730853710507771 -0.42950811437721648 0.0071603564529839278 0.034203988112390914 0.030346887873696916 -0.24319676337294599 -0.26009193279714632 -0.04879948569202347 0.52350304964368699 0.012347894657020655 0.12734412203005382 -0.08581482588860323 0.60145952282035531 -0.076435505006732352 0.1982856722445005 -0.46748508785904408 -0.13822028761717237 0.078943952668855108;-0.24089267535164055 0.94032680769619137 -0.42248092283970412 0.13282468963973063 0.092312730811634033 -0.018307358750686197 -0.1739532047634384 -0.1297540447774152 -0.77499995375385611 0.061112850255202675 -0.26860236851404223 -0.29551422386691573 -0.29976624960371506 -0.17866606510476082 0.31410949236822461 -0.69549077349516586 0.42071972589419993 -1.1104751444152248 0.14777702483886315 0.46574275190643954 -0.12140234596398433 -0.16243801307154671 0.13616992333578559 0.47605739546840053 0.21818276712058873 0.035404139440829673 0.33501684081659616 -0.11313827985585816 -0.067041782527084148 -0.16888620889143843 -0.092327396170053228 0.29916321935537898 -0.099911672195026613 -0.15074734791179956 0.072589070286981472 0.33968045502365701 0.85279320473485043 -0.43061738187159976 0.16841561586740231 -0.81583268046978485 -0.38886788704463743 0.2265435429154756 -0.16838430505207166 0.33673195188328653 -0.05558681771330426 -0.18056869053664157 0.49424741580774434 0.24240470172173501 -0.20466723517163116 -0.02845812076430031;-0.79335489350927368 -0.017057699460790887 -0.10594170739839306 -0.14664417356309897 0.011545216451485514 -0.093261968803138875 0.55693376148740337 -0.20296686280331697 -0.15726166165359284 -0.38172397013926984 0.11483855216181078 0.022002862965632666 0.044200295602831813 0.08121305303303869 0.17620999794526884 0.046103977715750324 -0.6577780245375815 -0.013638141810462037 -0.70865889153313855 -0.64217792209658342 -0.2031554396385104 0.01816340830737919 0.8248831312836139 -1.4532951036916295 0.16169630619875697 -0.056904972700716289 -0.027118446398549639 -0.02635922005156454 -0.00079688902736673806 -0.11695756972334924 0.17428114108019918 -0.36715820447801206 1.3488940527084423 0.027329436641731174 0.019968863324234167 0.29678185705844667 -0.21650669095425407 -0.3907331409278828 0.294347199331222 -0.084624731014436211 0.31944171255199721 -0.80138078498181087 0.1152848535572194 -0.014165783468833303 0.13635952483412189 -0.25813728375079492 -0.44258425508151716 0.11647578883226559 -0.26462023045425903 0.20029389983486448;-1.2710544776054815 -0.36332015858396771 0.36142029511740514 -0.090195048379553985 -0.0094141615651870177 -0.49996746859730545 -0.45166756006239234 0.03649432307577926 0.16998242972400279 -0.53559312972686191 -0.089422577045561669 0.33690726682676719 0.1886477260476235 0.30684779104329568 0.64721449286388355 0.38145691392045439 -1.3143183398697591 -0.70371018423145948 0.60704081190099091 -0.30262100026800087 -0.23430238351181679 -0.50740857106325599 -1.1979293019915846 -0.14648164893161339 -1.1976358954095727 0.0026315326759541384 0.28237782868144429 1.8718494536103358 0.12245596034092837 0.068174916719715456 -0.23340750645513239 -0.49259173998060274 1.5041737605789185 0.52092808700634197 0.015000936685876475 0.7842058039642088 -0.46055511860666526 -0.65104854411137414 -0.082812327732414689 -0.80727915631062086 0.24948384722294398 -1.0995993360694056 0.20185762350960976 -0.12592044798979388 -0.5126771391970536 0.087200533130231211 0.30030336709615141 0.2420195398720798 0.59126860956345206 0.27009359705125074;0.27553536598519451 0.50952650724155291 -0.23742581768273674 -0.12708339740838806 -0.027518253860176492 -0.38445791474462604 0.13865930589076605 -0.89977862115057261 -0.23000987490493766 -0.26820003464405573 0.23185410551384253 -0.45796443796703123 0.069043366388926428 0.21637970911010412 -0.45242868239800349 0.11928940609315652 -0.061537982073815327 0.044436037178470285 0.2636490860768641 0.22562874266979419 -0.84604961372364396 0.27443841429166504 0.30390879266858606 0.6420528136995145 -0.28924496929983295 0.13239609887542708 0.12200344300552524 0.059714259714361353 0.011996325537300637 -0.18059973129827722 0.019926426067386243 -0.13275250550253662 0.070844354795416259 -0.52199783536758704 0.047930944600353319 -0.31000241893278629 0.072085583854050103 -0.19737602113044389 0.19856986368419302 0.041406278966030524 -0.3690136839629804 0.43414793075946662 -0.20426108610106497 0.15868697166278567 -0.18448171224084867 -0.18826720156910728 -0.25192081594300936 -0.64113603069508307 -0.26898163718689849 0.066297382499820187;0.23621977804083913 -0.049134069453868931 -0.016946530162046312 0.28461453170716838 0.15618770699646087 -0.15019318680295726 -0.34912755121004213 -0.11799174073856868 0.35554278330605149 0.019283294840367293 0.20423622420898321 0.39099339401962907 0.029441962044771525 0.080852775152295442 -0.47201771824155792 0.058086958313123993 -0.18742754760170199 -0.40276788685138432 -0.13630622808259801 0.16202888224423045 -0.22620531530506696 -0.33348087647474595 0.38235669291763336 0.063556164414302327 -0.034207821809605257 -0.064463869908865032 0.1728928576317719 -0.01703462265864536 0.07856455669696899 0.072863000259986974 0.11210016898394981 -0.30541637572156477 0.068848386765659936 0.2168324958038079 -0.27318471467630345 0.034272769082241313 0.29690600694556318 0.10083054744786427 0.21064028236718368 0.057829084641146687 0.17682994217843251 -0.26911134655683022 0.1025535636695958 -0.1507044384208196 0.2698809957855452 -0.26735970912596313 -0.14031355890436692 0.026679257693707985 -0.18581785624691244 -0.32392014027406985;-1.8615153625821517 -0.061144814243183084 0.13128900940960819 -0.28479650173873733 -0.0054588665773605315 -0.48196978376154964 -0.45202799048575093 -0.40444391623012066 -0.061797156255252873 -0.31571618818142672 -0.43899805105192363 0.18707856914389062 0.081964644519864488 0.17757036878628041 0.56457044682111979 0.12240706055839465 -0.84332446169423203 -0.52849393092231467 1.3427050300834609 -0.078341368235650286 -0.13426726846845169 -0.35137952991967264 -1.2265134882599598 -0.49096852026331816 -1.024541894535645 0.0062810709195210979 0.1116216228763304 1.4875103128740499 0.075578515002772656 -0.16175606591911323 -0.66475230213786973 -0.92376237600542499 1.0348753154135146 -0.20348808288096759 0.066736018051106877 0.84854424345327129 -0.18493714819586407 -0.35182786710269748 -0.043359449655989195 -0.64541821243220077 0.41796783634214651 -0.7841052375757992 -0.058785715982958453 0.10750140561365103 -0.38521894042130744 -0.31994502517632084 0.86127826624621795 0.23448853258617411 0.42529249270261499 0.47067270885480278;0.032382831020287245 0.12906899190424145 -0.024151891266813122 -0.053746553445949322 0.0090792649107021648 0.015644133314625937 0.176931263502629 0.24745304668993057 -0.063131967804876093 0.088464837288128179 -0.018475375172644748 0.014000322469662943 -0.07319111433217082 -0.0062500872212038049 0.21757224990528168 -0.029440104887325638 0.050182267690700236 0.073670780792912838 1.3622255164880654 0.086017687031027967 -0.10280033144502253 -0.012577737405239564 0.036564795944181522 0.28429671419477448 0.080926666517872753 0.0067673761555101441 0.31421947127647815 0.0023869914371394498 -0.00885709715620496 0.036694495680073054 -0.52263960456507219 0.72695901316915734 -0.44098682495134583 -0.21574609805455375 -6.5114038156778193e-05 0.041914856884631785 0.09832788186731721 -0.31273865723406058 -0.19783441238041646 0.031526369650521441 -0.028721288908955773 0.025935722806255276 -0.074886221498537894 -0.20755610654405354 -0.30345253772646069 -0.156984007836065 0.081488776321036502 -0.18277900487817364 0.063314097623524163 0.57378899330157673;-0.0057714678180658518 -0.15485085020195755 0.041276002492172469 -0.021634127490008179 -0.06388708345091125 -0.15840750095750183 -0.12250196927380634 -0.17370047133439059 0.25001771491808905 0.32131334156341868 -0.099463732105730659 -0.042852440279477676 0.063087611441108443 0.23934196531871677 -0.40034135371188312 0.16289918595348074 0.10979103152358673 0.15206321049366067 -0.041614719979235409 0.4061170336202683 0.21424707360083922 -0.24635490221008316 0.062987451481316348 -0.015766581004104829 0.1815868620277635 -0.11187877906435757 0.071764809301897367 0.090614054913044362 0.21745186953606854 -0.32918694527463688 -0.30650120421112542 -0.23628077101695433 0.12338280294906744 -0.17865637475813609 0.29739882264911344 -0.48584138985194197 -0.0057826546606664329 0.32983702337450199 0.14132553815153034 -0.29942511832787122 -0.42524536503787513 0.070681807953239847 -0.13790975375018896 0.16184457594861706 -0.18265389014985067 -0.36835053055860484 -0.21773188028877088 -0.37483237373546002 -0.48789856195369474 -0.13379655573241322;0.35773982924085213 -0.33418611493120215 0.045293122258317955 -0.060963204039331191 0.082941721639868973 0.025769391811321679 0.23474305097311443 -0.23618072470529322 0.039634164216212818 1.1383519875982868 -0.17470080415700862 0.22339850889876928 0.37495724835021793 -0.010094204160447658 0.0073534190024755978 0.048138363181471418 -0.086142832952799925 -0.09858257975440117 0.014602614571068304 -0.0062023522058374803 0.099501517279635909 0.11275420429188955 0.015081215663486145 -0.45569992742334148 0.068065757398174304 -0.24948529236042513 0.20806249349198966 -0.045557141778255567 -0.012989500066550162 -0.36254408579090058 0.12694788080226183 -0.20776081785234535 -0.24869039167884952 -0.03470314530351705 -0.43135319360109453 -0.11040209334205975 0.031045850694351635 -0.0017622371491593813 -0.026804190856930008 0.075622034091387458 0.16961546244647321 0.0048024635406764601 0.25499449529257273 -0.22311916799117409 0.1017055750930919 0.12555958880045692 0.0061508944526241175 -0.31131212860410545 -0.14692172189624875 0.31545217543960063;-0.07306142873103337 0.32478338526310613 0.66120406354253125 -0.29029041298133307 -0.5002008835981766 0.074360845035182893 0.013456240458873779 -0.18799803287505687 0.086041158871362405 -0.077470466966733736 -0.17298783131152107 1.0221269020807999 0.050363507897057389 0.063708298246512821 0.32298484278906386 0.17591851855255933 0.47962139380626467 -0.95870712623636178 -0.13366664759956653 -0.2074269568246328 0.11905381173124908 -0.076719162053236076 -0.013091158474275996 0.20494696226774964 0.15024854318702918 -0.799978449412862 -0.76824010059482273 -0.25238958078415635 0.49238543486501374 -0.91746114509836241 -0.26150202245018211 -0.11515892778722721 0.27003413115324582 0.09705179908734364 0.50017399876980706 -0.3619004475285682 -0.390796928753396 -0.29891189865746581 -0.10899428640791557 0.18407661246685472 -0.021392744947410832 -0.4624086568492744 0.36562457041725432 0.69958467335845731 -0.16937328875326715 0.066913883603862426 -0.17536474140840164 0.21242757311795055 0.3555651459397241 0.28108578932772593;-0.0088614081373352208 2.1881156799675305 -0.13460163714272635 0.097566694742053345 0.036923046320970307 0.17447363101747768 0.093905588471151019 -0.11898369468499778 0.072300165158242474 -1.1079896964989335 0.41010859506880459 -0.044243477040315261 -0.013806654861645286 -0.062346082406816036 0.81132367628083957 -0.18531540474840516 0.35650098853812057 0.41761079448339783 0.89251221977835826 -0.0086695051915348965 -0.066325677419403484 -0.0026145392116179414 0.45694376257221753 0.13967913951213767 0.446432355357678 -0.086128465085683503 -1.2271736434369989 -0.032112019759540471 -0.024333134247523761 -0.084112531630201742 -0.44992409580440679 -0.27940420621367545 0.82185392532520996 -0.30034803487061884 -0.62775804469896523 0.024851283079636209 -0.27457297480221032 -0.56293879718863793 -0.0040205807441851989 0.31570112239327713 -0.89039402040376336 -0.14764049493279391 -0.35075765301494438 0.075826505494161436 -0.073094580103813131 0.0028703194951359436 -0.19009325098586663 -0.039209427192009393 0.36073696178037412 -0.32257157617605581;0.51882124229196669 -0.31736217418743429 0.1937700825210103 -0.076569770977332599 -0.023384641043512226 -0.0802254127392001 0.31857133277906458 -0.25555836383083519 0.39101087023906839 -0.14217966423666781 0.087612539164427405 0.25893650366722021 -0.14628609593142514 -0.32333960557545527 -0.10620557116329127 -0.32473678550131918 -0.30205141678954434 0.28657722294439414 0.16718505670636871 -0.12393642790066092 0.31397892929388155 -0.27870552893636036 0.60606681299964571 0.12024766535416437 0.13609609796078362 -0.022666776076360175 -0.24024349639449633 -0.083074308988053985 0.04970772290515129 0.024105713860523428 -0.17247882850815502 0.67203071222949951 -0.082712473318094407 0.55445360765792873 0.006035471202659114 -0.046022199647984798 0.067188604337461114 -0.30094302092545433 -0.12363317570618729 -0.15819735310395633 0.41891628733338926 -0.28420618211941917 -0.28454660322198316 -0.093817584219284614 0.3744576141895663 -0.54901515890541464 0.97305756678045263 -0.35617510098160471 -0.28130095247482578 -0.00010094717645523518;-0.049163138541780109 -0.074408954632916413 0.015158330751211993 0.053849276439708653 0.00010862475843963481 0.024093889539177012 -0.58339270938849275 0.023516450421452381 -0.050771498113007359 -0.2959634708936742 -0.014760936982576401 0.012053319991104499 -0.041066084819585361 -0.0046975791252009133 0.12592424393240861 -0.041582054495025174 -0.03273681268588359 0.036677493617033693 -0.35731284081519776 0.028888093654316056 0.10385121154908476 -0.0039522643075172361 0.1591949761427304 0.45806055162865494 0.065058699066651363 -0.001124463724305954 -0.13269965974638587 -0.0062578948510336116 -0.0029569358913275382 -0.053860070242318397 0.37739431265460699 0.07229786326268528 -0.03873008223486283 0.31757371102589443 -0.014472819222246315 0.05136845618220421 0.054407076982431343 -0.035099464751058865 0.28446146367763425 0.0018380697036953783 -0.20990156657984635 -0.04268959274244509 -0.044207294437773187 -0.3619060035189427 0.22228399119265979 0.081444183622595312 0.055614036330254982 0.22159049005640771 0.090491270093948473 -0.40594653438750722;0.16780888621900575 0.22115619315211754 -0.045416473653754251 -0.079044138339284517 0.052080339585332161 -0.013171226407379477 0.18723481573953749 0.18030035103881839 0.066933366641807338 0.44106690827613965 0.18803096433412467 0.022912013205009241 0.073809309757582334 -0.08450825351151936 -0.16042742192382489 0.031258039120884817 0.57650476184929167 0.0024737269290418707 1.0086159953837888 -0.069526862061811509 -0.072243764469978433 0.016098451540337996 0.44532384265627228 -0.16303975970732648 -0.054358483390908888 -0.049475476369117061 0.65089498135833213 0.074217368315527707 -0.0020636837646342944 0.013412003634640542 -0.21214714254109135 -0.023923274616656973 -0.042721287232246663 -0.12015049872775677 -0.059878589055511994 -0.042073333884225496 -0.362510660399392 0.49780635265339007 -0.10715281035839193 0.015534264370774058 0.45775080477766639 -0.054794464007583241 0.061039243109889028 -0.17957001824824428 0.43197290918445391 -0.13156187394586277 -0.090246642893299922 -0.13121636955144744 -0.32228498683410134 0.41127965740164546;0.016624430314826716 -0.16908279107159105 -6.8576863647702631e-05 0.55549364894147557 0.019189088470123388 0.10093232528430163 0.48844602299776707 -0.61550585674265479 -0.013950368404011908 0.34332457862709875 -0.075523983340827688 -0.012560732368690625 -0.02736945556995591 -0.0059667111214832067 0.1988304154500484 -0.080354421372791432 0.35583690393745582 -0.023689278410733077 0.3520237907961894 0.1840965062118578 0.29968015540667897 -0.0040319586356246957 -0.3519641125543298 -0.2523953434131036 0.062771800977745471 -0.026112026636406931 -0.37713130390775645 -0.0072150738634182915 -0.0023840857790937164 0.13062566401448336 0.38495787575393242 0.43377816933980856 -0.30332037039823939 -0.20800326314369857 -0.0066273362099322193 -0.017084497264753692 0.16296988561970549 -0.014140893947292545 0.08667576092799377 0.0066617019674535165 -0.23214737524061144 -0.049203962815146732 -0.035646719423010544 0.25546139219531822 -0.019620481443922536 0.17108378782398792 0.092968541097232085 0.29940208572027988 0.021361473760067601 0.38914054144869681;0.0073655180826333556 0.1840577225547177 -0.26035453288183652 0.095678642256138216 -0.015087642894694898 -0.12789303023225854 0.10741014882260283 0.020758590165129487 0.1391828531871786 0.21197417961910966 0.0034429251875550274 -0.20529214277632329 -0.00079321708703670969 0.17153517048516315 0.38938320999454051 -0.24180822984703912 0.26299984301749069 -0.20311705833220292 -0.13165835490112213 -0.057584174153805061 -0.11832474449139384 0.18218648611954419 -0.69208064049827944 0.031049920384535541 0.75534292965076144 -0.2757496708512141 -0.1969528796647172 0.043175383509983706 0.060539273519603344 -0.079653461068819931 -0.26365145669149093 -0.53385067977654954 -0.59868762197667391 -0.044991586740307475 0.064346997669929962 0.18995954770109963 0.057082833967328959 -0.31591171723726058 -0.59198476933533051 0.55998550688550552 -0.76863069250169713 0.15551294753140621 -0.26409299037745737 -0.12318779133541159 -0.085451305364473817 0.16434686841331975 0.50484508148676932 0.025253021621232524 0.32869331782946054 0.31757976677692856;-0.048474598537031975 -0.31332504250178217 1.2927123359749522 0.43282465642105433 -0.083034731729068778 0.0023132047924545335 0.0057723171862859137 0.99803301452297422 0.37481452029058848 -0.21518249141715945 0.026774964247183682 0.57719684165974761 0.26248347188887156 0.80450442925151733 0.31625053245724694 0.75907487894776826 -0.88330635907086419 -1.331697735370192 0.22919747835271173 -0.35333385047361959 0.19212700554285636 0.59261135784422247 -0.55530358890431841 -0.007250463919860067 -0.090975367978653576 -0.61198270391253728 0.017829645997769563 0.099215014159307155 0.28720169304454202 0.60245466635031908 -0.26216702818878951 0.073989109846029841 0.26770562934775349 -0.039982235040345072 0.038341115183014203 -1.1264160162543355 0.56800788052635875 -0.070973398848816219 -0.328166837390096 1.2228155147786905 -0.028129326321023791 0.13241398576954716 -0.61339895854270066 -0.39180479830805903 -0.018378369160566191 -0.070175040326634686 -0.63699333590664975 0.38540966347848721 -0.34814212368770697 0.11263822584198516;-0.05029141180342895 0.28051981929182801 0.088459047934594567 -0.34174885240780611 0.17441911493197595 0.39238222091134034 0.085054078101955172 0.095124891020493041 -0.36109427821820511 0.14081577642271376 0.045226115157519321 -0.010467338619197747 0.11807813635711213 -0.15102341467269084 -0.11628388693433321 -0.40781129926325438 -0.17929491224801422 -0.046109438852200799 -0.059455507578426936 -0.34114733376507422 0.19864939200574616 0.35837493980979368 -0.3539234328610284 0.096401650027472988 0.0023443373312815362 -0.039474658234673395 0.28875845798060812 0.2581653836057215 -0.080469503954263291 0.18176918275726781 0.27113482517635862 0.064876735801735697 0.35610220778250318 0.52520952141426624 -0.15082622368241397 -0.10972413927021583 0.36924377344713488 0.23798314376423543 0.051961630396083869 0.010576165725858448 0.45167094141547454 -0.28912215211303932 -0.11002274795983458 -0.024988763288424965 0.12457458881178901 0.27786561725959574 0.257443874782598 0.18281855241606709 -0.076270288192291646 0.15093340521916557;0.01996449502410853 -0.21240171021299281 0.04890672194180095 0.15721793620984251 -0.043158817035332663 0.13908663944700128 0.18570509054900822 -0.11775240817561812 -0.26547406127322637 -0.23804672059802193 0.032585590341234129 -0.26478655765953502 0.17114003988456636 -0.35189887881674975 -0.015782203673315804 0.10562982810346379 0.0037891971797352339 0.32045416927921944 0.20079730907080226 -0.013622699082118271 -0.12396748180565191 0.48437432596483271 0.074317251059494355 0.38790686318041068 -0.25780427603444317 -0.11764794772453217 0.20147173908926425 -0.31153002759931542 0.026159430619611953 -0.024767348335569449 0.39399394760478357 -0.019754558463224697 0.15534195106436291 0.2599884462505726 0.18175618517103492 -0.21923150930575114 -0.28242804629552182 0.22627965289036039 -0.18189670843226174 0.082953447011913845 0.11496068448963571 0.2601039518238995 -0.14420170139259589 -0.014737193742529521 -0.23638516325701586 -0.081956788178435019 0.26174546231219253 0.32900171258012628 0.381397785619778 -0.074257178752847736;0.50145540881489059 -0.13608715677568853 -0.14995743158070557 0.33866013303246989 0.22807477140257396 0.029335179771104697 -0.29518832263427291 -0.01043783440180758 0.084839229274008554 0.72311664150226507 -0.64298710933128389 -0.067767039826280698 0.23664828811415198 0.068311653191165597 -0.054670356834832672 -0.0012335917172663332 -0.20647597445059773 -0.31339153232447636 -0.011528668040813417 -0.31024018210250454 0.039947246774556452 0.016702708195866615 -0.25835333506877811 -0.17116663341867899 -0.0075467204808321187 0.090303747191094283 0.20319050150557355 0.099970931268410279 -0.0098813967224005792 0.7441852351197813 0.19878533965755202 0.22954891784352321 0.050978854910769728 0.3595949133417542 -0.16958506431258191 -0.30241119049975207 0.31162293936826269 0.68460252246269671 0.25055584122022562 -0.11243559409309435 0.52113208772147745 0.11988721064376293 -0.2491166105075272 -0.44590022471184193 -0.12164656127448846 0.70439605010106521 -0.073493838011590346 -0.23020292842704496 -0.0074259539328473279 0.064755727314403169;-0.649918561500748 -0.013296937382157644 0.024125079168375849 0.071385439820876376 0.0037814451437470434 -0.12817020394586415 0.088245183426460275 0.35361919981508688 0.13319408109580266 0.29137205139791023 -0.028751721839687768 -0.1217093920261265 0.066701769158228841 0.012414893173235032 0.074648521557020356 -0.0029406470090399392 -0.045461694001428778 -0.032137069181259664 0.53181689505880225 -0.0077596695589602456 0.014662246620344661 0.046400851294118022 0.4463529049854662 -0.016798436987975913 -0.011182223545689303 0.020051086512360785 -0.0013430229778518192 -0.018674762737117524 0.025633470552646413 -0.029667953562910531 -0.81593394346104542 0.16214146957727077 -0.046617326209824679 0.30617328328986804 0.0069966266830119766 -0.063866990867968862 -0.036138427417253989 -0.076524231876231114 -0.053882256474007038 0.03132346061093827 0.040780426106140286 -0.34272839537693445 0.063880293116631737 -0.21449720837255443 0.66230462126240819 0.1295714342916634 -0.45348354557404352 -0.10996052702016383 0.047506438734956045 -0.00052652391900413959;0.31086236830705921 -0.11924646060471515 -0.97590041194387578 0.3027169158661136 -0.19953952013504372 -0.65229966014816954 0.70229432495252786 0.065194013961662731 0.51766542271720539 0.2942498259400998 -0.17293728031076241 -1.3798263904030994 -0.084205859627361102 0.74903824001948383 -0.51844771692947844 0.90263607617224029 0.18188609156628935 1.1603945623312308 0.21133884561438285 -0.78379590106848074 -0.60628871292429831 0.7673309282537899 -1.7206977197896143 -0.41453271069824649 -1.6476596838011945 0.85718701721187263 0.28602378275795898 0.1167012761304612 0.032309990457373948 0.50679020731505997 0.12903723504553105 -0.071196151748218917 -0.17002120822464403 -0.266345496130381 -0.077883361929811629 0.22061848861242092 0.91965410299637951 0.31746899729950701 -0.70418840050271159 0.66764023062569167 0.043191069253582418 0.58021959097920572 -1.4224674643255482 0.4447049409627013 0.5028353352460907 -0.13926615670577167 -0.35874029002339652 0.42613887484460622 0.21315499275675978 0.21379072697045856;0.26785782795982011 -0.57268038502100416 0.0036767591735289485 1.9579266173860121 -0.097789833557500552 -0.11697075156312754 0.77779655111431989 0.20971853172962951 -0.4592206807669183 -0.49387053653895369 -0.71261807777927799 0.40778835131430913 0.041037740991684245 0.46064372516128221 -0.79423422290860013 0.64623362779483173 0.60778184556089676 -0.3879161799816534 -0.5947097206729437 0.057415673332617004 -0.75303802474011017 -0.54822852769336006 -0.041062122931556505 -0.45587255496462287 -0.45238132665756081 0.44545493236586969 -0.20902782180905685 0.086945852165339801 1.7838822517377793 -0.73682313851556513 0.24192912932792246 1.3640364786214785 -0.62286739197319096 -0.037782878296996295 0.058911863327030724 -0.96660062899116661 -0.26602057750850394 -0.37786289045075422 -0.22247455148803102 -0.039325361800428386 0.053866498492309317 0.25789897287906971 -1.0772449684103549 0.6141312040449507 -0.95518680440281556 0.49417029812898455 0.36005797633413028 0.61709429443105646 -0.29407611329507816 -0.19364468246034927;0.47147488314235364 -0.2259701993296096 0.082392916240046646 0.1250157486505282 0.29532708077334668 0.46864461236709948 -0.15783747419865118 -0.061562139305047059 -0.03723465464968001 -0.30293607496651359 -0.40357136459346865 0.46308215626189236 0.34095308160946558 0.45980576819588609 0.74138065947113585 0.67725531967799346 -1.3523010326219402 -1.2359396671028153 -0.41149409073509052 -0.31216724378528576 0.63655004923019232 0.40293673760484638 0.70386185315550343 0.032476588539193031 -0.5359549694218686 -0.61778508864095638 0.19347649301576761 0.23829633845423517 -0.4493282522615919 1.0564624406856422 -0.070882844494872158 0.60388741523642697 -0.25582918187100867 -0.57529770604045416 -0.2253176383888903 -0.64267519360303182 0.17337117768328497 0.26042633903972157 0.49276013782386274 0.97756446236482297 0.073073775496833707 0.74848999340618561 0.25235558128992136 -1.0092141538355694 0.14728157664317604 0.86935876846932936 0.18519790078343326 -0.60286548642040882 0.16847692787931706 -0.05842389029059606;0.00039492484748722943 -0.071097087757665406 0.36829257189403303 0.29300747251605208 -0.44574481844363989 0.23503868502410616 -0.21634260804089725 -0.086606602128028398 -0.33024099419308561 -0.21699517628499504 -0.14915660420732499 -0.51651797296157909 -0.39651165197662219 -0.10037847653427567 -0.1772794343202454 -0.044277881733823854 0.26703578748100093 -0.022195019107731945 -0.081763141727946687 -0.16707652089011546 -0.030397360237257913 0.049028569559723609 0.15763831821158983 0.20019136953846428 -0.16567982029855075 0.031996791274434631 0.1283759852542691 0.24613543426312126 0.3211652337832902 -0.14215520954706201 0.38768229812578153 0.2056882415010339 0.042583537621535626 0.20991940767570511 0.015061223067082876 -0.074753168292074623 0.17179664700265768 0.0025499561971564907 0.25125081243646452 0.069578314175623129 -0.047246271533068471 0.048678874884984291 0.31470805970192345 0.19048279307883967 -0.26670373518641394 0.281988129191166 0.2224240774559377 0.11518924825501808 -0.22068971901579498 0.30921042022747863];

% Layer 3
b3 = [-1.423780940835967;-1.5293034119133586;-1.3783339638609351;-1.2958463847596069;1.1607934722340669;-1.2042942346957057;-1.0629985917116662;-1.0804023569990027;1.0249384591835831;0.92438496702457973;0.8959668676639263;0.8318942535075613;-0.91927358605122966;0.61429531132381565;0.52644378532207892;-0.69025370524973162;0.37914591773545703;0.50568513266661774;0.48310428976861464;-0.25072714133294655;-0.28983807380074023;0.17820368185057256;0.074146902639623535;-0.12766987644971672;-0.094406928156174158;-0.064950794308705456;-0.1477211476703954;0.21639383456828337;0.26286806971309468;0.22038786347627887;-0.40803812425466368;-0.41670237984462755;-0.53713814936352822;0.47819603169069824;0.50672454755210017;-0.49063542844200964;0.73920865474398345;-0.8254304373259661;0.90172217615087835;0.75288416518217771;0.8137764286123006;0.89802713927765132;-1.0660917825774907;-1.2603976905252858;1.3535521678667362;-1.2392648519994653;-1.5406889363590055;-1.3487030243821749;1.659755034393551;1.6068658234631721];
LW3_2 = [0.51885889342410951 0.01989526448097741 0.028991284820029429 -0.20891464108653815 -0.15943881966942286 -0.14747425744428949 0.38146206777363489 0.079649291786757601 0.36497673380632151 0.28382648936448662 -0.21164376795157583 -0.70485220334090426 -0.17829396617588178 0.040131493458670377 0.05543225557941793 0.037730795766436231 -0.38617243831319414 -0.025663525084747354 -0.72633582720207179 0.041324001332897563 0.070577391642861448 0.10436545950335938 0.21781752865196691 0.064480163040380359 0.3286010480542953 0.036445437401627874 0.26007861865170873 -0.037561344887905079 0.34610242159244081 0.27983274337645475 0.20560060307942662 -0.44889902095469986 0.31687133567381365 -0.46721889962645219 -0.12640834355948982 0.1969505839748838 0.26529338619650894 0.42141996627005313 -0.67915126232120138 -0.30454900559034875 0.10261583300652541 -0.0043968245186492717 -0.37166749781361741 0.24129520942574964 -0.69169578857600522 -0.57189103755888204 -0.099934842070198898 -0.19068090360992074 0.23106783440073589 -0.21077620353368942;-0.080639100134650282 -0.012809430956482444 0.28903975022631573 0.32972506638849808 -0.0788253407719198 -0.015488647052540196 0.12667132383601684 -0.04110530667830508 0.25322110165084094 -0.035697470470236352 -0.30835605296166663 -0.094504509125879391 0.20009180642502516 0.1480717757205888 -0.18588584402343183 0.53092132868923536 0.043149938310349086 -0.084582785012929665 -0.46587728250568516 -0.094792290953889483 0.28161756177600011 0.1431650033706916 -0.032553463262394118 -0.18385705965417515 0.57506063971011667 -0.0719020350561594 -0.10158169917751833 0.13419136124226402 0.43591403507559773 -0.036226661036005234 -0.32929012926919926 -0.36811059040507582 -0.32609175296050802 -0.29663748864373213 0.066972866307693377 0.044900224869735356 -0.46660722756659506 0.12859906427777912 -0.26573278302623815 -0.14821368993829478 0.024975031979117122 0.16371337312563769 0.36179880027796635 -0.040852218695287656 0.098165076281273814 0.4805402258424275 0.16088734361011026 -0.070050911108404154 0.050395717393263359 -0.12143196387614956;0.49889060753004688 -0.40268913441583137 0.41134405299008314 0.22558447378393381 -0.33043405075509297 -0.37158996284108531 -0.26053956981010995 -0.36252294861764373 -0.24758773089528369 0.27163886532999543 -0.27929541936374275 -0.03601368536306037 0.17435493926281306 0.34106822241275908 0.36043105162346967 0.12853266281008724 0.26967907430084781 -0.019428753077314832 -0.42853587577506835 -0.14248006122073451 -0.42967209038258508 -0.024876514585482744 -0.25098356528168525 -0.20873969078867885 0.0089225686345242305 0.11454218397538919 -0.54858316895668247 -0.41666217695138907 0.079948614130300091 0.095752962082302426 0.40542739754935447 0.098920917247992013 0.094282340702577391 0.24548207700101235 -0.065628942463779705 -0.48365731442750148 -0.082720294100028985 0.36463024838376673 -0.076432359061216121 -0.014042110570624235 0.0054958601369590413 0.43593781981512403 -0.34827042976001454 0.10656017267913408 0.2348240235594535 -1.0126209969072917 0.25310120817649506 0.079372696159893605 -0.042390880724843906 0.12521409793080132;0.52948353316662988 -0.77576925466316515 0.20429707259551055 -0.36091088879751199 0.15807162045178311 0.51367305501946625 -0.28163320124718827 0.093298053405546408 0.0085535149596954914 0.083379712615254772 -0.020944121763497244 0.046417081037407992 -0.70739531220715757 -0.03415144018152088 -0.67646456422680745 -0.10194185908690898 -0.29900223762509098 0.44320337476495247 0.7466541682670369 -0.35898323700006229 -0.23577736050831627 0.30987901336996815 0.10853929888597284 0.30871768016051065 -0.31459564562699438 -0.72248453699374127 -0.22485678450797458 -0.21939881160882449 0.51081127527010006 -0.076524155004344313 0.16534119612087964 0.084094266824816244 0.33233089946880912 -0.70950808760112749 -0.6527036718108471 -0.57482506562187541 0.48232669197874473 0.60094036403217188 -0.81964304342811456 0.30461253249318321 0.010162358032332145 0.040922442068076298 0.009399075256263113 -0.16851069739323857 -0.37622508176739616 -0.13027856494047321 -0.53475812750577856 0.19121028048841485 -0.10255247284065921 0.23450508865000244;0.066382620354722435 -0.20427965595697239 -0.01603166244991611 0.071816194157958799 0.02330129223664448 0.1546302984261787 -0.28977800269652104 -0.010906882661831466 -0.23289170004474255 -0.012017286097810286 -0.057321467556249721 -0.48046533146181897 0.18037655152411255 0.10403098196126924 -0.040073684897159893 0.070904466365159666 0.24858007954154007 0.19598702875424462 0.13199151130739842 0.11592401383654424 0.062316920086871862 -0.30943020059151455 -0.094988232656767688 -0.036123335319900439 -0.14464121268383417 -0.072032835815796392 -0.10223271150298975 -0.068216840549554389 0.41825671514301954 -0.23929626148347757 0.11350662159767955 -0.67306656358509065 -0.44924250493152273 -0.053498378290199024 0.033838173787795162 0.4814790681413898 -0.33942009823935648 1.0601806875047883 -0.47887493494189137 0.14986518768410109 -0.24073896309741441 -0.15425163658877991 0.24640564632085826 -0.07651313450797681 0.32744703683299098 -0.69161216282936455 -0.066715746664462311 -0.057807072253893518 -0.21744702465096502 0.27568767600673483;-0.13890956325691184 0.24476903129243496 0.24937050125439222 -0.064311267197988131 -0.24177268446609937 0.021419859212517895 0.23408186660338942 0.10989013631757989 0.0012809322207485761 -0.093121587836597269 -0.28992406835640283 -0.020019716598778114 0.16805349683996823 -0.36400815447074736 0.13799119592937947 0.0048612079511863868 0.15679538344320873 -0.20640732719817587 -0.259878799031241 -0.11840036409997469 0.14596792327023711 0.14522520982050657 0.20708269977246588 -0.12735660108838889 0.19583952814186512 0.28117954362710279 -0.11463865075125469 0.10206012868097046 0.073296922853003474 0.29794843106949553 -0.16034971166813641 0.21828988758788409 -0.00089209888471823457 -0.38413600052000807 0.26747569888635075 1.424402729864751 0.024315913102416112 -0.036872458887619981 0.39215671248363582 0.056482231541089452 0.33139464780203964 -0.014471048638618617 0.00018645079739678327 -0.30901850957237736 0.1166372358042027 0.063157311678466527 0.092281526595678232 -0.19575916301650814 -0.033660223043341993 -0.049635711608683124;-0.070663223676066492 -0.14739513197677401 0.34989166643898406 0.068732453435304389 0.064341287878221326 0.12330819945716681 0.27360103490086679 -0.042008168871951551 0.25242472256454845 -0.26472497640214848 -0.010203379189339555 0.075454439477517413 -0.022658143781328195 -0.1770657775265099 -0.15494364854205556 -0.00099873781239065971 0.36188939437759388 0.32994807446120128 0.31367524031059019 -0.17242192860724911 0.03228299685394187 0.43233575278915126 0.16027577016956909 0.12778145232114155 0.55357536022980414 -0.21685472710894904 -0.5089390356621446 -0.19052219324702102 0.08038529694241657 0.031801025843145619 0.20805910781645548 0.1801811618198747 0.17608455124639971 -0.0070107103136616156 -0.072013870197164737 -0.30151708691123319 -0.35162250303433146 -0.092343295792835595 -0.12541698168069923 0.30029024908274338 -0.060271580509168525 -0.035163852144639206 -0.35344070468692851 -0.15779160963005512 0.29283946352731449 -0.21494853107423761 -0.10457444433354111 -0.0093217799021419641 0.0026934995877486343 -0.35589378893962903;0.36070641824310967 -0.053426480167397636 -0.17092102173941698 0.24401954772233633 -0.22820866186321356 -0.39477458360553647 -0.15730941882446237 -0.0071349163883003396 -0.27277383406566069 0.051206520601538894 -0.13391288899459833 0.18910732309010128 0.18747587426921031 0.16878028953851681 0.21541026179389358 0.30338533657331201 0.2507322832702194 0.19069734345198439 0.4750413895425587 0.30742544739683658 0.19119571918205497 -0.14941161889575552 -0.079826506688092116 -0.23219330391973866 -0.25193674578039621 0.14345874148756854 -0.26266743530836145 0.054275321412713899 -0.30302914299749972 0.14403995802587183 -0.19368195404106325 -0.048660200488890047 0.16335099489833324 0.082433511917272814 -0.11263946692455833 -0.098873334483565278 -0.54594518050671104 0.20536994796915786 0.1859973031221929 -0.27464587961800641 -0.093159256197148044 0.049821443290796394 -0.25874595698260183 0.22513228476880087 0.24590470185660676 -0.30423325662346024 -0.1975515429110915 -0.044800524839374266 -0.083180319430828625 -0.15332387429503808;0.081834989470332936 0.25513606707430964 0.47571116434758604 0.0017217549728779024 0.14280299697609283 0.12534262374608091 -0.07672406711050668 -0.33240871238432995 -0.080961375615905731 -0.042879502490854961 0.11570978092373288 0.28352891707623035 0.19306198764441207 0.057315413359048356 0.30460269610701324 0.14709580985206847 0.22572725427965493 0.44187103414118972 -0.63663858055855393 0.22946917598969888 0.25954004951864246 -0.53628391170820344 -0.40017620654909519 -0.056924303342005489 -0.21741721380568876 -0.23412149356058284 -0.44343737446983128 -0.057144698284454551 0.069595396090175954 -0.28556553816766955 0.23259979764361494 -0.33260313256621732 -0.20840191219558951 0.37134630472910263 0.73881986450538606 -0.37068263797965006 -0.31798906646674469 0.34376410589478879 0.20017012403945933 -0.17066056837527707 0.15910108848618801 -0.64046145585025749 -0.14014818927319428 -0.3976309836717154 0.80478433995098442 -0.18283113111198687 0.44215350840440576 -0.45131966293689313 -0.57701878792749828 0.33532233931172828;-0.018027894527754097 -0.074440867886768083 0.17458775554211506 -0.60156464605578475 -0.75246483516477869 0.18501534631875011 -0.25774163756940338 0.22199717881532335 0.29849342925006017 0.079289568584335626 0.21062714670395599 -0.20967545325631659 -0.39482781225766539 -0.050219893095218952 0.75941947612350413 0.057860063198575534 -0.27960057048743447 0.071522358096264713 0.10080661410091479 -0.8874707904871636 -0.32564179978808505 0.26736961457702957 -0.041098059674664136 -0.30965166950370066 -0.31927097177075786 0.49285305364201432 -0.4987007399225401 -0.48456350080492733 -0.031664986631244875 -0.13840263800264604 0.26212647539321621 -0.1597871654699525 -0.20541505243445082 -0.50761141761382045 -0.045653607410862294 -0.065545392654330265 0.59259429747258097 -0.7940234958938297 0.16301752713841508 -0.22293343334449747 0.45425429704471271 0.4673033643802072 -0.32881549235271146 -0.20176075894482692 -0.38329300126115601 -0.67593778144859906 0.72481172386648673 0.24339484134177214 0.16756481694219202 -0.09135825486773276;0.28624010390694377 0.11771212198323101 -0.5156628752463206 -0.53050210291417543 -0.071885255214611199 0.050252715292382164 -0.27423556822214101 -0.72048219163585303 0.20584598347683492 -0.036157794547452451 -0.16207758890062662 0.38736448835003445 -0.97413782718149766 -0.30443851183394149 -0.13732010017478352 0.014209578397108265 0.012739244149264471 0.3111282005771831 0.010745637927578827 -0.096600060272912749 0.16273872243125909 0.13187753437397193 -0.16922234036444336 -0.023505637710199381 0.22708871604090364 0.2162007610056533 -0.12294399335339418 0.13668764907583142 -0.28249168965698196 0.029651257219449178 -0.29267787073121221 -0.034451354017332271 -0.093009451707801533 -0.23215052881791967 -0.0077393822402349963 0.11988081076644587 -0.60517198127475347 -0.63550438733007864 -0.11129009205264939 0.35289367965684021 0.19263574032806013 0.14393372285890529 -0.17689104588518087 -0.32670367172271247 -0.13409820416175836 0.021337409357126743 0.021953902970059939 0.061314608795032019 -0.023840893691532146 0.22234976011746568;-0.11730872749121181 -0.40396203516751678 0.34112371775220551 -0.31966013573656582 0.078646411875263944 -0.083263589579122846 -0.23777568866270915 -0.43112687179400772 -0.30826059940039441 0.10843708354126703 -0.026855092183456289 0.19649518585144427 0.11690438619092769 0.29503154907786322 0.040484305389960104 -0.47950847843320493 -0.13216534087486545 0.19471122144522124 -0.20681242889825188 0.076626090138122729 -0.068136438620742618 -0.24240410332199411 -0.090170738677928172 -0.28323890189802053 0.35895706724559018 0.064059997656952555 -0.48900275385761066 -0.22595637408763117 0.31547156666459591 -0.24177947595397362 0.57249155116964634 -0.041257532567334734 -0.044134781372679947 0.20065411782669421 0.017570520918724557 -0.27541013826579419 0.55910379657097697 -0.46827915295940681 0.13819227932141676 0.63215082534502154 0.26228208664839442 -0.20061966239747711 0.49160009972538038 -0.12911507831967356 -0.12237349339047209 -0.69613377874509885 0.060891038983300748 0.28977304471887444 -0.015222349974656197 -0.13601078686065832;0.1444902945645716 -0.067993028652374221 0.69967777591833613 -0.10541038832449788 -0.14561338478566391 0.19085569432643268 -0.31834246638886199 0.011841889996892918 -0.15881238198261977 -0.14280927842060856 0.0050522828589091842 0.47530004182124441 0.38736043158152839 0.42821275730356045 -0.35996766880900583 0.12766082544765855 0.044914566426345177 -0.40358564132251057 -0.31457337043720573 0.43166624484822819 -0.37589586888859927 0.20988870456480319 0.12478968837535845 0.02763257483604098 -0.10382483926967592 -0.10910722939274906 0.090340822705462259 0.05949387007174315 -0.32929757535673476 -0.31364985538774964 -0.13688955736503755 -0.11709127984373223 -0.34611128524244278 -0.44762000621860887 -0.080065065168903229 -0.28147578281186719 -0.20143772633890722 -0.35679381611672867 -0.1379288586018983 -0.051300233022509897 0.26975165090958414 -0.017456118112884229 0.24214335671469231 -0.019028899190916593 0.071808785554338131 0.086757909840412595 0.094301560115636784 -0.21078522826238313 -0.19167253278375138 0.053694336213550159;-0.22888266699614337 -0.27994844346278963 0.86011411127226733 0.13595676206852858 0.091774511691600447 -0.012690212397577109 -0.056851305456303805 -0.00011831049102162472 -0.18800363556270738 -0.049831112223144014 -0.31328222929419197 -0.52191703938887191 0.3377422836742931 -0.025717640408266705 0.81500024471942911 0.36071134025378032 -0.032528635002687108 0.30510982961427258 -0.15914677026946489 -1.0988394910722241 -0.39107756660832244 -0.037001994223986708 0.00020605246497115107 -0.21296253971851303 -0.082471155606581414 0.84817918668418479 -0.08379668926890052 -0.46840764976718979 -0.16555042058480118 -0.29098315349767584 0.18514869603236556 0.073721879057710826 -0.019818855757851587 -0.134613087117992 -0.32737460398956786 -0.44879889932551142 0.1951503332303276 -0.16286028221300383 -0.24276986133962444 -0.020856966294133125 -0.37612406312911856 1.1597478773316587 0.27011763687942519 0.26015599953862373 -0.16780408889239262 -0.25727350749888117 0.62844309387845432 0.053222407318635936 0.020723195113430456 0.35014627266732579;-0.40600635322693579 -0.063308268810975538 0.31109880075966156 -0.21471512940339746 0.14952224118547031 0.11407855500463727 -0.28313173952298437 -0.12491092484476601 -0.37389838663955538 0.25682615114979995 -0.036475483820587566 0.28769209875000779 0.14540484227446884 0.042616928677198782 -0.086849971904042783 0.11786312941438613 -0.32079275694141113 -0.12579963999291005 -0.17215623672173727 0.18098002997558499 -0.42028575315164307 -0.340132331915807 0.010630391834375629 -0.18525663803626632 -0.58947223152071626 0.054974814242700926 0.25322614834020762 0.28741395365294031 -0.009830517129220024 0.061597131595132512 -0.43960237702536836 -0.46390242668661769 -0.0781667266540126 0.23836889527404995 0.062666237675490954 -0.038932760161247436 -0.20206371523022165 0.16013206481414802 -0.13495454918390792 -0.0097018514609259615 0.25202808166476409 0.019088825855495251 0.42885814846929526 0.013788448434153179 0.17730457763752008 0.46582178222982362 0.24392533149875442 -0.23807301184737067 -0.29258612620259228 0.32897634462080366;0.014603333906611808 -0.13237824072408638 0.14875586538717836 -0.12715852736551589 0.17845322239768152 -0.083637843973746059 0.081987721826286025 -0.1193732343003234 -0.11936225053144248 0.21968526707799951 -0.31660694669508477 -0.039516253246032078 0.22058789961324732 0.090617288008357388 0.073633611648038319 -0.15544501474142436 -0.23562268694051314 0.093313269340088614 -0.30804360755529148 -0.024155560768870807 -0.024078550070120153 -0.12009103570269218 0.017808655974478751 -0.093568449138213022 -0.080644615696908839 -0.12697024392870609 -0.46295808789921011 -0.16024465924463724 0.33459614746511052 -0.057240613024955755 0.33819600528732197 0.053202004538290056 -0.24537631084154232 -0.023942225063054174 0.07768083339173501 -0.39723046502936804 0.11366533706788177 -0.093394438988687115 -0.11514421903880488 0.13054879280099757 -0.19883762799629068 -0.1651566192688981 0.067093996886618087 -0.098152869906630122 0.071561524934780393 -0.36860559909299451 0.086167035438877937 0.094598970012853334 0.0072557587882234346 0.097013599728134239;-0.35048739846363702 0.19829853006982906 0.62569300170933617 -0.19805132664438879 0.04151149551425113 -0.21426698151597848 -0.23502258932050848 -0.0234411411116861 -0.46307379544681898 0.0071450726735869888 0.10319984901726451 0.47066673893434835 0.040410958860024992 -0.24293994421604703 0.10823397308913819 -0.16153589668207979 0.12839079814334137 -0.17165048700940103 -0.16141510891289437 -0.1672588269679692 -0.15669634402069593 -0.065243937392654994 -0.19891491169646022 0.15156767927089793 0.12719111687182935 0.08562513741616587 0.25929105914502426 0.15201168071604815 -0.56627973214215777 -0.11845327480745589 -0.29360471188730514 -0.24610429959347743 0.057673820752012009 0.095640262706647466 0.022701678437593416 -0.68727500817705056 0.22709661110742929 -0.24009917036288536 0.2183889566422155 -0.074590814983477152 0.0071947783160858621 0.18701050200306671 0.27611706314603335 -0.00039580683680943545 -0.031732271272088407 0.55877836303633788 0.16932105076968071 0.021246463976696571 0.11656175779180024 -0.063416249816910186;0.31150361109223462 -0.080146700191539494 0.14802499494168497 0.02158540048949311 0.12472831795625502 0.033085430056150063 0.21572232788342494 -0.071005241281459144 -0.1244347636366637 -0.067521621058219253 0.54879554566610633 -0.11170690234310682 0.029044859489501411 0.1829565212712799 0.019054232438805063 0.041797511401260867 0.069729865902118479 -0.0043097427180445683 -0.047777804703054358 0.044817603776898501 0.0031633228051791739 0.32143903548891695 0.068510511759665021 -0.056706300168312539 1.0264106905859813 -0.059023378736053365 -0.23875819824577024 -0.028303830848382266 0.10372385661638803 0.16093530572299869 0.084525608109333628 0.5782014541727547 0.17599048152770425 0.089230662117803977 0.029256043367338096 0.13593757223482775 -0.064506419331239115 -0.3536298906333355 0.25001390251258754 0.43308004598326977 -0.047490737313755263 -0.032842207531616922 0.084736519167664684 -0.012782508529314974 -0.010488804615477944 -0.0010848013013521991 0.038946196813366335 -0.051907851963621396 -0.05156263541385879 -0.18210963246249109;-0.16641571758497892 0.17295606127498089 0.5715037951364379 0.65084621850910984 -0.03599571743370758 0.013465548046770193 -0.1818796721073537 -0.0902541608111848 0.42794084004496119 -0.019896055779100901 -0.10433641187468104 0.079421900118985742 0.21538681065567894 -0.37699966265056645 0.030352025010080885 0.22395609491516352 -0.17592004243986237 0.058448558403975781 0.032950466378046231 -0.45967250131730947 0.25421549540512312 -0.18655233254403567 0.12203589152237852 0.064928579306301207 0.19706252380745717 -0.12064661201915507 -0.42477042907177098 0.045164593435102297 0.13808862442581551 -0.1741742846795257 -0.26672495609938052 0.047404313295229948 0.016242586059562296 -0.21397305962427063 -0.10736990951341602 -0.17754816401151732 -0.065567062465547957 -0.067460853171531707 0.1625060978572459 0.24408417472415389 -0.12703351554323439 0.5174810255487724 0.19004429008338711 0.0082791187741429757 0.26637366817234598 0.42428337754729561 -0.034367367000212999 -0.009270544313542876 -0.082814282909419709 -0.21795934606612236;-0.11443165969987504 0.35647400791483452 0.45185501296066222 0.10552635744247102 0.3334318075596715 0.033867881855855063 -0.31728094013575853 0.15588866153446906 -0.12381027734024742 0.0059225215867783716 0.125678712476265 -0.32470880822693077 -0.088102325617585214 -0.25234281420362115 -0.014775319377349742 0.69615810779304144 -0.20894855384793906 0.37992638732698047 -0.14588421145071959 0.05282246943889659 0.14159862808920809 0.14301034439700172 -0.28930623926515509 0.119840468483007 -0.2364386061751616 -0.13096288573372736 0.25528574365521495 0.043460706931259092 -0.22190167855297305 0.049122433677946442 -0.054823876538765193 0.69161190759236468 0.12049569404384161 -0.18599638917852324 0.2041083998006491 -0.47743608421693423 0.012947065079585924 0.090103240113275362 -0.24983369101224387 -0.11779148236413912 0.029202311282506777 -0.18504514274727771 -0.026419975778818387 -0.18156416769332945 0.19094121342194451 0.12532322146179256 -0.048311232332659895 -0.41222054943469766 0.30759148551435778 -0.18249922248256126;0.27284985088862462 -0.13936828852159064 0.30598404563393061 0.34226515629096027 -0.17018177063898932 -0.048584302693925586 0.027582545279990874 -0.78826911359691321 -0.23358462271535615 0.17075033411734747 0.17375119423146734 0.64535360400363972 0.96233908305382154 0.042949556550931745 0.11743890454334675 -0.1913192427932224 -0.32858574654080552 -0.85657132548897441 0.81093522990292666 0.14677539599675243 0.084843817547926817 0.17114374525434939 -0.18895246304393568 -0.37528062447171001 0.43035499858748 -0.13220995895042356 -0.28591804741881338 -0.11454028902974484 0.24260624460003394 0.11962029980206146 0.27292196979509625 0.32600522917841501 -0.23601150304798196 0.37845356546640674 0.26484026313026859 -0.19621087759349878 -0.14970683307222679 -0.21655444396809184 0.80475709370132786 -0.46925806676466592 -0.0288779246262258 -0.099418068795077114 0.15125718012287301 -0.047723414513539286 0.3511195529994573 -0.48165736142579818 0.22773752998420033 -0.12691374813643472 -0.24140071851584902 -0.35740536783779409;0.030132443897306797 -0.26918440947650846 0.14584744670847863 0.052273464775681955 -0.060008616724883675 0.11962903702286797 -0.22291263591267893 0.10294891467359053 -0.19803217757995809 -0.17304590153260724 -0.22336709336005492 0.014472690342132607 -0.12380067132645102 0.15111495901107716 0.039363221418072435 -0.21134886949496129 0.10936788133500561 -0.094773107114572416 -0.15713123956835859 0.10692271243696624 -0.19533312625337404 0.051645757782018208 -0.094977743010893886 -0.25278719748836342 0.71841493549575264 -0.036838522415358448 -0.33461041054404389 0.031046766394541115 -0.19804085881892822 -0.41740778574606063 -0.019489659453299321 0.11540344565034651 -0.062570350185834525 0.40565199615928393 0.015697988461305136 0.16363680493813126 0.04755712096796999 -0.31602503505634388 0.14035455207040187 0.22189466663416815 -0.35136895184424133 0.14971954172656821 -0.27163042283764355 0.096946798411541968 0.32997584198821467 0.22967650950473759 0.16044352465812703 -0.005548429704874857 -0.43578843799991729 0.23703434720619454;-0.062360013327323813 0.053438528728945431 0.24687805072759286 -0.4291099095528827 -0.014421593437207543 -0.031798228986691567 0.083482075247671789 -0.2096957806127604 -0.1165751321349545 -0.1616634504242925 -0.045978942020138337 0.4045673137533109 -0.15978707500291647 0.50499148490747836 0.12152298501229741 -0.24386518693912254 -0.28119704278590385 0.46694910582790633 0.42105963435501081 -0.34150121759491897 0.22331326997857193 0.0067731201926579483 -0.24242091408449951 0.16714543623949199 -0.34913855352573697 0.053108525132775967 -0.009162751534790143 -0.2613927284219203 0.12977213086685405 -0.37771177548257689 0.48576138259659252 -0.072691020449633256 0.066263558581914253 0.40897852175715366 -0.032087278896514859 0.4733054109993598 -0.29635704799650264 -0.10209363303529455 -0.13905181869801705 0.28699641023922845 0.10330868981031562 -0.13033823493307772 0.39047354568816084 0.19201044189040106 0.30962205231884526 0.26712886267924812 -0.049121706478742436 0.014338882956831403 0.001079836982853562 0.064240542590880398;-0.58508855472783983 0.071703749650655721 -0.44619923375707971 0.3488149129195775 -0.12124972923463419 -0.075632041958690027 0.072648704895267036 0.17366664959394496 -0.41089648387453981 0.58556763227982211 0.056866414683919224 -0.065552609586153665 -0.16393070355767228 0.33817038086298795 -0.066233491324633048 -0.45039256005742395 0.089541543385320235 0.38752523886487422 -0.097806707931585149 0.038453281225103358 0.0029468908977180503 -0.16719132640223744 0.02518613835707776 -0.54103161919412657 0.35024249483475761 -0.093567244016127121 -0.09478535285756004 0.039011828871870664 0.046265192318976536 -0.3072469094952317 -0.023972017784617685 0.31915206067264634 -0.068841011916993294 -0.172670965296226 0.026017204623668386 0.28227784642938147 0.0061937939785354553 0.10873056501421484 -0.41628017384450861 -0.15769682240723659 -0.059551202434751337 0.073915221141045609 0.26948187509065424 0.58123371272891677 0.23883278897840551 0.09331917048747812 -0.012397170214733692 1.7943772269095055 -0.24693244160144834 0.00467986778910927;-0.2354445231603659 -0.076389769830942991 0.32846051555719746 0.4459857460405523 0.07110721572085868 0.20376176242986482 0.37121349913358559 0.053438985485314228 -0.24230293990368848 -0.062810034711457519 -0.25090348160424691 0.50041491600327592 0.11853943004464089 0.18819668840432965 0.0040668568218374468 -0.061450580457489093 0.20757102456900545 0.20675862252816415 -0.10692182661873771 0.071068366928837196 0.0068158043787701645 -0.21883481183966985 0.2705590794608021 -0.30126972835937282 -0.76481084171599023 -0.13063179409790457 -0.62084591247914811 -0.076613071582581904 -0.23285156591136208 -0.088871340848229993 0.11144703659098489 -0.26394169355921249 -0.23619856506244247 0.4386795619124006 0.18227952266195124 -0.16712258823735784 -0.25365071464538175 -0.15277117384532971 0.51652946491322038 -0.19430888519826131 -0.16743348386155019 -0.055154128412846129 0.2578079936520043 0.33713771308492746 0.28156162509781996 0.52203367444048909 0.1046404710238865 -0.02626795687337535 -0.39985802687251332 -0.18077073326852047;0.081503816509193694 0.71515018157670895 0.16968091426715784 0.260067115652037 -0.26707015309521209 0.25865584763771954 -0.41494789941020094 0.16103563180743802 -0.30264926927603503 -0.40451267503390315 0.2458576424661755 0.33198965552260878 -0.22356380987588798 0.17133731048276762 -0.58541114672632932 -0.27939560549207404 0.50790717357754256 -0.26468900553258001 0.56998676858031383 -0.16262152730800852 -0.26963971386210706 0.20452111238430801 0.12325524670860415 -0.34364563025649986 0.17382716186547806 -0.510883007468388 0.80725491384899106 0.87687977176692278 -0.21978398357308845 -0.22449331361799563 0.015113703921720789 0.34910308929930883 0.10822202047683821 0.22154366562635003 -0.3552709046350942 -0.2172534068479918 0.11525392398326993 0.36348482054093245 -0.12599078323817844 0.15801289727887252 0.28619576732029484 -0.041038484981676768 0.13063685181726259 0.29258599691843767 0.41086969052749478 0.2585721553874511 -0.27608797754938597 -0.1588849830628502 0.4143370606413484 -0.21501116678249207;-0.3336344618932035 -0.2909337355682427 0.32526897286438194 -0.032062876692383453 0.17352659185858177 -0.045099180638619028 -0.045480860625991291 0.16333195837380499 -0.24452828310630026 -0.12474873276684458 0.034607974478771938 0.15749232106875177 0.035882427666501238 0.25885412009555708 -0.45827052602291368 0.16042440083694076 0.22580567846389663 -0.012900730497126761 0.083943357959776352 0.44760264798413435 -0.28500526689055944 0.19444118896129572 0.24013525525191229 -0.29301447024688143 0.02036413962749287 0.010222090475619162 0.14650841393184005 -0.43067215913398676 -0.17120535664955383 -0.43112303634172822 0.021800941902530537 0.18502749166722776 -0.3815905147003093 -0.22223862135642605 -0.21705571601619919 -0.18113129452278517 0.25767228766427075 0.080184202845072411 -0.59963651220650449 0.1863943954980983 -0.039650264963580234 0.34746023304520446 -0.001787865821545679 -0.058674891454419335 -0.31449793264339293 -0.65954997269026061 0.054046027051385968 0.012624770147349489 -0.001420736593305776 0.11961489580751643;0.18155104747283504 0.04265823705930788 -0.55868180204097739 0.050445745366109157 0.041868713438791304 -0.12066836540353079 0.085999433774231637 0.73792117900455845 0.27384722799192801 0.051090175243527713 -0.40650708670697655 -0.34488914213151245 0.48840740232827184 0.35540261421913344 -0.11905712678474632 -0.03254902559127628 -0.17663828341785121 -0.073607552668339321 -0.057074662438814532 -0.84227987039383134 -0.35356951092067751 -0.12593020003988806 0.3182466214930334 0.02715898121131927 -0.42049492360993818 0.6182136152301535 -0.48581497719035188 -0.053563201255014133 -0.081498997705185289 -0.16763859782446988 0.14255967045617413 0.37055179942918881 -0.24417821341031862 0.056614120943909677 0.12240871071433272 0.40043877312070253 0.45712434481704844 -0.20475379673972369 0.13758572963246468 -0.20476718038452818 0.16072780083092963 0.39731371803941778 -0.39302759646984337 0.3235795575344308 -0.014515582254816814 -0.67846629231380584 0.59680742297282385 -0.22933314710838645 -0.43199647451102358 -0.29731419175913376;-0.1448532396758361 -0.078487305269981031 -0.059546734124498339 0.16984333973071231 0.39150721383713372 -0.024088111126695035 -0.26445625542277285 -0.38053242913678231 0.28136253295124647 -0.027975483053807582 0.052824293998130371 -0.15274865208429733 0.19620910549586695 0.10777473023516163 -0.2596721707930833 0.036162695370567551 0.4559889851792619 0.496921566437107 0.33387667178202024 0.14557542101202414 0.13554869629506566 -0.014798764714197882 0.28438540898107512 0.030989344769334817 -0.35797957196085406 -0.18236153192361004 -0.17185813922296325 -0.22131627919982619 0.46991318503158258 0.0077639052571823047 0.49608671223080975 0.097202509486409905 0.25738929887048106 0.26686721127652518 0.001942002630662927 0.13755428223912292 -0.49480010346898351 0.15623778001946023 0.024676204899435832 0.22852696780154949 0.095874520097103247 0.0067825702823373366 0.14663280732111625 -0.15003465570075525 0.03152095119396988 -0.46816420025279981 -0.022382298218545715 -0.027933918027969011 0.16248088395097715 0.22972777198879737;-0.12334443079560678 0.17078947785058243 0.12300809884525088 0.2742997772312864 -0.13307456199089723 -0.27269656549889565 -0.14590589705837856 0.3870685768380927 -0.10573278722247062 0.13530080742781875 -0.073751261533432089 -0.37464577305429358 0.21957588798854613 0.14302179567347897 -0.16538550802018309 0.25749307792439136 0.34797085185568449 -0.21179655511621168 0.13679201844125283 -0.022194264267910501 -0.18869191578212124 0.066013535707838716 0.10902801199274743 -0.11558540211266069 0.065934753001592281 0.23322027070298737 0.50363969433624911 0.1489966864041353 0.1050305988852212 -0.38655246879180477 -0.22197066958260217 0.50222258376167872 0.19904096249620754 -0.56495230960565479 -0.5082007720757119 -0.35651722985917228 0.74364273394102343 -0.23164197503007483 0.053045571747397331 0.32193601968407148 -0.19024881078991671 0.46282408824034416 0.2372887618932342 -0.14047669284217632 -0.57826830707790955 0.29469705850213623 -0.49350486333946869 0.096535740714087867 0.61386654662341034 -0.23034058514267369;-0.17966720175338094 0.016390034374053043 0.3760049113866315 -0.40644659623065582 -0.17077669522352695 -0.055087962422849197 -0.23077205307846618 0.070118806027231154 -0.15269093709528364 0.075341944524580748 0.24022549098620441 0.24600557076689394 -0.080287648681846638 0.17115306696482657 0.12376948318498131 -0.027607732314492064 -0.0039874799263283685 -0.30633708353417544 0.55984076575939934 -0.13892870948683772 -0.033472934596685482 0.29420840998379355 0.079829541367877455 -0.33050728429159421 -0.079641272143573416 0.20394092155486387 0.22034284571678814 0.51253518689292077 -0.26453040152107243 0.27533044409700236 -0.010892219253493743 0.22464781532896094 0.19046495312719688 0.19756537702924135 -0.052157981734786481 -0.17174223152858473 -0.02157895267600379 0.098210587395656496 -0.54636298405643147 0.40599791879200292 0.020285576099737055 0.056459418415667213 0.27337970307296938 -0.038834005598200591 -0.010901370370947206 0.075217837408206617 0.071650434129359869 0.11541039806402678 -0.12950564158744721 0.14976438211006671;-0.25664681314835935 0.17304778458186604 0.28281037566965134 -0.027089453692580055 0.1439026401418749 0.010427076220348667 0.20022865552573807 -0.18280527787974796 0.28963098773219526 -0.21548870531704259 -0.16192907597295522 0.17730334760175842 -0.44273145560335242 -0.091986823966265216 -0.052542964776060977 0.3010010191049789 0.2409847437488144 0.21585428882688196 -0.21656272348153724 0.039377324222625402 -0.021249846644749732 0.16456630380089357 -0.10727162923692174 0.1338875380517639 -0.19178066266550353 0.04228123748706096 0.34435529660883801 0.072477148415906148 -0.34446844794726761 0.014272752744278895 -0.11949730886666729 0.29630936192964058 -0.095874305699857776 -0.24466963793199162 0.018903868433643303 -0.23769192357964047 -0.093394583983102894 -0.30703013723596262 0.069852613147021625 0.18896591615320882 0.39809395545082066 -0.14694802323873937 -0.27581441527301565 0.17259745162020235 -0.066158494687773683 0.3136351316804053 -0.026038708322842226 -0.13277625413698238 0.15560113265788894 0.13053467621510359;-0.32536849625189718 0.26555352683028305 -1.1887153327782554 -0.098160137903935671 0.06510901321288845 -0.089647964772064145 -0.044041223758905207 0.33693944208701787 -0.38625223666862896 0.21279813317555718 0.045352190999109331 -0.38420891639641563 -0.069888234072913877 -0.54566964382119176 0.0093941489226437302 -0.046334159896655271 0.48287490839436348 0.025607968140393549 0.36507834821931784 0.082615156212139107 -0.078238917170508002 0.49807772956587115 0.059103800532627399 0.28641181419511397 0.46104821220016234 0.28654906832016597 0.46229524288905782 0.084848996077680705 0.0075818357887318891 0.32138934871086883 -0.20169345681060488 0.34750154784612886 -0.15262167755681322 -0.087290319678714354 0.0066593414851324898 0.4237561409754752 0.043888466535546768 -0.4682525176152959 -0.30696865470235468 -0.24767714304026392 -0.087325024579001556 -0.10588841650534013 0.30203556296766337 0.013558043967221016 -0.10501447743397793 0.053136746434270118 -0.0098546306200509668 -0.060604094899734777 0.14418708751276099 -0.19790738121887719;0.17614113385235522 -0.08471358270450996 -0.19538480912355888 -0.19169370849510334 0.18968363187133108 0.20483689045921191 0.29695031999656768 -0.02373168068246756 0.24732729555594768 -0.20104040194325426 -0.096225879666362382 0.23907209499491272 0.091562522852722844 -0.11153350604478493 -0.020799990947484082 -0.52632567998124269 0.53749892094771001 -0.20418498718736777 0.37862354640314205 0.0018768390142312342 -0.32780578048540593 0.19471835891644113 -0.013811437370260894 -0.10742247633837751 -0.090320080473386299 -0.26823189152426025 0.77729472380425024 0.22023515956507195 0.2005402869538303 -0.24831174694050753 -0.34998278777346586 -0.097405854881948514 0.16323037556285522 0.06539961831199069 -0.1996578126339881 0.51107930826537729 -0.31415744061398426 -0.068362294396264636 0.20607773954617145 0.21839824246448744 0.10189528368210425 